svm_type c_svc
kernel_type rbf
gamma 0.0204082
nr_class 2
total_sv 366
rho -2.24917
label 0 1
nr_sv 184 182
SV
1 0:0 1:0 2:0 3:0 4:0 5:0.04 6:0.04 7:0.1 8:0.12 9:0.14 10:0.16 11:0.24 12:0.24 13:0.28 14:0.42 15:0.44 16:0.64 17:0.62 18:0.56 19:0.58 20:0.64 21:0.72 22:0.68 23:0.72 24:0.72 25:0.72 26:0.68 27:0.7 28:0.86 29:0.82 30:0.88 31:0.9 32:0.92 33:0.82 34:0.9 35:0.92 36:0.9 37:0.74 38:0.8 39:0.74 40:0.66 41:0.62 42:0.6 43:0.52 44:0.32 45:0.34 46:0.26 47:0.22 48:0.12 49:0.12 
1 0:0.06 1:0.14 2:0.14 3:0.18 4:0.2 5:0.22 6:0.26 7:0.3 8:0.34 9:0.34 10:0.3 11:0.36 12:0.34 13:0.4 14:0.52 15:0.58 16:0.56 17:0.54 18:0.54 19:0.7 20:0.72 21:0.76 22:0.7 23:0.68 24:0.74 25:0.78 26:0.84 27:0.66 28:0.74 29:0.72 30:0.8 31:0.74 32:0.66 33:0.46 34:0.3 35:0.42 36:0.56 37:0.52 38:0.28 39:0.32 40:0.32 41:0.3 42:0.32 43:0.26 44:0.26 45:0.18 46:0.22 47:0.24 48:0.2 49:0.12 
1 0:0 1:0 2:0 3:0 4:0 5:0 6:0.02 7:0.1 8:0.22 9:0.24 10:0.26 11:0.36 12:0.46 13:0.36 14:0.62 15:0.4 16:0.48 17:0.38 18:0.4 19:0.34 20:0.54 21:0.74 22:0.66 23:0.64 24:0.62 25:0.72 26:0.66 27:0.62 28:0.62 29:0.58 30:0.42 31:0.34 32:0.36 33:0.36 34:0.32 35:0.28 36:0.26 37:0.12 38:0.16 39:0.14 40:0.16 41:0.08 42:0.08 43:0.02 44:0.08 45:0.1 46:0.1 47:0.12 48:0.02 49:0.1 
1 0:0 1:0 2:0.56 3:0.82 4:0.66 5:0.56 6:0.62 7:0.72 8:0.38 9:0.62 10:0.44 11:0.6 12:0.7 13:0.66 14:0.6 15:0.7 16:0.64 17:0.6 18:0.36 19:0.48 20:0.46 21:0.36 22:0.42 23:0.44 24:0.34 25:0.46 26:0.58 27:0.62 28:0.7 29:0.66 30:0.74 31:0.76 32:0.74 33:0.74 34:0.8 35:0.6 36:0.44 37:0.7 38:0.6 39:0.68 40:0.56 41:0.72 42:0.5 43:0.6 44:0.44 45:0.4 46:0.4 47:0.24 48:0 49:0 
1 0:0 1:0.02 2:0.04 3:0.04 4:0.02 5:0.1 6:0.02 7:0.04 8:0.1 9:0.06 10:0.06 11:0.04 12:0.08 13:0.08 14:0.1 15:0.12 16:0.24 17:0.48 18:0.58 19:0.42 20:0.54 21:0.56 22:0.5 23:0.6 24:0.62 25:0.74 26:0.62 27:0.56 28:0.66 29:0.82 30:0.54 31:0.5 32:0.54 33:0.58 34:0.58 35:0.64 36:0.6 37:0.68 38:0.7 39:0.16 40:0.02 41:0.08 42:0.04 43:0 44:0.04 45:0.06 46:0.14 47:0.02 48:0.02 49:0 
1 0:0.44 1:0.48 2:0.38 3:0.38 4:0.48 5:0.38 6:0.48 7:0.44 8:0.52 9:0.6 10:0.6 11:0.68 12:0.8 13:0.74 14:0.74 15:0.72 16:0.7 17:0.74 18:0.64 19:0.66 20:0.78 21:0.88 22:0.8 23:0.76 24:0.84 25:0.84 26:0.76 27:0.88 28:0.82 29:0.8 30:0.86 31:0.88 32:0.94 33:0.88 34:0.78 35:0.88 36:0.82 37:0.9 38:0.9 39:0.9 40:0.84 41:0.74 42:0.66 43:0.52 44:0.5 45:0.36 46:0.28 47:0.28 48:0.24 49:0.28 
1 0:0.06 1:0.2 2:0.3 3:0.12 4:0.14 5:0.12 6:0.24 7:0.52 8:0.42 9:0.38 10:0.5 11:0.46 12:0.48 13:0.3 14:0.26 15:0.34 16:0.56 17:0.64 18:0.54 19:0.58 20:0.68 21:0.58 22:0.76 23:0.72 24:0.72 25:0.7 26:0.78 27:0.66 28:0.64 29:0.64 30:0.78 31:0.62 32:0.5 33:0.36 34:0.52 35:0.24 36:0.46 37:0 38:0.06 39:0 40:0 41:0 42:0 43:0 44:0 45:0.22 46:0.02 47:0 48:0.02 49:0 
1 0:0.66 1:0.56 2:0.58 3:0.62 4:0.5 5:0.44 6:0.62 7:0.64 8:0.72 9:0.82 10:0.74 11:0.84 12:0.74 13:0.82 14:0.8 15:0.9 16:0.86 17:0.94 18:0.84 19:0.86 20:0.72 21:0.68 22:0.64 23:0.68 24:0.76 25:0.82 26:0.96 27:0.94 28:0.88 29:0.88 30:0.78 31:0.82 32:0.84 33:0.84 34:0.82 35:0.84 36:0.96 37:0.74 38:0.92 39:0.66 40:0.46 41:0.44 42:0.62 43:0.32 44:0.3 45:0.32 46:0.24 47:0.34 48:0.32 49:0.28 
1 0:0.02 1:0 2:0 3:0 4:0 5:0 6:0.02 7:0.02 8:0.34 9:0.4 10:0.3 11:0.58 12:0.5 13:0.92 14:0.56 15:0.8 16:0.68 17:0.62 18:0.58 19:0.58 20:0.5 21:0.5 22:0.56 23:0.56 24:0.4 25:0.38 26:0.4 27:0.44 28:0.28 29:0.42 30:0.34 31:0.48 32:0.36 33:0.24 34:0.32 35:0.26 36:0.2 37:0.22 38:0.16 39:0.1 40:0.2 41:0.16 42:0.2 43:0.1 44:0.08 45:0.16 46:0.12 47:0.06 48:0.04 49:0.06 
1 0:0.18 1:0.2 2:0.26 3:0.42 4:0.28 5:0.22 6:0.3 7:0.24 8:0.44 9:0.38 10:0.34 11:0.48 12:0.6 13:0.5 14:0.68 15:0.6 16:0.56 17:0.72 18:0.58 19:0.56 20:0.56 21:0.56 22:0.58 23:0.8 24:0.82 25:0.8 26:0.94 27:0.76 28:0.86 29:0.74 30:0.84 31:0.6 32:0.42 33:0.62 34:0.52 35:0.58 36:0.54 37:0.56 38:0.62 39:0.48 40:0.54 41:0.48 42:0.3 43:0.3 44:0.32 45:0.28 46:0.24 47:0.16 48:0.26 49:0.26 
1 0:0.06 1:0.08 2:0.14 3:0.02 4:0.24 5:0.4 6:0.44 7:0.3 8:0.4 9:0.62 10:0.52 11:0.5 12:0.68 13:0.66 14:0.74 15:0.7 16:0.56 17:0.58 18:0.74 19:0.6 20:0.58 21:0.6 22:0.66 23:0.82 24:0.74 25:0.6 26:0.6 27:0.48 28:0.58 29:0.8 30:0.48 31:0.64 32:0.36 33:0.52 34:0.6 35:0.58 36:0.5 37:0.5 38:0.54 39:0.54 40:0.58 41:0.66 42:0.48 43:0.38 44:0.38 45:0.14 46:0.24 47:0.22 48:0.26 49:0.3 
1 0:0.02 1:0.24 2:0.16 3:0.04 4:0.02 5:0.2 6:0.08 7:0.16 8:0.36 9:0.34 10:0.4 11:0.46 12:0.48 13:0.48 14:0.56 15:0.44 16:0.56 17:0.52 18:0.54 19:0.6 20:0.44 21:0.38 22:0.42 23:0.48 24:0.4 25:0.56 26:0.58 27:0.46 28:0.52 29:0.52 30:0.48 31:0.66 32:0.6 33:0.3 34:0.28 35:0.46 36:0.34 37:0.32 38:0.5 39:0.18 40:0.14 41:0.08 42:0.1 43:0.08 44:0.02 45:0.04 46:0.06 47:0.06 48:0 49:0 
1 0:0 1:0 2:0 3:0 4:0.04 5:0.06 6:0.06 7:0.12 8:0.22 9:0.2 10:0.18 11:0.24 12:0.2 13:0.26 14:0.2 15:0.34 16:0.34 17:0.54 18:0.44 19:0.52 20:0.56 21:0.54 22:0.52 23:0.58 24:0.44 25:0.64 26:0.62 27:0.64 28:0.66 29:0.7 30:0.74 31:0.72 32:0.7 33:0.56 34:0.48 35:0.66 36:0.58 37:0.42 38:0.46 39:0.38 40:0.38 41:0.3 42:0.38 43:0.36 44:0 45:0 46:0.02 47:0 48:0 49:0 
1 0:0.06 1:0.16 2:0.04 3:0.08 4:0 5:0.04 6:0.28 7:0.44 8:0.46 9:0.6 10:0.6 11:0.66 12:0.64 13:0.6 14:0.66 15:0.78 16:0.7 17:0.78 18:0.92 19:0.92 20:0.88 21:0.86 22:0.84 23:0.9 24:0.82 25:0.82 26:0.82 27:0.72 28:0.84 29:0.74 30:0.82 31:0.92 32:0.84 33:0.76 34:0.84 35:0.82 36:0.82 37:0.8 38:0.62 39:0.56 40:0.36 41:0.48 42:0.5 43:0.56 44:0.56 45:0.38 46:0.48 47:0.38 48:0.64 49:0.64 
1 0:0.36 1:0.32 2:0.32 3:0.22 4:0.22 5:0.3 6:0.22 7:0.28 8:0.34 9:0.24 10:0.4 11:0.5 12:0.56 13:0.62 14:0.52 15:0.66 16:0.52 17:0.56 18:0.66 19:0.6 20:0.68 21:0.64 22:0.76 23:0.76 24:0.8 25:0.76 26:0.8 27:0.74 28:0.72 29:0.62 30:0.86 31:0.82 32:0.72 33:0.66 34:0.62 35:0.58 36:0.42 37:0.34 38:0.32 39:0.52 40:0.42 41:0.38 42:0.12 43:0.38 44:0.52 45:0.48 46:0.38 47:0.12 48:0.12 49:0.1 
1 0:0 1:0.06 2:0 3:0 4:0.02 5:0.02 6:0.04 7:0.08 8:0.1 9:0.18 10:0.2 11:0.4 12:0.4 13:0.5 14:0.44 15:0.46 16:0.48 17:0.48 18:0.5 19:0.62 20:0.6 21:0.66 22:0.62 23:0.68 24:0.46 25:0.64 26:0.54 27:0.46 28:0.54 29:0.48 30:0.58 31:0.4 32:0.5 33:0.5 34:0.4 35:0.4 36:0.38 37:0.4 38:0.5 39:0.4 40:0.28 41:0.06 42:0 43:0.02 44:0 45:0.02 46:0 47:0 48:0 49:0.02 
1 0:0.08 1:0.1 2:0.14 3:0.2 4:0.14 5:0.16 6:0.14 7:0.04 8:0.1 9:0.1 10:0.08 11:0.16 12:0.16 13:0.18 14:0.24 15:0.2 16:0.2 17:0.5 18:0.66 19:0.7 20:0.76 21:0.68 22:0.58 23:0.46 24:0.48 25:0.5 26:0.6 27:0.62 28:0.48 29:0.66 30:0.72 31:0.64 32:0.64 33:0.6 34:0.58 35:0.6 36:0.78 37:0.6 38:0.68 39:0.62 40:0.52 41:0.56 42:0.48 43:0.24 44:0.14 45:0.06 46:0.16 47:0.18 48:0.06 49:0.2 
1 0:0.24 1:0.24 2:0.22 3:0.38 4:0.5 5:0.24 6:0.22 7:0.26 8:0.16 9:0.36 10:0.22 11:0.62 12:0.6 13:0.54 14:0.64 15:0.66 16:0.7 17:0.72 18:0.62 19:0.74 20:0.72 21:0.74 22:0.76 23:0.72 24:0.7 25:0.6 26:0.68 27:0.74 28:0.82 29:0.62 30:0.68 31:0.7 32:0.78 33:0.82 34:0.82 35:0.58 36:0.62 37:0.8 38:0.54 39:0.38 40:0.18 41:0.28 42:0.26 43:0.44 44:0.16 45:0.2 46:0.24 47:0.3 48:0.18 49:0.2 
1 0:0 1:0 2:0 3:0.02 4:0.04 5:0.32 6:0.36 7:0.36 8:0.42 9:0.44 10:0.64 11:0.7 12:0.68 13:0.64 14:0.68 15:0.64 16:0.64 17:0.72 18:0.58 19:0.6 20:0.62 21:0.52 22:0.66 23:0.68 24:0.7 25:0.62 26:0.74 27:0.6 28:0.66 29:0.76 30:0.72 31:0.76 32:0.64 33:0.52 34:0.68 35:0.6 36:0.7 37:0.7 38:0.68 39:0.62 40:0.76 41:0.72 42:0.6 43:0.66 44:0.56 45:0.52 46:0.7 47:0.16 48:0.08 49:0.08 
1 0:0.42 1:0.44 2:0.38 3:0.4 4:0.32 5:0.52 6:0.46 7:0.48 8:0.56 9:0.54 10:0.62 11:0.92 12:0.78 13:0.72 14:0.72 15:0.76 16:0.84 17:0.82 18:0.82 19:0.8 20:0.9 21:0.9 22:0.88 23:0.9 24:0.88 25:0.86 26:0.76 27:0.88 28:0.9 29:0.86 30:0.88 31:0.8 32:0.86 33:0.84 34:0.88 35:0.84 36:0.94 37:0.86 38:0.84 39:0.62 40:0.5 41:0.48 42:0.42 43:0.04 44:0.1 45:0.06 46:0.04 47:0.04 48:0.02 49:0 
1 0:0 1:0 2:0 3:0 4:0 5:0.02 6:0.2 7:0.24 8:0.28 9:0.38 10:0.48 11:0.54 12:0.56 13:0.6 14:0.72 15:0.64 16:0.78 17:0.6 18:0.54 19:0.66 20:0.62 21:0.6 22:0.62 23:0.7 24:0.54 25:0.64 26:0.44 27:0.46 28:0.42 29:0.48 30:0.42 31:0.42 32:0.5 33:0.72 34:0.72 35:0.66 36:0.76 37:0.56 38:0.8 39:0.94 40:0.88 41:0.88 42:0.6 43:0.74 44:0.7 45:0.26 46:0.1 47:0.24 48:0.16 49:0.08 
1 0:0.28 1:0.22 2:0.24 3:0.34 4:0.18 5:0.16 6:0.08 7:0.18 8:0.1 9:0.78 10:0.8 11:0.92 12:0.78 13:0.54 14:0.72 15:0.72 16:0.92 17:0.8 18:0.84 19:0.86 20:0.86 21:0.8 22:0.74 23:0.66 24:0.72 25:0.78 26:0.78 27:0.68 28:0.62 29:0.64 30:0.62 31:0.66 32:0.6 33:0.38 34:0.46 35:0.6 36:0.66 37:0.68 38:0.66 39:0.62 40:0.68 41:0.8 42:0.62 43:0.54 44:0.34 45:0.32 46:0.26 47:0.18 48:0.2 49:0.22 
1 0:0.14 1:0.18 2:0.06 3:0.12 4:0.2 5:0.04 6:0.52 7:0.16 8:0.38 9:0.42 10:0.46 11:0.54 12:0.6 13:0.5 14:0.26 15:0.46 16:0.82 17:0.88 18:0.74 19:0.7 20:0.66 21:0.5 22:0.56 23:0.66 24:0.64 25:0.58 26:0.62 27:0.64 28:0.62 29:0.56 30:0.66 31:0.64 32:0.7 33:0.7 34:0.7 35:0.78 36:0.76 37:0.72 38:0.66 39:0.6 40:0.64 41:0.66 42:0.56 43:0.66 44:0.84 45:0.66 46:0.48 47:0.56 48:0.04 49:0.02 
1 0:0 1:0 2:0 3:0 4:0 5:0 6:0.06 7:0.24 8:0.32 9:0.4 10:0.44 11:0.48 12:0.52 13:0.62 14:0.72 15:0.78 16:0.8 17:0.84 18:0.86 19:0.86 20:0.86 21:0.82 22:0.82 23:0.86 24:0.86 25:0.9 26:0.9 27:0.92 28:0.82 29:0.94 30:0.82 31:0.84 32:0.54 33:0.54 34:0.66 35:0.62 36:0.84 37:0.82 38:0.84 39:0.82 40:0.82 41:0.82 42:0.78 43:0.76 44:0.68 45:0.64 46:0.76 47:0.66 48:0.78 49:0.54 
1 0:0 1:0 2:0 3:0.16 4:0.24 5:0.26 6:0.54 7:0.22 8:0.4 9:0.26 10:0.54 11:0.28 12:0.5 13:0.26 14:0.6 15:0.24 16:0.6 17:0.2 18:0.74 19:0.14 20:0.62 21:0.64 22:0.28 23:0.6 24:0.2 25:0.62 26:0.68 27:0.16 28:0.42 29:0.4 30:0.76 31:0.7 32:0.42 33:0.9 34:0.66 35:0.56 36:0.4 37:0.76 38:0.54 39:0.32 40:0.38 41:0.34 42:0.42 43:0.32 44:0.14 45:0.14 46:0.14 47:0.26 48:0.1 49:0.04 
1 0:0 1:0 2:0.02 3:0.12 4:0.22 5:0.34 6:0.36 7:0.4 8:0.5 9:0.58 10:0.64 11:0.72 12:0.6 13:0.66 14:0.64 15:0.86 16:0.72 17:0.84 18:0.86 19:0.86 20:0.84 21:0.74 22:0.84 23:0.68 24:0.82 25:0.8 26:0.82 27:0.82 28:0.82 29:0.84 30:0.86 31:0.86 32:0.92 33:0.7 34:0.8 35:0.68 36:0.68 37:0.58 38:0.74 39:0.8 40:0.76 41:0.74 42:0.76 43:0.56 44:0.68 45:0.56 46:0.7 47:0.58 48:0.66 49:0.6 
1 0:0.02 1:0.02 2:0.04 3:0.04 4:0.22 5:0.38 6:0.32 7:0.22 8:0.3 9:0.42 10:0.46 11:0.36 12:0.34 13:0.44 14:0.44 15:0.34 16:0.42 17:0.46 18:0.4 19:0.46 20:0.64 21:0.54 22:0.46 23:0.48 24:0.48 25:0.5 26:0.62 27:0.66 28:0.56 29:0.66 30:0.6 31:0.52 32:0.44 33:0.64 34:0.46 35:0.14 36:0.36 37:0.24 38:0.12 39:0.16 40:0.14 41:0.1 42:0.22 43:0.24 44:0.08 45:0.1 46:0.08 47:0.1 48:0.12 49:0.06 
1 0:0.42 1:0.42 2:0.44 3:0.4 4:0.46 5:0.42 6:0.38 7:0.38 8:0.46 9:0.44 10:0.46 11:0.6 12:0.68 13:0.82 14:0.8 15:0.84 16:0.86 17:0.9 18:0.64 19:0.62 20:0.76 21:0.82 22:0.78 23:0.78 24:0.8 25:0.84 26:0.84 27:0.86 28:0.92 29:0.8 30:0.74 31:0.88 32:0.68 33:0.6 34:0.7 35:0.64 36:0.7 37:0.64 38:0.76 39:0.74 40:0.66 41:0.6 42:0.6 43:0.78 44:0.58 45:0.86 46:0.5 47:0.28 48:0.38 49:0.28 
1 0:0.34 1:0.38 2:0.18 3:0.16 4:0.2 5:0.2 6:0.18 7:0.26 8:0.32 9:0.38 10:0.38 11:0.26 12:0.38 13:0.4 14:0.32 15:0.56 16:0.5 17:0.54 18:0.58 19:0.68 20:0.56 21:0.56 22:0.62 23:0.72 24:0.7 25:0.78 26:0.6 27:0.56 28:0.68 29:0.7 30:0.5 31:0.64 32:0.7 33:0.7 34:0.62 35:0.52 36:0.5 37:0.44 38:0.5 39:0.32 40:0.14 41:0.3 42:0.04 43:0.22 44:0.1 45:0.06 46:0.08 47:0.08 48:0.04 49:0.06 
1 0:0 1:0 2:0 3:0 4:0 5:0.04 6:0.06 7:0.08 8:0.08 9:0.1 10:0.3 11:0.36 12:0.34 13:0.4 14:0.44 15:0.26 16:0.16 17:0.36 18:0.22 19:0.26 20:0.62 21:0.4 22:0.62 23:0.68 24:0.7 25:0.6 26:0.74 27:0.68 28:0.58 29:0.72 30:0.62 31:0.8 32:0.72 33:0.64 34:0.4 35:0.6 36:0.5 37:0.8 38:0.52 39:0.36 40:0.4 41:0.58 42:0.46 43:0.6 44:0.62 45:0.6 46:0.46 47:0.26 48:0.22 49:0.34 
1 0:0 1:0 2:0 3:0 4:0.04 5:0.18 6:0.18 7:0.24 8:0.3 9:0.4 10:0.44 11:0.5 12:0.58 13:0.52 14:0.6 15:0.54 16:0.76 17:0.78 18:0.78 19:0.8 20:0.7 21:0.84 22:0.74 23:0.74 24:0.54 25:0.42 26:0.5 27:0.36 28:0.24 29:0.32 30:0.28 31:0.14 32:0.3 33:0.6 34:0.76 35:0.3 36:0.34 37:0.12 38:0.02 39:0.1 40:0.06 41:0.08 42:0.06 43:0.02 44:0.06 45:0.1 46:0.04 47:0 48:0.06 49:0 
1 0:0 1:0 2:0 3:0.18 4:0.22 5:0.24 6:0.46 7:0.62 8:0.4 9:0.14 10:0.36 11:0.56 12:0.6 13:0.38 14:0.42 15:0.46 16:0.48 17:0.48 18:0.42 19:0.48 20:0.46 21:0.38 22:0.52 23:0.46 24:0.4 25:0.54 26:0.54 27:0.56 28:0.5 29:0.56 30:0.58 31:0.62 32:0.68 33:0.44 34:0.46 35:0.4 36:0.22 37:0.2 38:0.26 39:0.26 40:0.2 41:0.18 42:0.16 43:0.14 44:0.22 45:0.12 46:0.12 47:0.06 48:0.06 49:0.12 
1 0:0.72 1:0.66 2:0.6 3:0.62 4:0.6 5:0.66 6:0.76 7:0.74 8:0.66 9:0.78 10:0.8 11:0.74 12:0.82 13:0.76 14:0.76 15:0.76 16:0.64 17:0.74 18:0.66 19:0.58 20:0.62 21:0.6 22:0.58 23:0.7 24:0.6 25:0.56 26:0.62 27:0.64 28:0.58 29:0.7 30:0.68 31:0.66 32:0.66 33:0.66 34:0.66 35:0.68 36:0.74 37:0.46 38:0.3 39:0.1 40:0.04 41:0 42:0 43:0 44:0 45:0 46:0.02 47:0 48:0 49:0 
1 0:0.02 1:0.02 2:0 3:0 4:0 5:0 6:0 7:0 8:0.04 9:0.04 10:0.2 11:0.04 12:0.1 13:0.2 14:0.34 15:0.32 16:0.4 17:0.26 18:0.54 19:0.62 20:0.46 21:0.6 22:0.68 23:0.54 24:0.48 25:0.42 26:0.38 27:0.32 28:0.36 29:0.7 30:0.42 31:0.76 32:0.64 33:0.62 34:0.54 35:0.56 36:0.56 37:0.62 38:0.46 39:0.38 40:0.28 41:0.24 42:0.14 43:0.08 44:0.04 45:0 46:0 47:0 48:0 49:0 
1 0:0.14 1:0.24 2:0.24 3:0.16 4:0.26 5:0.2 6:0.18 7:0.32 8:0.32 9:0.4 10:0.26 11:0.26 12:0.3 13:0.36 14:0.26 15:0.26 16:0.36 17:0.4 18:0.56 19:0.52 20:0.5 21:0.54 22:0.66 23:0.54 24:0.64 25:0.64 26:0.48 27:0.54 28:0.74 29:0.68 30:0.7 31:0.4 32:0.72 33:0.7 34:0.62 35:0.7 36:0.7 37:0.66 38:0.64 39:0.6 40:0.54 41:0.48 42:0.56 43:0.34 44:0.18 45:0.24 46:0.34 47:0.14 48:0.04 49:0.06 
1 0:0.12 1:0.06 2:0.12 3:0.28 4:0.3 5:0.36 6:0.34 7:0.44 8:0.48 9:0.44 10:0.68 11:0.58 12:0.62 13:0.7 14:0.68 15:0.84 16:0.66 17:0.72 18:0.78 19:0.64 20:0.86 21:0.84 22:0.76 23:0.74 24:0.74 25:0.68 26:0.64 27:0.6 28:0.6 29:0.46 30:0.6 31:0.5 32:0.58 33:0.64 34:0.54 35:0.38 36:0.32 37:0.2 38:0.16 39:0.2 40:0.18 41:0.22 42:0.32 43:0.16 44:0.12 45:0.18 46:0.26 47:0.26 48:0.2 49:0.14 
1 0:0 1:0 2:0 3:0 4:0.06 5:0.02 6:0.02 7:0 8:0.22 9:0.34 10:0.38 11:0.44 12:0.44 13:0.42 14:0.42 15:0.36 16:0.52 17:0.4 18:0.48 19:0.52 20:0.44 21:0.58 22:0.56 23:0.38 24:0.48 25:0.48 26:0.42 27:0.46 28:0.46 29:0.38 30:0.36 31:0.34 32:0.46 33:0.42 34:0.28 35:0.38 36:0.28 37:0.34 38:0.2 39:0.08 40:0.1 41:0.12 42:0.1 43:0.1 44:0.04 45:0.04 46:0 47:0 48:0.02 49:0.02 
1 0:0 1:0.02 2:0.16 3:0.26 4:0.42 5:0.34 6:0.3 7:0.4 8:0.32 9:0.36 10:0.3 11:0.34 12:0.32 13:0.26 14:0.22 15:0.3 16:0.38 17:0.34 18:0.38 19:0.44 20:0.46 21:0.5 22:0.72 23:0.6 24:0.64 25:0.66 26:0.82 27:0.64 28:0.7 29:0.64 30:0.66 31:0.56 32:0.58 33:0.7 34:0.42 35:0.54 36:0.58 37:0.62 38:0.6 39:0.4 40:0.34 41:0.24 42:0.24 43:0.08 44:0.22 45:0.14 46:0.12 47:0.08 48:0.08 49:0.1 
1 0:0.14 1:0.12 2:0.08 3:0.12 4:0.06 5:0.08 6:0.04 7:0.1 8:0.04 9:0.1 10:0.18 11:0.52 12:0.6 13:0.5 14:0.62 15:0.72 16:0.72 17:0.58 18:0.6 19:0.58 20:0.38 21:0.42 22:0.38 23:0.38 24:0.48 25:0.46 26:0.52 27:0.54 28:0.5 29:0.66 30:0.38 31:0.28 32:0.58 33:0.6 34:0.46 35:0.54 36:0.42 37:0.58 38:0.52 39:0.56 40:0.72 41:0.76 42:0.64 43:0.78 44:0.64 45:0.7 46:0 47:0 48:0 49:0 
1 0:0.12 1:0.22 2:0.24 3:0.36 4:0.46 5:0.4 6:0.44 7:0.38 8:0.58 9:0.56 10:0.56 11:0.56 12:0.46 13:0.56 14:0.46 15:0.6 16:0.64 17:0.52 18:0.46 19:0.38 20:0.6 21:0.64 22:0.64 23:0.68 24:0.46 25:0.64 26:0.78 27:0.82 28:0.58 29:0.6 30:0.56 31:0.6 32:0.76 33:0.66 34:0.62 35:0.5 36:0.66 37:0.72 38:0.5 39:0.48 40:0.48 41:0.46 42:0.52 43:0.44 44:0.44 45:0.4 46:0.42 47:0.18 48:0.16 49:0.12 
1 0:0.08 1:0.04 2:0.12 3:0.16 4:0.14 5:0.24 6:0.28 7:0.26 8:0.36 9:0.48 10:0.36 11:0.46 12:0.52 13:0.36 14:0.32 15:0.36 16:0.46 17:0.56 18:0.52 19:0.52 20:0.34 21:0.38 22:0.58 23:0.52 24:0.48 25:0.36 26:0.32 27:0.36 28:0.42 29:0.62 30:0.58 31:0.68 32:0.58 33:0.56 34:0.56 35:0.5 36:0.48 37:0.62 38:0.5 39:0.56 40:0.44 41:0.42 42:0.32 43:0.2 44:0.22 45:0.16 46:0.14 47:0.14 48:0.16 49:0.06 
1 0:0.06 1:0 2:0 3:0 4:0 5:0 6:0 7:0 8:0.04 9:0.24 10:0.26 11:0.66 12:0.84 13:0.98 14:0.98 15:0.98 16:0.92 17:0.88 18:0.92 19:0.98 20:0.86 21:0.9 22:0.84 23:0.88 24:0.94 25:0.9 26:0.92 27:0.9 28:0.9 29:0.94 30:0.8 31:0.8 32:0.66 33:0.7 34:0.58 35:0.76 36:0.82 37:0.78 38:0.78 39:0.7 40:0.78 41:0.7 42:0.66 43:0.7 44:0.6 45:0.7 46:0.6 47:0.7 48:0.64 49:0.6 
1 0:0 1:0 2:0 3:0 4:0 5:0 6:0 7:0 8:0 9:0 10:0 11:0 12:0 13:0.02 14:0.06 15:0.02 16:0.12 17:0.06 18:0.34 19:0.16 20:0.22 21:0.44 22:0.5 23:0.64 24:0.46 25:0.56 26:0.58 27:0.66 28:0.76 29:0.68 30:0.78 31:0.76 32:0.72 33:0.7 34:0.8 35:0.88 36:0.82 37:0.88 38:0.82 39:0.9 40:0.96 41:0.86 42:0.86 43:0 44:0 45:0 46:0 47:0 48:0 49:0 
1 0:0.1 1:0.1 2:0.14 3:0.1 4:0.16 5:0.08 6:0.1 7:0.1 8:0.08 9:0.14 10:0.26 11:0.24 12:0.24 13:0.28 14:0.56 15:0.56 16:0.68 17:0.6 18:0.72 19:0.6 20:0.7 21:0.7 22:0.64 23:0.7 24:0.78 25:0.74 26:0.74 27:0.74 28:0.76 29:0.78 30:0.78 31:0.74 32:0.78 33:0.72 34:0.54 35:0.64 36:0.5 37:0.44 38:0.02 39:0.08 40:0.04 41:0.14 42:0.14 43:0.2 44:0.32 45:0.22 46:0.52 47:0.34 48:0.38 49:0.36 
1 0:0.16 1:0.26 2:0.24 3:0.28 4:0.3 5:0.4 6:0.52 7:0.48 8:0.5 9:0.62 10:0.66 11:0.66 12:0.66 13:0.54 14:0.64 15:0.56 16:0.62 17:0.68 18:0.84 19:0.66 20:0.74 21:0.56 22:0.58 23:0.7 24:0.62 25:0.7 26:0.74 27:0.7 28:0.64 29:0.82 30:0.66 31:0.6 32:0.74 33:0.52 34:0.5 35:0.58 36:0.64 37:0.58 38:0.68 39:0.62 40:0.52 41:0.48 42:0.32 43:0.36 44:0.3 45:0.36 46:0.4 47:0.32 48:0.22 49:0.3 
1 0:0 1:0 2:0 3:0 4:0 5:0.04 6:0.16 7:0.12 8:0.18 9:0.4 10:0.4 11:0.4 12:0.58 13:0.54 14:0.56 15:0.52 16:0.36 17:0.42 18:0.4 19:0.52 20:0.42 21:0.54 22:0.5 23:0.54 24:0.6 25:0.54 26:0.54 27:0.5 28:0.56 29:0.54 30:0.7 31:0.58 32:0.6 33:0.46 34:0.38 35:0.4 36:0.38 37:0.44 38:0.28 39:0.34 40:0.32 41:0.38 42:0.26 43:0.3 44:0.22 45:0.26 46:0.12 47:0.26 48:0.22 49:0.2 
1 0:0.66 1:0.78 2:0.76 3:0.8 4:0.84 5:0.76 6:0.88 7:0.84 8:0.82 9:0.74 10:0.78 11:0.86 12:0.9 13:0.78 14:0.86 15:0.74 16:0.92 17:0.76 18:0.82 19:0.88 20:0.88 21:0.84 22:0.8 23:0.82 24:0.78 25:0.96 26:0.86 27:0.82 28:0.88 29:0.82 30:0.72 31:0.74 32:0.84 33:0.94 34:0.84 35:0.68 36:0.72 37:0.6 38:0.56 39:0.54 40:0.28 41:0.22 42:0.24 43:0.08 44:0.02 45:0 46:0.02 47:0 48:0.02 49:0.06 
1 0:0.84 1:0.8 2:0.74 3:0.7 4:0.52 5:0.54 6:0.66 7:0.58 8:0.74 9:0.7 10:0.62 11:0.64 12:0.74 13:0.7 14:0.6 15:0.56 16:0.74 17:0.72 18:0.78 19:0.6 20:0.74 21:0.68 22:0.78 23:0.78 24:0.62 25:0.68 26:0.56 27:0.74 28:0.72 29:0.72 30:0.76 31:0.78 32:0.72 33:0.72 34:0.66 35:0.74 36:0.68 37:0.72 38:0.76 39:0.76 40:0 41:0 42:0 43:0 44:0 45:0 46:0 47:0 48:0 49:0 
1 0:0.02 1:0.02 2:0.06 3:0.08 4:0.04 5:0.12 6:0.18 7:0.14 8:0.26 9:0.26 10:0.24 11:0.26 12:0.26 13:0.52 14:0.64 15:0.6 16:0.58 17:0.72 18:0.56 19:0.64 20:0.6 21:0.5 22:0.58 23:0.48 24:0.52 25:0.68 26:0.68 27:0.6 28:0.58 29:0.46 30:0.44 31:0.38 32:0.36 33:0.34 34:0.5 35:0.5 36:0.8 37:0.32 38:0.48 39:0.36 40:0.4 41:0.3 42:0.36 43:0.3 44:0.38 45:0.62 46:0.12 47:0.04 48:0.12 49:0.48 
1 0:0.06 1:0.1 2:0.12 3:0.1 4:0.1 5:0.16 6:0.12 7:0.22 8:0.22 9:0.38 10:0.5 11:0.58 12:0.48 13:0.52 14:0.7 15:0.74 16:0.7 17:0.74 18:0.72 19:0.7 20:0.62 21:0.68 22:0.84 23:0.74 24:0.64 25:0.78 26:0.72 27:0.56 28:0.72 29:0.54 30:0.54 31:0.32 32:0.26 33:0.26 34:0.18 35:0.16 36:0.16 37:0.18 38:0.14 39:0.08 40:0.08 41:0.14 42:0.06 43:0.04 44:0.06 45:0.1 46:0.12 47:0.08 48:0.06 49:0.06 
1 0:0 1:0 2:0 3:0 4:0.02 5:0.02 6:0.14 7:0.16 8:0.24 9:0.34 10:0.36 11:0.4 12:0.38 13:0.38 14:0.4 15:0.4 16:0.3 17:0.4 18:0.54 19:0.46 20:0.46 21:0.44 22:0.64 23:0.72 24:0.58 25:0.68 26:0.66 27:0.74 28:0.64 29:0.78 30:0.54 31:0.52 32:0.48 33:0.62 34:0.46 35:0.32 36:0.44 37:0.48 38:0.44 39:0.38 40:0.22 41:0.22 42:0.4 43:0.46 44:0.16 45:0.2 46:0.18 47:0.02 48:0.06 49:0.02 
1 0:0.7 1:0.74 2:0.72 3:0.72 4:0.66 5:0.82 6:0.88 7:0.84 8:0.86 9:0.94 10:0.88 11:0.9 12:0.9 13:0.84 14:0.8 15:0.9 16:0.86 17:0.84 18:0.96 19:0.8 20:0.86 21:0.9 22:0.8 23:0.9 24:0.92 25:0.9 26:0.8 27:0.8 28:0.88 29:0.86 30:0.82 31:0.84 32:0.82 33:0.8 34:0.88 35:0.88 36:0.72 37:0.76 38:0.84 39:0.8 40:0.68 41:0.74 42:0.46 43:0.44 44:0.26 45:0.1 46:0.08 47:0.06 48:0.06 49:0.04 
1 0:0 1:0 2:0.4 3:0.44 4:0.46 5:0.48 6:0.44 7:0.6 8:0.44 9:0.52 10:0.54 11:0.48 12:0.78 13:0.56 14:0.48 15:0.58 16:0.7 17:0.46 18:0.46 19:0.5 20:0.5 21:0.54 22:0.62 23:0.46 24:0.6 25:0.6 26:0.54 27:0.48 28:0.46 29:0.56 30:0.42 31:0.42 32:0.34 33:0.54 34:0.42 35:0.36 36:0.24 37:0.18 38:0.22 39:0.12 40:0.98 41:0 42:0 43:0 44:0 45:0 46:0 47:0 48:0 49:0 
1 0:0 1:0 2:0 3:0 4:0 5:0 6:0 7:0 8:0 9:0 10:0.08 11:0.06 12:0.12 13:0.1 14:0.12 15:0.1 16:0.28 17:0.3 18:0.48 19:0.3 20:0.56 21:0.52 22:0.48 23:0.56 24:0.6 25:0.72 26:0.62 27:0.56 28:0.66 29:0.64 30:0.6 31:0.56 32:0.48 33:0.6 34:0.48 35:0.44 36:0.64 37:0.42 38:0.28 39:0.42 40:0.52 41:0.2 42:0.16 43:0.04 44:0.06 45:0.02 46:0.08 47:0.02 48:0.02 49:0.02 
1 0:0 1:0 2:0 3:0 4:0.06 5:0.18 6:0.3 7:0.36 8:0.48 9:0.56 10:0.7 11:0.62 12:0.7 13:0.66 14:0.68 15:0.7 16:0.74 17:0.7 18:0.7 19:0.72 20:0.62 21:0.62 22:0.76 23:0.68 24:0.86 25:0.7 26:0.8 27:0.76 28:0.86 29:0.66 30:0.66 31:0.84 32:0.82 33:0.54 34:0.4 35:0.38 36:0.46 37:0.42 38:0.5 39:0.28 40:0.42 41:0.48 42:0.4 43:0.24 44:0.22 45:0.18 46:0.14 47:0.14 48:0.32 49:0.28 
1 0:0.12 1:0.08 2:0.12 3:0.12 4:0.1 5:0.18 6:0.1 7:0.14 8:0.22 9:0.24 10:0.36 11:0.3 12:0.26 13:0.4 14:0.66 15:0.42 16:0.38 17:0.46 18:0.72 19:0.6 20:0.68 21:0.62 22:0.6 23:0.76 24:0.82 25:0.82 26:0.68 27:0.52 28:0.64 29:0.48 30:0.6 31:0.64 32:0.64 33:0.66 34:0.46 35:0.36 36:0.28 37:0.3 38:0.36 39:0.3 40:0.18 41:0.18 42:0.28 43:0.26 44:0.3 45:0.36 46:0.04 47:0.06 48:0.1 49:0.06 
1 0:0.3 1:0.36 2:0.32 3:0.22 4:0.26 5:0.3 6:0.42 7:0.52 8:0.8 9:0.68 10:0.62 11:0.46 12:0.42 13:0.56 14:0.52 15:0.44 16:0.56 17:0.7 18:0.74 19:0.7 20:0.64 21:0.68 22:0.72 23:0.8 24:0.9 25:0.8 26:0.82 27:0.76 28:0.76 29:0.8 30:0.84 31:0.72 32:0.88 33:0.78 34:0.76 35:0.7 36:0.74 37:0.72 38:0.64 39:0.6 40:0.68 41:0.52 42:0.64 43:0.44 44:0.54 45:0.38 46:0.3 47:0.36 48:0.42 49:0.18 
1 0:0.34 1:0.34 2:0.36 3:0.38 4:0.58 5:0.68 6:0.58 7:0.58 8:0.74 9:0.7 10:0.84 11:0.68 12:0.68 13:0.72 14:0.64 15:0.62 16:0.72 17:0.74 18:0.82 19:0.9 20:0.74 21:0.7 22:0.76 23:0.7 24:0.6 25:0.8 26:0.7 27:0.7 28:0.68 29:0.66 30:0.74 31:0.94 32:0.72 33:0.84 34:0.54 35:0.76 36:0.56 37:0.68 38:0.78 39:0.78 40:0.76 41:0.72 42:0.76 43:0.7 44:0.46 45:0.38 46:0 47:0 48:0.02 49:0.02 
1 0:0 1:0.08 2:0.06 3:0.1 4:0.12 5:0.12 6:0.18 7:0.18 8:0.22 9:0.2 10:0.14 11:0.22 12:0.62 13:0.56 14:0.52 15:0.5 16:0.48 17:0.44 18:0.82 19:0.62 20:0.74 21:0.62 22:0.5 23:0.36 24:0.46 25:0.42 26:0.4 27:0.44 28:0.52 29:0.68 30:0.58 31:0.54 32:0.48 33:0.48 34:0.38 35:0.5 36:0.68 37:0.56 38:0.54 39:0.42 40:0.44 41:0.44 42:0.46 43:0.48 44:0.44 45:0.38 46:0.32 47:0.24 48:0.26 49:0.14 
1 0:0 1:0 2:0 3:0 4:0 5:0 6:0 7:0.04 8:0.14 9:0.34 10:0.54 11:0.86 12:0.9 13:0.76 14:0.84 15:0.84 16:0.8 17:0.88 18:0.7 19:0.78 20:0.82 21:0.88 22:0.78 23:0.74 24:0.82 25:0.86 26:0.76 27:0.94 28:0.84 29:0.94 30:0.86 31:0.9 32:0.88 33:0.8 34:0.74 35:0.9 36:0.82 37:0.88 38:0.8 39:0.7 40:0.66 41:0.6 42:0.56 43:0.48 44:0.42 45:0.46 46:0.3 47:0.24 48:0.48 49:0.32 
1 0:0.32 1:0.34 2:0.2 3:0.3 4:0.2 5:0.16 6:0.34 7:0.38 8:0.38 9:0.42 10:0.6 11:0.48 12:0.54 13:0.52 14:0.56 15:0.6 16:0.6 17:0.64 18:0.64 19:0.56 20:0.44 21:0.56 22:0.46 23:0.44 24:0.52 25:0.76 26:0.62 27:0.72 28:0.8 29:0.7 30:0.64 31:0.72 32:0.68 33:0.56 34:0.42 35:0.56 36:0.82 37:0.84 38:0.86 39:0.7 40:0.66 41:0.72 42:0.66 43:0.68 44:0.72 45:0.74 46:0.38 47:0.04 48:0 49:0 
1 0:0 1:0 2:0.08 3:0.16 4:0.18 5:0.34 6:0.28 7:0.28 8:0.36 9:0.38 10:0.3 11:0.48 12:0.5 13:0.58 14:0.66 15:0.5 16:0.16 17:0.2 18:0.24 19:0.5 20:0.74 21:0.82 22:0.74 23:0.78 24:0.7 25:0.66 26:0.64 27:0.7 28:0.72 29:0.54 30:0.66 31:0.7 32:0.5 33:0.66 34:0.62 35:0.6 36:0.6 37:0.56 38:0.54 39:0.56 40:0.6 41:0.48 42:0.48 43:0.34 44:0.24 45:0.24 46:0.4 47:0.36 48:0.26 49:0.3 
0.9350686768440954 0:0.02 1:0.08 2:0.14 3:0.22 4:0.18 5:0.34 6:0.56 7:0.64 8:0.6 9:0.76 10:0.8 11:0.78 12:0.8 13:0.7 14:0.82 15:0.8 16:0.74 17:0.78 18:0.8 19:0.76 20:0.76 21:0.78 22:0.7 23:0.8 24:0.7 25:0.76 26:0.66 27:0.7 28:0.64 29:0.66 30:0.72 31:0.72 32:0.7 33:0.62 34:0.68 35:0.66 36:0.62 37:0.62 38:0.78 39:0.74 40:0.68 41:0.58 42:0.58 43:0.6 44:0.64 45:0.56 46:0.6 47:0.52 48:0.6 49:0.56 
1 0:0.1 1:0.08 2:0.08 3:0.14 4:0.1 5:0.12 6:0.22 7:0.24 8:0.36 9:0.38 10:0.5 11:0.42 12:0.42 13:0.46 14:0.48 15:0.6 16:0.52 17:0.46 18:0.7 19:0.48 20:0.8 21:0.76 22:0.64 23:0.44 24:0.34 25:0.82 26:0.66 27:0.68 28:0.7 29:0.6 30:0.6 31:0.4 32:0.24 33:0.16 34:0.3 35:0.04 36:0.04 37:0.12 38:0.06 39:0.04 40:0.04 41:0.02 42:0.02 43:0.04 44:0.02 45:0.02 46:0 47:0 48:0.02 49:0.02 
1 0:0.24 1:0.26 2:0.28 3:0.4 4:0.44 5:0.42 6:0.68 7:0.64 8:0.64 9:0.52 10:0.48 11:0.44 12:0.5 13:0.5 14:0.48 15:0.42 16:0.48 17:0.48 18:0.62 19:0.4 20:0.64 21:0.68 22:0.56 23:0.52 24:0.36 25:0.3 26:0.4 27:0.46 28:0.48 29:0.54 30:0.4 31:0.44 32:0.5 33:0.42 34:0.44 35:0.36 36:0.52 37:0.56 38:0.18 39:0 40:0 41:0 42:0 43:0 44:0.02 45:0 46:0 47:0.06 48:0 49:0 
1 0:0 1:0 2:0 3:0 4:0 5:0 6:0 7:0 8:0.04 9:0.02 10:0.1 11:0.18 12:0.26 13:0.42 14:0.54 15:0.52 16:0.6 17:0.74 18:0.8 19:0.6 20:0.66 21:0.64 22:0.54 23:0.6 24:0.4 25:0.38 26:0.42 27:0.32 28:0.58 29:0.5 30:0.56 31:0.6 32:0.7 33:0.6 34:0.66 35:0.64 36:0.56 37:0.42 38:0.22 39:0.06 40:0.08 41:0.06 42:0 43:0 44:0 45:0 46:0 47:0 48:0 49:0 
1 0:0 1:0 2:0 3:0 4:0 5:0 6:0 7:0 8:0 9:0 10:0 11:0.06 12:0.38 13:0.3 14:0.22 15:0.28 16:0.32 17:0.16 18:0.4 19:0.4 20:0.36 21:0.66 22:0.66 23:0.64 24:0.74 25:0.7 26:0.58 27:0.64 28:0.44 29:0.4 30:0.66 31:0.56 32:0.4 33:0.36 34:0.36 35:0.38 36:0.48 37:0.28 38:0.3 39:0.18 40:0.1 41:0.04 42:0.02 43:0.04 44:0.02 45:0.02 46:0 47:0.02 48:0.02 49:0.02 
1 0:0.02 1:0.6 2:0.28 3:0.3 4:0.3 5:0.26 6:0.3 7:0.48 8:0.44 9:0.52 10:0.52 11:0.34 12:0.34 13:0.42 14:0.68 15:0.7 16:0.52 17:0.54 18:0.58 19:0.64 20:0.66 21:0.64 22:0.74 23:0.54 24:0.52 25:0.48 26:0.48 27:0.58 28:0.6 29:0.54 30:0.56 31:0.64 32:0.54 33:0.44 34:0.52 35:0.54 36:0.7 37:0.64 38:0.54 39:0.52 40:0.32 41:0.1 42:0.06 43:0.06 44:0.04 45:0.04 46:0.06 47:0.06 48:0.02 49:0.32 
1 0:0 1:0.04 2:0.02 3:0.02 4:0.02 5:0.04 6:0.16 7:0.36 8:0.42 9:0.6 10:0.72 11:0.8 12:0.8 13:0.76 14:0.56 15:0.52 16:0.42 17:0.54 18:0.52 19:0.52 20:0.52 21:0.66 22:0.62 23:0.62 24:0.68 25:0.7 26:0.68 27:0.56 28:0.64 29:0.68 30:0.56 31:0.56 32:0.42 33:0.3 34:0.38 35:0.2 36:0.34 37:0.28 38:0.4 39:0.26 40:0.2 41:0.24 42:0.24 43:0.2 44:0.24 45:0.46 46:0.32 47:0.22 48:0.22 49:0.22 
0.8677202856414262 0:0.2 1:0.32 2:0.26 3:0.28 4:0.34 5:0.28 6:0.46 7:0.5 8:0.58 9:0.86 10:0.9 11:0.9 12:0.9 13:0.92 14:0.88 15:0.96 16:0.96 17:0.84 18:0.88 19:0.8 20:0.42 21:0.48 22:0.44 23:0.58 24:0.68 25:0.72 26:0.42 27:0.26 28:0.36 29:0.16 30:0.1 31:0.16 32:0.2 33:0.2 34:0.28 35:0.04 36:0.08 37:0.12 38:0.04 39:0 40:0.02 41:0.02 42:0 43:0 44:0 45:0 46:0 47:0 48:0 49:0 
1 0:0.12 1:0.14 2:0.18 3:0.1 4:0.14 5:0.14 6:0.16 7:0.2 8:0.2 9:0.28 10:0.36 11:0.22 12:0.26 13:0.46 14:0.46 15:0.52 16:0.6 17:0.58 18:0.58 19:0.8 20:0.64 21:0.7 22:0.72 23:0.6 24:0.6 25:0.54 26:0.54 27:0.7 28:0.68 29:0.72 30:0.7 31:0.74 32:0.64 33:0.68 34:0.72 35:0.76 36:0.6 37:0.46 38:0.18 39:0.24 40:0.26 41:0.38 42:0 43:0.08 44:0.16 45:0.18 46:0.02 47:0 48:0 49:0 
1 0:0.14 1:0.2 2:0.18 3:0.2 4:0.14 5:0.14 6:0.24 7:0.16 8:0.4 9:0.34 10:0.44 11:0.42 12:0.36 13:0.32 14:0.28 15:0.34 16:0.24 17:0.16 18:0.36 19:0.5 20:0.6 21:0.8 22:0.86 23:0.7 24:0.78 25:0.48 26:0.34 27:0.36 28:0.32 29:0.44 30:0.44 31:0.46 32:0.62 33:0.74 34:0.74 35:0.8 36:0.74 37:0.6 38:0.7 39:0.74 40:0.56 41:0.4 42:0.18 43:0.06 44:0.04 45:0.22 46:0.28 47:0.2 48:0.14 49:0 
1 0:0 1:0 2:0 3:0.02 4:0.14 5:0.14 6:0.1 7:0.16 8:0.24 9:0.2 10:0.24 11:0.36 12:0.4 13:0.5 14:0.54 15:0.48 16:0.3 17:0.38 18:0.38 19:0.44 20:0.58 21:0.52 22:0.56 23:0.5 24:0.54 25:0.54 26:0.44 27:0.42 28:0.34 29:0.42 30:0.28 31:0.4 32:0.38 33:0.42 34:0.3 35:0.3 36:0.28 37:0.26 38:0.18 39:0.26 40:0.16 41:0.28 42:0.2 43:0.16 44:0.14 45:0.1 46:0.08 47:0.02 48:0.04 49:0 
1 0:0.48 1:0.56 2:0.62 3:0.58 4:0.8 5:0.78 6:0.78 7:0.84 8:0.7 9:0.72 10:0.58 11:0.78 12:0.76 13:0.8 14:0.76 15:0.7 16:0.78 17:0.72 18:0.8 19:0.8 20:0.8 21:0.88 22:0.82 23:0.96 24:0.9 25:0.84 26:0.92 27:0.96 28:0.9 29:0.96 30:0.94 31:0.88 32:0.96 33:0.94 34:0.86 35:0.98 36:0.92 37:0.92 38:0.9 39:0.78 40:0.88 41:0.86 42:0.8 43:0.66 44:0.7 45:0.48 46:0.36 47:0.18 48:0 49:0 
1 0:0.12 1:0.36 2:0.14 3:0.18 4:0.16 5:0.24 6:0.22 7:0.16 8:0.16 9:0.24 10:0.34 11:0.42 12:0.54 13:0.52 14:0.66 15:0.68 16:0.54 17:0.68 18:0.72 19:0.72 20:0.82 21:0.72 22:0.72 23:0.8 24:0.8 25:0.72 26:0.68 27:0.42 28:0.4 29:0.54 30:0.48 31:0.5 32:0.68 33:0.68 34:0.66 35:0.74 36:0.62 37:0.54 38:0.56 39:0.48 40:0.46 41:0.5 42:0.46 43:0.36 44:0.44 45:0.26 46:0.22 47:0.16 48:0.2 49:0.1 
1 0:0.02 1:0.12 2:0.16 3:0.2 4:0.16 5:0.2 6:0.18 7:0.22 8:0.2 9:0.24 10:0.28 11:0.34 12:0.38 13:0.4 14:0.38 15:0.48 16:0.56 17:0.52 18:0.56 19:0.66 20:0.62 21:0.64 22:0.6 23:0.54 24:0.5 25:0.64 26:0.74 27:0.7 28:0.74 29:0.8 30:0.72 31:0.6 32:0.92 33:0.82 34:0.48 35:0.68 36:0.62 37:0.56 38:0.58 39:0.54 40:0.66 41:0.32 42:0.12 43:0.48 44:0.38 45:0.4 46:0.46 47:0.34 48:0.1 49:0.26 
1 0:0 1:0 2:0 3:0 4:0 5:0 6:0.04 7:0.16 8:0.14 9:0.24 10:0.3 11:0.36 12:0.42 13:0.42 14:0.42 15:0.48 16:0.46 17:0.4 18:0.44 19:0.36 20:0.54 21:0.42 22:0.28 23:0.42 24:0.42 25:0.44 26:0.52 27:0.72 28:0.82 29:0.8 30:0.76 31:0.8 32:0.82 33:0.88 34:0.54 35:0.64 36:0.5 37:0.42 38:0.26 39:0.24 40:0.2 41:0.32 42:0.26 43:0.24 44:0.18 45:0.14 46:0.16 47:0.12 48:0.1 49:0.24 
1 0:0.1 1:0.12 2:0.26 3:0.2 4:0.26 5:0.26 6:0.28 7:0.3 8:0.26 9:0.38 10:0.34 11:0.38 12:0.38 13:0.46 14:0.46 15:0.52 16:0.5 17:0.68 18:0.72 19:0.64 20:0.66 21:0.68 22:0.72 23:0.6 24:0.58 25:0.62 26:0.56 27:0.52 28:0.7 29:0.54 30:0.44 31:0.64 32:0.44 33:0.54 34:0.58 35:0.5 36:0.56 37:0.48 38:0.38 39:0.3 40:0.38 41:0.54 42:0.52 43:0.42 44:0.5 45:0 46:0 47:0 48:0 49:0 
1 0:0 1:0 2:0 3:0 4:0 5:0 6:0.1 7:0.2 8:0.3 9:0.36 10:0.44 11:0.44 12:0.56 13:0.56 14:0.6 15:0.66 16:0.66 17:0.64 18:0.7 19:0.82 20:0.8 21:0.74 22:0.76 23:0.84 24:0.78 25:0.78 26:0.76 27:0.66 28:0.5 29:0.26 30:0.28 31:0.24 32:0.32 33:0.18 34:0.26 35:0.12 36:0.24 37:0.24 38:0.2 39:0.12 40:0.04 41:0.04 42:0.04 43:0.04 44:0.04 45:0.06 46:0.02 47:0.08 48:0.14 49:0.2 
1 0:0.02 1:0.1 2:0.04 3:0.02 4:0.02 5:0.06 6:0.02 7:0.02 8:0.04 9:0.04 10:0.02 11:0.22 12:0.42 13:0.66 14:0.7 15:0.62 16:0.76 17:0.68 18:0.72 19:0.78 20:0.58 21:0.7 22:0.58 23:0.46 24:0.66 25:0.68 26:0.54 27:0.48 28:0.52 29:0.38 30:0.48 31:0.4 32:0.56 33:0.44 34:0.26 35:0.24 36:0.24 37:0.28 38:0.3 39:0.34 40:0.16 41:0.12 42:0.18 43:0.3 44:0.3 45:0.22 46:0.14 47:0.12 48:0.1 49:0.16 
1 0:0.14 1:0.26 2:0.22 3:0.18 4:0.12 5:0.18 6:0.28 7:0.26 8:0.28 9:0.38 10:0.42 11:0.42 12:0.44 13:0.46 14:0.62 15:0.48 16:0.54 17:0.48 18:0.54 19:0.7 20:0.5 21:0.56 22:0.54 23:0.6 24:0.6 25:0.46 26:0.54 27:0.54 28:0.46 29:0.5 30:0.7 31:0.5 32:0.62 33:0.54 34:0.36 35:0.58 36:0.56 37:0.22 38:0.34 39:0.48 40:0.28 41:0.3 42:0.04 43:0.04 44:0.1 45:0.06 46:0.02 47:0.02 48:0 49:0 
1 0:0.06 1:0.14 2:0.14 3:0.08 4:0.2 5:0.1 6:0.08 7:0.14 8:0.16 9:0.28 10:0.3 11:0.3 12:0.38 13:0.3 14:0.44 15:0.44 16:0.58 17:0.56 18:0.5 19:0.62 20:0.7 21:0.66 22:0.62 23:0.52 24:0.66 25:0.52 26:0.68 27:0.6 28:0.56 29:0.62 30:0.64 31:0.64 32:0.6 33:0.62 34:0.52 35:0.52 36:0.46 37:0.36 38:0.48 39:0.48 40:0.46 41:0.44 42:0.36 43:0.44 44:0.28 45:0.22 46:0.16 47:0.16 48:0.2 49:0.22 
1 0:0 1:0 2:0 3:0 4:0 5:0 6:0 7:0 8:0 9:0 10:0 11:0 12:0 13:0.06 14:0.1 15:0.2 16:0.3 17:0.44 18:0.5 19:0.44 20:0.54 21:0.58 22:0.58 23:0.68 24:0.58 25:0.78 26:0.46 27:0.74 28:0.56 29:0.68 30:0.72 31:0.76 32:0.66 33:0.68 34:0.64 35:0.62 36:0.58 37:0.62 38:0.52 39:0.48 40:0.32 41:0.42 42:0.38 43:0.24 44:0.3 45:0.16 46:0.14 47:0.22 48:0.16 49:0.06 
1 0:0 1:0 2:0 3:0 4:0 5:0 6:0 7:0 8:0.06 9:0.1 10:0.46 11:0.86 12:0.82 13:0.84 14:0.62 15:0.7 16:0.5 17:0.42 18:0.5 19:0.62 20:0.76 21:0.78 22:0.48 23:0.62 24:0.7 25:0.76 26:0.78 27:0.82 28:0.78 29:0.84 30:0.88 31:0.88 32:0.94 33:0.92 34:0.88 35:0.82 36:0.96 37:0.98 38:0.9 39:0 40:0 41:0 42:0 43:0 44:0 45:0 46:0 47:0 48:0 49:0 
1 0:0 1:0 2:0 3:0 4:0 5:0.08 6:0.16 7:0.24 8:0.24 9:0.26 10:0.24 11:0.48 12:0.4 13:0.34 14:0.42 15:0.34 16:0.4 17:0.26 18:0.32 19:0.38 20:0.24 21:0.34 22:0.46 23:0.66 24:0.8 25:0.78 26:0.76 27:0.78 28:0.66 29:0.74 30:0.66 31:0.66 32:0.66 33:0.68 34:0.74 35:0.78 36:0.86 37:0.72 38:0.78 39:0.6 40:0.48 41:0.34 42:0.22 43:0.12 44:0.14 45:0.14 46:0.16 47:0.14 48:0.3 49:0.38 
1 0:0.1 1:0.04 2:0.04 3:0.06 4:0.08 5:0.14 6:0.22 7:0.26 8:0.36 9:0.5 10:0.6 11:0.66 12:0.72 13:0.72 14:0.8 15:0.86 16:0.74 17:0.86 18:0.74 19:0.76 20:0.78 21:0.6 22:0.68 23:0.58 24:0.62 25:0.44 26:0.4 27:0.58 28:0.62 29:0.66 30:0.52 31:0.52 32:0.6 33:0.64 34:0.58 35:0.58 36:0.48 37:0.26 38:0.44 39:0.08 40:0.24 41:0.24 42:0.26 43:0.38 44:0.36 45:0.44 46:0.3 47:0.46 48:0.34 49:0.26 
1 0:0 1:0 2:0 3:0.06 4:0.16 5:0.2 6:0.3 7:0.38 8:0.66 9:0.8 10:0.86 11:0.8 12:0.86 13:0.82 14:0.76 15:0.86 16:0.8 17:0.88 18:0.8 19:0.76 20:0.8 21:0.72 22:0.8 23:0.64 24:0.7 25:0.64 26:0.78 27:0.74 28:0.6 29:0.72 30:0.48 31:0.38 32:0.52 33:0.44 34:0.52 35:0.4 36:0.32 37:0.4 38:0.36 39:0.4 40:0.44 41:0.32 42:0.24 43:0.28 44:0.24 45:0.16 46:0.18 47:0.28 48:0.14 49:0.18 
1 0:0.26 1:0.38 2:0.5 3:0.54 4:0.56 5:0.52 6:0.64 7:0.6 8:0.66 9:0.8 10:0.84 11:0.92 12:0.8 13:0.9 14:0.92 15:0.96 16:0.96 17:0.98 18:0.94 19:0.94 20:0.94 21:0.78 22:0.8 23:0.8 24:0.7 25:0.72 26:0.74 27:0.66 28:0.66 29:0.7 30:0.8 31:0.62 32:0.64 33:0.58 34:0.74 35:0.64 36:0.74 37:0.62 38:0.64 39:0.56 40:0.62 41:0.64 42:0.6 43:0.48 44:0.48 45:0.36 46:0.32 47:0.22 48:0.18 49:0.22 
1 0:0 1:0 2:0 3:0 4:0 5:0.56 6:0.66 7:0.5 8:0.48 9:0.38 10:0.44 11:0.54 12:0.6 13:0.58 14:0.54 15:0.48 16:0.48 17:0.5 18:0.6 19:0.68 20:0.64 21:0.68 22:0.54 23:0.34 24:0.58 25:0.42 26:0.54 27:0.46 28:0.52 29:0.4 30:0.52 31:0.6 32:0.5 33:0.5 34:0.54 35:0.48 36:0.54 37:0.46 38:0.46 39:0.4 40:0.56 41:0.46 42:0.5 43:0.44 44:0.48 45:0 46:0 47:0 48:0 49:0 
1 0:0 1:0.04 2:0.06 3:0.2 4:0.28 5:0.28 6:0.32 7:0.32 8:0.48 9:0.64 10:0.68 11:0.78 12:0.76 13:0.72 14:0.68 15:0.66 16:0.82 17:0.84 18:0.84 19:0.82 20:0.8 21:0.72 22:0.86 23:0.78 24:0.84 25:0.74 26:0.78 27:0.72 28:0.74 29:0.76 30:0.68 31:0.74 32:0.7 33:0.68 34:0.66 35:0.84 36:0.7 37:0.68 38:0.66 39:0.56 40:0.66 41:0.56 42:0.5 43:0.52 44:0.56 45:0.46 46:0.56 47:0.4 48:0.44 49:0.46 
1 0:0 1:0 2:0 3:0 4:0 5:0 6:0 7:0 8:0 9:0 10:0.02 11:0.12 12:0.26 13:0.32 14:0.56 15:0.56 16:0.66 17:0.7 18:0.76 19:0.68 20:0.62 21:0.82 22:0.74 23:0.7 24:0.68 25:0.76 26:0.74 27:0.82 28:0.76 29:0.74 30:0.74 31:0.76 32:0.64 33:0.62 34:0.54 35:0.24 36:0.02 37:0.02 38:0 39:0 40:0 41:0.02 42:0 43:0.02 44:0.02 45:0 46:0 47:0 48:0 49:0 
1 0:0.04 1:0.02 2:0.02 3:0.02 4:0.04 5:0.06 6:0.06 7:0.06 8:0.16 9:0.28 10:0.54 11:0.38 12:0.52 13:0.44 14:0.62 15:0.48 16:0.54 17:0.6 18:0.74 19:0.46 20:0.28 21:0.34 22:0.44 23:0.44 24:0.4 25:0.54 26:0.58 27:0.62 28:0.32 29:0.16 30:0.34 31:0.4 32:0.36 33:0.58 34:0.52 35:0.58 36:0.72 37:0.52 38:0.64 39:0.48 40:0.5 41:0.5 42:0.46 43:0.5 44:0.24 45:0.08 46:0.12 47:0.02 48:0.06 49:0 
1 0:0.02 1:0.04 2:0.08 3:0.04 4:0 5:0 6:0 7:0 8:0.14 9:0.12 10:0.06 11:0.04 12:0.18 13:0.46 14:0.7 15:0.68 16:0.68 17:0.7 18:0.8 19:0.76 20:0.66 21:0.8 22:0.62 23:0.62 24:0.68 25:0.66 26:0.64 27:0.54 28:0.5 29:0.48 30:0.48 31:0.56 32:0.46 33:0.54 34:0.62 35:0.52 36:0.6 37:0.52 38:0.48 39:0.48 40:0.34 41:0.44 42:0.38 43:0.42 44:0.44 45:0.32 46:0.42 47:0.3 48:0.38 49:0.36 
1 0:0.06 1:0.04 2:0.06 3:0.04 4:0.1 5:0.14 6:0.18 7:0.22 8:0.32 9:0.18 10:0.34 11:0.3 12:0.38 13:0.42 14:0.52 15:0.5 16:0.44 17:0.4 18:0.5 19:0.5 20:0.5 21:0.5 22:0.36 23:0.5 24:0.6 25:0.6 26:0.56 27:0.5 28:0.54 29:0.38 30:0.56 31:0.66 32:0.52 33:0.6 34:0.56 35:0.48 36:0.4 37:0.5 38:0.52 39:0.4 40:0.14 41:0.2 42:0.22 43:0.32 44:0.24 45:0.22 46:0.16 47:0.16 48:0.14 49:0.1 
1 0:0.22 1:0.34 2:0.48 3:0.58 4:0.74 5:0.76 6:0.8 7:0.84 8:0.92 9:0.82 10:0.86 11:0.76 12:0.84 13:0.84 14:0.84 15:0.8 16:0.82 17:0.74 18:0.84 19:0.76 20:0.62 21:0.72 22:0.64 23:0.7 24:0.58 25:0.62 26:0.56 27:0.44 28:0.44 29:0.54 30:0.42 31:0.46 32:0.62 33:0.7 34:0.5 35:0.5 36:0.48 37:0.4 38:0.28 39:0.2 40:0.28 41:0.26 42:0.24 43:0.18 44:0.16 45:0.08 46:0.08 47:0.1 48:0.12 49:0.16 
1 0:0.08 1:0.04 2:0.08 3:0.08 4:0.06 5:0.06 6:0.1 7:0.18 8:0.38 9:0.46 10:0.38 11:0.44 12:0.52 13:0.38 14:0.4 15:0.24 16:0.4 17:0.42 18:0.42 19:0.42 20:0.22 21:0.36 22:0.58 23:0.38 24:0.54 25:0.74 26:0.66 27:0.64 28:0.52 29:0.46 30:0.5 31:0.74 32:0.76 33:0.74 34:0.72 35:0.74 36:0.78 37:0.88 38:0.78 39:0.86 40:0.8 41:0.6 42:0.28 43:0.1 44:0.08 45:0.16 46:0.14 47:0.2 48:0.12 49:0.22 
1 0:0.1 1:0.04 2:0.24 3:0.24 4:0.3 5:0.24 6:0.26 7:0.36 8:0.38 9:0.44 10:0.46 11:0.44 12:0.46 13:0.5 14:0.52 15:0.64 16:0.52 17:0.76 18:0.72 19:0.74 20:0.64 21:0.66 22:0.54 23:0.6 24:0.68 25:0.64 26:0.74 27:0.66 28:0.62 29:0.56 30:0.54 31:0.64 32:0.82 33:0.58 34:0.58 35:0.48 36:0.4 37:0.52 38:0.44 39:0.14 40:0.1 41:0.14 42:0.34 43:0.04 44:0 45:0 46:0 47:0 48:0.02 49:0.02 
0.206783450320224 0:0 1:0 2:0 3:0 4:0 5:0 6:0 7:0 8:0 9:0 10:0 11:0 12:0.16 13:0.26 14:0.26 15:0.38 16:0.44 17:0.42 18:0.48 19:0.14 20:0.6 21:0.8 22:0.8 23:0.84 24:0.86 25:0.8 26:0.86 27:0.84 28:0.82 29:0.84 30:0.8 31:0.84 32:0.76 33:0.72 34:0.6 35:0.52 36:0.44 37:0.48 38:0.42 39:0.32 40:0.36 41:0.38 42:0.36 43:0.38 44:0.48 45:0.46 46:0.4 47:0.48 48:0.48 49:0.34 
1 0:0 1:0 2:0 3:0 4:0 5:0 6:0 7:0 8:0.06 9:0.16 10:0.16 11:0.14 12:0.18 13:0.24 14:0.28 15:0.3 16:0.52 17:0.62 18:0.7 19:0.8 20:0.68 21:0.62 22:0.82 23:0.66 24:0.64 25:0.82 26:0.62 27:0.5 28:0.44 29:0.32 30:0.38 31:0.4 32:0.54 33:0.5 34:0.14 35:0.48 36:0.32 37:0.34 38:0.28 39:0.56 40:0.56 41:0.12 42:0 43:0 44:0 45:0 46:0 47:0 48:0 49:0 
1 0:0.14 1:0.18 2:0.12 3:0.26 4:0.24 5:0.24 6:0.2 7:0.18 8:0.24 9:0.36 10:0.4 11:0.36 12:0.26 13:0.4 14:0.36 15:0.42 16:0.26 17:0.34 18:0.54 19:0.8 20:0.64 21:0.6 22:0.72 23:0.56 24:0.62 25:0.5 26:0.72 27:0.68 28:0.72 29:0.64 30:0.68 31:0.66 32:0.74 33:0.7 34:0.64 35:0.66 36:0.64 37:0.56 38:0.66 39:0.68 40:0.4 41:0.52 42:0.42 43:0.4 44:0.28 45:0.32 46:0.32 47:0.18 48:0.2 49:0.32 
1 0:0.18 1:0.18 2:0.14 3:0.14 4:0.16 5:0.32 6:0.42 7:0.46 8:0.46 9:0.6 10:0.48 11:0.64 12:0.68 13:0.76 14:0.7 15:0.78 16:0.76 17:0.8 18:0.8 19:0.68 20:0.8 21:0.82 22:0.86 23:0.82 24:0.88 25:0.72 26:0.74 27:0.78 28:0.78 29:0.78 30:0.7 31:0.78 32:0.8 33:0.76 34:0.62 35:0.72 36:0.64 37:0.64 38:0.82 39:0.52 40:0.38 41:0.58 42:0.66 43:0.52 44:0.44 45:0.34 46:0.46 47:0.4 48:0.26 49:0.38 
1 0:0 1:0.04 2:0 3:0.06 4:0.08 5:0.16 6:0.26 7:0.24 8:0.3 9:0.38 10:0.46 11:0.52 12:0.6 13:0.66 14:0.66 15:0.68 16:0.66 17:0.76 18:0.66 19:0.62 20:0.64 21:0.5 22:0.52 23:0.52 24:0.24 25:0.16 26:0.1 27:0.04 28:0.16 29:0.26 30:0.54 31:0.54 32:0.56 33:0.3 34:0.08 35:0.08 36:0.14 37:0.12 38:0.14 39:0.1 40:0.14 41:0.18 42:0.08 43:0.08 44:0.1 45:0.06 46:0.22 47:0.1 48:0.06 49:0.08 
1 0:0 1:0 2:0 3:0 4:0 5:0 6:0 7:0 8:0 9:0 10:0.04 11:0.08 12:0.34 13:0.66 14:0.72 15:0.76 16:0.74 17:0.78 18:0.64 19:0.5 20:0.56 21:0.66 22:0.68 23:0.78 24:0.74 25:0.74 26:0.8 27:0.88 28:0.86 29:0.8 30:0.78 31:0.74 32:0.78 33:0.72 34:0.78 35:0.72 36:0.82 37:0.76 38:0.48 39:0.44 40:0.54 41:0.42 42:0.34 43:0.32 44:0.38 45:0.32 46:0.38 47:0.42 48:0.48 49:0.62 
1 0:0.22 1:0.18 2:0.14 3:0.12 4:0.26 5:0.32 6:0.36 7:0.58 8:0.54 9:0.7 10:0.6 11:0.62 12:0.42 13:0.3 14:0.56 15:0.38 16:0.52 17:0.62 18:0.6 19:0.6 20:0.7 21:0.66 22:0.62 23:0.66 24:0.7 25:0.66 26:0.56 27:0.46 28:0.62 29:0.58 30:0.38 31:0.46 32:0.46 33:0.26 34:0.38 35:0.54 36:0.46 37:0.64 38:0.62 39:0.34 40:0.12 41:0.18 42:0.34 43:0.04 44:0.08 45:0.06 46:0.02 47:0.18 48:0.02 49:0.02 
1 0:0.18 1:0.2 2:0.22 3:0.2 4:0.12 5:0.1 6:0.2 7:0.24 8:0.28 9:0.36 10:0.44 11:0.42 12:0.62 13:0.6 14:0.66 15:0.62 16:0.62 17:0.68 18:0.74 19:0.84 20:0.84 21:0.74 22:0.5 23:0.58 24:0.6 25:0.68 26:0.62 27:0.48 28:0.38 29:0.38 30:0.58 31:0.56 32:0.7 33:0.72 34:0.76 35:0.76 36:0.82 37:0.76 38:0.56 39:0.26 40:0.02 41:0.12 42:0.08 43:0.06 44:0.02 45:0.02 46:0.04 47:0.08 48:0.04 49:0.12 
1 0:0.04 1:0.02 2:0.02 3:0.04 4:0.04 5:0.04 6:0.04 7:0.04 8:0.08 9:0.22 10:0.24 11:0.34 12:0.24 13:0.3 14:0.48 15:0.56 16:0.52 17:0.62 18:0.6 19:0.62 20:0.66 21:0.56 22:0.72 23:0.62 24:0.76 25:0.74 26:0.78 27:0.7 28:0.64 29:0.62 30:0.6 31:0.7 32:0.6 33:0.62 34:0.66 35:0.58 36:0.64 37:0.66 38:0.5 39:0.6 40:0.34 41:0.4 42:0.32 43:0.24 44:0.36 45:0.3 46:0.48 47:0.32 48:0.42 49:0.5 
1 0:0 1:0 2:0 3:0 4:0.02 5:0 6:0.02 7:0.02 8:0.02 9:0.02 10:0.08 11:0.28 12:0.28 13:0.42 14:0.58 15:0.56 16:0.72 17:0.6 18:0.72 19:0.66 20:0.68 21:0.78 22:0.76 23:0.68 24:0.5 25:0.52 26:0.38 27:0.36 28:0.36 29:0.36 30:0.46 31:0.38 32:0.42 33:0.28 34:0.2 35:0.26 36:0.24 37:0.2 38:0.3 39:0.24 40:0.2 41:0.14 42:0.06 43:0.14 44:0.12 45:0.12 46:0.1 47:0.12 48:0.06 49:0.04 
1 0:0.36 1:0.36 2:0.24 3:0.16 4:0.32 5:0.28 6:0.46 7:0.44 8:0.48 9:0.44 10:0.28 11:0.56 12:0.6 13:0.54 14:0.58 15:0.64 16:0.68 17:0.6 18:0.52 19:0.46 20:0.64 21:0.48 22:0.6 23:0.64 24:0.64 25:0.72 26:0.58 27:0.52 28:0.58 29:0.56 30:0.68 31:0.78 32:0.48 33:0.46 34:0.44 35:0.48 36:0.32 37:0.42 38:0.28 39:0.26 40:0.06 41:0.04 42:0.08 43:0.04 44:0.02 45:0.06 46:0.16 47:0.08 48:0 49:0.02 
1 0:0.18 1:0.26 2:0.3 3:0.5 4:0.72 5:0.72 6:0.68 7:0.64 8:0.64 9:0.7 10:0.74 11:0.68 12:0.76 13:0.7 14:0.72 15:0.8 16:0.88 17:0.74 18:0.72 19:0.76 20:0.8 21:0.74 22:0.78 23:0.72 24:0.68 25:0.88 26:0.74 27:0.82 28:0.74 29:0.78 30:0.82 31:0.78 32:0.9 33:0.8 34:0.82 35:0.9 36:0.84 37:0.8 38:0.84 39:0.64 40:0.56 41:0.52 42:0.46 43:0.64 44:0.6 45:0.46 46:0.58 47:0.26 48:0.64 49:0.38 
1 0:0.06 1:0.04 2:0.04 3:0.04 4:0.02 5:0.1 6:0.06 7:0.06 8:0.08 9:0.2 10:0.2 11:0.16 12:0.26 13:0.44 14:0.64 15:0.64 16:0.64 17:0.56 18:0.6 19:0.58 20:0.62 21:0.54 22:0.6 23:0.6 24:0.56 25:0.58 26:0.52 27:0.66 28:0.74 29:0.66 30:0.38 31:0.64 32:0.36 33:0.42 34:0.28 35:0.24 36:0.48 37:0.14 38:0.22 39:0.18 40:0.1 41:0.18 42:0.32 43:0.08 44:0.18 45:0.1 46:0.02 47:0 48:0.1 49:0.18 
1 0:0.08 1:0.08 2:0.04 3:0.04 4:0.08 5:0.16 6:0.16 7:0.24 8:0.3 9:0.36 10:0.4 11:0.42 12:0.44 13:0.46 14:0.36 15:0.46 16:0.46 17:0.6 18:0.68 19:0.88 20:0.68 21:0.78 22:0.88 23:0.94 24:0.9 25:0.82 26:0.8 27:0.86 28:0.86 29:0.84 30:0.96 31:0.94 32:0.92 33:0.74 34:0.84 35:0.86 36:0.94 37:0.88 38:0.88 39:0.84 40:0.82 41:0.7 42:0.58 43:0.72 44:0.72 45:0.7 46:0.58 47:0.42 48:0.42 49:0.54 
1 0:0 1:0 2:0 3:0 4:0.02 5:0.02 6:0.02 7:0.2 8:0.52 9:0.56 10:0.66 11:0.64 12:0.46 13:0.42 14:0.34 15:0.4 16:0.48 17:0.42 18:0.66 19:0.64 20:0.68 21:0.7 22:0.72 23:0.48 24:0.54 25:0.52 26:0.8 27:0.42 28:0.6 29:0.72 30:0.44 31:0.26 32:0.3 33:0.64 34:0.66 35:0.42 36:0.3 37:0.42 38:0.38 39:0.3 40:0.48 41:0.6 42:0.14 43:0.16 44:0.18 45:0.48 46:0.12 47:0.24 48:0.04 49:0.04 
1 0:0.06 1:0.08 2:0.12 3:0.1 4:0.16 5:0.3 6:0.3 7:0.22 8:0.3 9:0.24 10:0.34 11:0.42 12:0.28 13:0.36 14:0.46 15:0.44 16:0.44 17:0.36 18:0.42 19:0.36 20:0.54 21:0.42 22:0.62 23:0.56 24:0.58 25:0.46 26:0.48 27:0.64 28:0.64 29:0.56 30:0.68 31:0.56 32:0.56 33:0.62 34:0.56 35:0.48 36:0.46 37:0.44 38:0.36 39:0.28 40:0.18 41:0.24 42:0.22 43:0.16 44:0.18 45:0.14 46:0.08 47:0.08 48:0.06 49:0.04 
1 0:0 1:0 2:0 3:0 4:0 5:0.06 6:0.08 7:0.14 8:0.14 9:0.14 10:0.18 11:0.2 12:0.4 13:0.4 14:0.56 15:0.62 16:0.7 17:0.72 18:0.7 19:0.86 20:0.86 21:0.76 22:0.8 23:0.74 24:0.74 25:0.94 26:0.78 27:0.82 28:0.78 29:0.74 30:0.7 31:0.76 32:0.72 33:0.72 34:0.66 35:0.66 36:0.62 37:0.52 38:0.52 39:0.58 40:0.46 41:0.48 42:0.52 43:0.62 44:0.62 45:0.56 46:0.6 47:0.56 48:0.62 49:0.42 
1 0:0 1:0 2:0 3:0.02 4:0.02 5:0 6:0 7:0 8:0 9:0.02 10:0.1 11:0.18 12:0.1 13:0.22 14:0.28 15:0.34 16:0.32 17:0.48 18:0.44 19:0.58 20:0.54 21:0.6 22:0.52 23:0.56 24:0.62 25:0.64 26:0.58 27:0.78 28:0.74 29:0.84 30:0.78 31:0.86 32:0.7 33:0.62 34:0.54 35:0.62 36:0.56 37:0.48 38:0.5 39:0.52 40:0.52 41:0.54 42:0.48 43:0.5 44:0.42 45:0.36 46:0.18 47:0.28 48:0.2 49:0.36 
0.02706814505083626 0:0.08 1:0.18 2:0.22 3:0.22 4:0.24 5:0.16 6:0.2 7:0.26 8:0.18 9:0.28 10:0.24 11:0.24 12:0.24 13:0.18 14:0.28 15:0.34 16:0.52 17:0.62 18:0.82 19:0.72 20:0.9 21:0.9 22:0.86 23:0.88 24:0.76 25:0.8 26:0.7 27:0.8 28:0.92 29:0.82 30:0.82 31:0.66 32:0.78 33:0.72 34:0.7 35:0.68 36:0.6 37:0.52 38:0.4 39:0.4 40:0.2 41:0.3 42:0.32 43:0.26 44:0.22 45:0.34 46:0.38 47:0.46 48:0.36 49:0.48 
1 0:0 1:0.02 2:0 3:0.02 4:0.04 5:0.04 6:0.06 7:0.04 8:0.1 9:0.14 10:0.16 11:0.26 12:0.26 13:0.2 14:0.32 15:0.36 16:0.34 17:0.18 18:0.38 19:0.3 20:0.4 21:0.32 22:0.32 23:0.5 24:0.5 25:0.52 26:0.52 27:0.66 28:0.52 29:0.5 30:0.68 31:0.68 32:0.74 33:0.72 34:0.5 35:0.64 36:0.52 37:0.58 38:0.74 39:0.58 40:0.58 41:0.56 42:0.56 43:0.5 44:0.34 45:0.12 46:0.08 47:0.02 48:0.1 49:0.1 
1 0:0.06 1:0.52 2:0.68 3:0.6 4:0.4 5:0.54 6:0.66 7:0.68 8:0.82 9:0.96 10:0.96 11:0.88 12:0.66 13:0.84 14:0.84 15:0.82 16:0.84 17:0.78 18:0.9 19:0.82 20:0.8 21:0.78 22:0.6 23:0.64 24:0.66 25:0.72 26:0.8 27:0.74 28:0.54 29:0.68 30:0.5 31:0.62 32:0.62 33:0.48 34:0.62 35:0.74 36:0.64 37:0.46 38:0.5 39:0.48 40:0.46 41:0.5 42:0.6 43:0.84 44:0.72 45:0.38 46:0.58 47:0.04 48:0.1 49:0.12 
1 0:0.16 1:0.2 2:0.2 3:0.14 4:0.2 5:0.3 6:0.38 7:0.54 8:0.54 9:0.7 10:0.8 11:0.62 12:0.74 13:0.64 14:0.64 15:0.48 16:0.58 17:0.56 18:0.58 19:0.5 20:0.42 21:0.5 22:0.5 23:0.66 24:0.62 25:0.58 26:0.7 27:0.58 28:0.56 29:0.6 30:0.54 31:0.48 32:0.46 33:0.58 34:0.56 35:0.56 36:0.5 37:0.46 38:0.72 39:0.56 40:0.52 41:0.62 42:0.66 43:0.54 44:0.58 45:0.4 46:0.32 47:0.16 48:0.1 49:0.04 
1 0:0.08 1:0.1 2:0.14 3:0.24 4:0.26 5:0.28 6:0.3 7:0.36 8:0.3 9:0.4 10:0.4 11:0.38 12:0.36 13:0.52 14:0.62 15:0.6 16:0.62 17:0.76 18:0.76 19:0.74 20:0.78 21:0.76 22:0.8 23:0.52 24:0.6 25:0.58 26:0.48 27:0.6 28:0.68 29:0.7 30:0.58 31:0.58 32:0.56 33:0.52 34:0.5 35:0.4 36:0.42 37:0.54 38:0.42 39:0.34 40:0.32 41:0.34 42:0.3 43:0.38 44:0.3 45:0.22 46:0.34 47:0.18 48:0.22 49:0.12 
1 0:0.26 1:0.52 2:0.58 3:0.5 4:0.62 5:0.66 6:0.72 7:0.7 8:0.7 9:0.6 10:0.7 11:0.78 12:0.78 13:0.92 14:0.84 15:0.86 16:0.86 17:0.86 18:0.78 19:0.82 20:0.84 21:0.78 22:0.74 23:0.8 24:0.76 25:0.8 26:0.86 27:0.64 28:0.86 29:0.72 30:0.8 31:0.86 32:0.72 33:0.66 34:0.74 35:0.76 36:0.7 37:0.82 38:0.88 39:0.8 40:0.62 41:0.66 42:0.48 43:0.34 44:0.5 45:0.42 46:0.44 47:0.28 48:0.28 49:0.32 
1 0:0 1:0 2:0 3:0 4:0.04 5:0.34 6:0.34 7:0.52 8:0.46 9:0.46 10:0.54 11:0.48 12:0.6 13:0.66 14:0.6 15:0.58 16:0.64 17:0.68 18:0.66 19:0.56 20:0.56 21:0.5 22:0.54 23:0.62 24:0.64 25:0.64 26:0.58 27:0.58 28:0.52 29:0.6 30:0.54 31:0.44 32:0.48 33:0.48 34:0.46 35:0.48 36:0.54 37:0.42 38:0.42 39:0.4 40:0.46 41:0.44 42:0.38 43:0.52 44:0.38 45:0.44 46:0.2 47:0.28 48:0.24 49:0.28 
1 0:0.06 1:0.14 2:0.08 3:0.06 4:0.06 5:0.12 6:0.14 7:0.2 8:0.32 9:0.38 10:0.36 11:0.4 12:0.42 13:0.46 14:0.42 15:0.52 16:0.68 17:0.66 18:0.7 19:0.68 20:0.66 21:0.64 22:0.56 23:0.5 24:0.62 25:0.6 26:0.72 27:0.74 28:0.7 29:0.78 30:0.8 31:0.78 32:0.84 33:0.8 34:0.82 35:0.84 36:0.82 37:0.34 38:0.18 39:0.12 40:0.04 41:0.24 42:0.2 43:0.06 44:0.18 45:0.12 46:0.12 47:0.08 48:0.08 49:0.08 
1 0:0 1:0 2:0 3:0 4:0.02 5:0.1 6:0.08 7:0.18 8:0.3 9:0.3 10:0.46 11:0.48 12:0.56 13:0.52 14:0.68 15:0.6 16:0.66 17:0.62 18:0.7 19:0.52 20:0.6 21:0.54 22:0.44 23:0.44 24:0.62 25:0.72 26:0.56 27:0.38 28:0.44 29:0.36 30:0.2 31:0.18 32:0.1 33:0.2 34:0.14 35:0.38 36:0 37:0 38:0.24 39:0 40:0.02 41:0.02 42:0.02 43:0.02 44:0.02 45:0.02 46:0 47:0 48:0 49:0 
1 0:0 1:0 2:0 3:0 4:0 5:0.02 6:0.06 7:0.02 8:0.08 9:0.08 10:0.14 11:0.48 12:0.62 13:0.66 14:0.68 15:0.76 16:0.84 17:0.74 18:0.86 19:0.72 20:0.72 21:0.68 22:0.3 23:0.22 24:0.26 25:0.2 26:0.38 27:0.46 28:0.48 29:0.58 30:0.48 31:0.44 32:0.36 33:0.28 34:0.24 35:0.38 36:0.64 37:0.26 38:0.32 39:0.26 40:0.26 41:0.26 42:0.26 43:0.24 44:0.32 45:0.18 46:0.28 47:0.2 48:0.22 49:0.26 
1 0:0.04 1:0.02 2:0 3:0 4:0 5:0 6:0 7:0 8:0.02 9:0.1 10:0.22 11:0.26 12:0.44 13:0.5 14:0.56 15:0.74 16:0.76 17:0.64 18:0.82 19:0.58 20:0.7 21:0.8 22:0.7 23:0.6 24:0.56 25:0.44 26:0.48 27:0.36 28:0.42 29:0.34 30:0.24 31:0.18 32:0.28 33:0.2 34:0.18 35:0.18 36:0.16 37:0.08 38:0.16 39:0.1 40:0.1 41:0.12 42:0.04 43:0.06 44:0.04 45:0.02 46:0.06 47:0 48:0 49:0 
1 0:0.04 1:0.62 2:0.48 3:0.06 4:0.06 5:0.06 6:0.14 7:0.16 8:0.14 9:0.28 10:0.36 11:0.82 12:0.82 13:0.8 14:0.9 15:0.88 16:0.9 17:0.82 18:0.68 19:0.24 20:0.18 21:0.16 22:0.26 23:0.2 24:0.24 25:0.22 26:0.34 27:0.38 28:0.36 29:0.56 30:0.88 31:0.84 32:0.9 33:0.92 34:0.86 35:0.78 36:0.66 37:0.82 38:0.52 39:0.36 40:0.14 41:0.12 42:0.08 43:0.04 44:0.04 45:0.1 46:0.42 47:0.1 48:0.3 49:0.38 
1 0:0 1:0 2:0.04 3:0.08 4:0.14 5:0.2 6:0.2 7:0.14 8:0.16 9:0.24 10:0.28 11:0.28 12:0.42 13:0.44 14:0.48 15:0.42 16:0.42 17:0.56 18:0.46 19:0.38 20:0.54 21:0.48 22:0.54 23:0.46 24:0.44 25:0.44 26:0.54 27:0.52 28:0.48 29:0.46 30:0.44 31:0.56 32:0.34 33:0.46 34:0.54 35:0.48 36:0.46 37:0.32 38:0.24 39:0.22 40:0.24 41:0.08 42:0.12 43:0.14 44:0.12 45:0.06 46:0 47:0.02 48:0 49:0.02 
1 0:0.04 1:0.12 2:0.1 3:0.04 4:0.04 5:0.06 6:0.12 7:0.06 8:0.12 9:0.16 10:0.2 11:0.14 12:0.24 13:0.32 14:0.52 15:0.48 16:0.46 17:0.6 18:0.76 19:0.58 20:0.54 21:0.62 22:0.52 23:0.48 24:0.44 25:0.42 26:0.56 27:0.24 28:0.24 29:0.18 30:0.26 31:0.44 32:0.38 33:0.34 34:0.32 35:0.42 36:0.72 37:0.84 38:0.74 39:0.58 40:0.38 41:0.24 42:0.06 43:0.02 44:0.12 45:0.12 46:0.1 47:0.04 48:0 49:0.08 
1 0:0.7 1:0.78 2:0.78 3:0.72 4:0.58 5:0.68 6:0.68 7:0.6 8:0.7 9:0.8 10:0.64 11:0.84 12:0.74 13:0.7 14:0.76 15:0.74 16:0.8 17:0.68 18:0.6 19:0.74 20:0.72 21:0.74 22:0.82 23:0.78 24:0.8 25:0.78 26:0.74 27:0.74 28:0.72 29:0.72 30:0.76 31:0.74 32:0.74 33:0.62 34:0.72 35:0.6 36:0.78 37:0.8 38:0.66 39:0.56 40:0.66 41:0.14 42:0.18 43:0.06 44:0.02 45:0.08 46:0.12 47:0.08 48:0.04 49:0.08 
1 0:0.18 1:0.24 2:0.28 3:0.24 4:0.24 5:0.38 6:0.48 7:0.64 8:0.34 9:0.6 10:0.58 11:0.56 12:0.56 13:0.56 14:0.64 15:0.62 16:0.58 17:0.6 18:0.5 19:0.66 20:0.62 21:0.6 22:0.62 23:0.56 24:0.5 25:0.5 26:0.56 27:0.48 28:0.34 29:0.28 30:0.44 31:0.38 32:0.42 33:0.7 34:0.68 35:0.68 36:0.8 37:0.7 38:0.36 39:0.46 40:0.32 41:0.34 42:0.04 43:0.2 44:0.24 45:0.22 46:0.12 47:0.1 48:0.06 49:0.08 
1 0:0.24 1:0.22 2:0.24 3:0.36 4:0.4 5:0.4 6:0.44 7:0.46 8:0.64 9:0.64 10:0.42 11:0.6 12:0.58 13:0.56 14:0.56 15:0.54 16:0.54 17:0.62 18:0.46 19:0.56 20:0.7 21:0.52 22:0.5 23:0.58 24:0.56 25:0.64 26:0.66 27:0.6 28:0.56 29:0.58 30:0.44 31:0.3 32:0.36 33:0.4 34:0.34 35:0.42 36:0.36 37:0.48 38:0.48 39:0.42 40:0.32 41:0.3 42:0.32 43:0.14 44:0.08 45:0 46:0.02 47:0 48:0 49:0 
1 0:0.16 1:0.06 2:0.06 3:0.1 4:0.04 5:0.18 6:0.26 7:0.22 8:0.42 9:0.42 10:0.5 11:0.44 12:0.5 13:0.62 14:0.62 15:0.68 16:0.72 17:0.66 18:0.78 19:0.78 20:0.62 21:0.8 22:0.84 23:0.84 24:0.62 25:0.76 26:0.74 27:0.74 28:0.74 29:0.64 30:0.84 31:0.66 32:0.66 33:0.64 34:0.66 35:0.74 36:0.72 37:0.52 38:0.64 39:0.42 40:0.58 41:0.38 42:0.34 43:0.32 44:0.3 45:0.24 46:0.5 47:0.22 48:0.38 49:0.32 
1 0:0.14 1:0.2 2:0.1 3:0.14 4:0.22 5:0.22 6:0.32 7:0.48 8:0.62 9:0.62 10:0.64 11:0.62 12:0.6 13:0.36 14:0.52 15:0.6 16:0.54 17:0.5 18:0.42 19:0.48 20:0.5 21:0.58 22:0.52 23:0.56 24:0.54 25:0.42 26:0.56 27:0.48 28:0.52 29:0.48 30:0.52 31:0.58 32:0.64 33:0.52 34:0.5 35:0.64 36:0.52 37:0.7 38:0.52 39:0.38 40:0.28 41:0.2 42:0.36 43:0.12 44:0.1 45:0.06 46:0.08 47:0.04 48:0.14 49:0.18 
1 0:0.16 1:0.22 2:0.24 3:0.26 4:0.36 5:0.32 6:0.26 7:0.22 8:0.26 9:0.34 10:0.18 11:0.22 12:0.42 13:0.54 14:0.5 15:0.5 16:0.5 17:0.28 18:0.44 19:0.36 20:0.32 21:0.22 22:0.28 23:0.16 24:0.1 25:0.04 26:0.38 27:0.68 28:0.78 29:0.78 30:0.7 31:0.74 32:0.74 33:0.64 34:0.68 35:0.8 36:0.8 37:0.76 38:0.7 39:0.66 40:0.64 41:0.3 42:0.3 43:0.22 44:0.34 45:0.22 46:0.08 47:0 48:0 49:0 
1 0:0.04 1:0.02 2:0.02 3:0.02 4:0.02 5:0.02 6:0.06 7:0.08 8:0.1 9:0.12 10:0.28 11:0.46 12:0.52 13:0.6 14:0.6 15:0.7 16:0.54 17:0.48 18:0.64 19:0.68 20:0.68 21:0.66 22:0.54 23:0.6 24:0.46 25:0.66 26:0.58 27:0.52 28:0.74 29:0.82 30:0.74 31:0.56 32:0.8 33:0.6 34:0.5 35:0.42 36:0.5 37:0.5 38:0.54 39:0.6 40:0.34 41:0.34 42:0.44 43:0.4 44:0.3 45:0.26 46:0.34 47:0.28 48:0.16 49:0.28 
0.03968935811801883 0:0 1:0.36 2:0.28 3:0.42 4:0.36 5:0.36 6:0.26 7:0.32 8:0.54 9:0.64 10:0.62 11:0.6 12:0.52 13:0.5 14:0.6 15:0.68 16:0.66 17:0.58 18:0.6 19:0.52 20:0.58 21:0.6 22:0.68 23:0.6 24:0.7 25:0.74 26:0.66 27:0.72 28:0.78 29:0.72 30:0.54 31:0.52 32:0.48 33:0.3 34:0.36 35:0.36 36:0.16 37:0.28 38:0.3 39:0.32 40:0.24 41:0.32 42:0.34 43:0.18 44:0.14 45:0.2 46:0.26 47:0.24 48:0 49:0 
1 0:0.06 1:0.16 2:0.1 3:0.14 4:0.1 5:0.12 6:0.18 7:0.16 8:0.3 9:0.42 10:0.44 11:0.4 12:0.58 13:0.46 14:0.42 15:0.42 16:0.42 17:0.64 18:0.52 19:0.46 20:0.48 21:0.48 22:0.42 23:0.5 24:0.6 25:0.44 26:0.56 27:0.68 28:0.74 29:0.62 30:0.52 31:0.46 32:0.42 33:0.4 34:0.6 35:0.56 36:0.4 37:0.5 38:0.56 39:0.5 40:0.36 41:0.34 42:0.3 43:0.22 44:0.2 45:0.1 46:0.18 47:0.16 48:0.06 49:0.06 
1 0:0 1:0 2:0 3:0.04 4:0.04 5:0.06 6:0.2 7:0.3 8:0.34 9:0.42 10:0.5 11:0.68 12:0.76 13:0.8 14:0.9 15:0.86 16:0.86 17:0.56 18:0.72 19:0.78 20:0.82 21:0.76 22:0.78 23:0.74 24:0.44 25:0.6 26:0.66 27:0.62 28:0.64 29:0.64 30:0.6 31:0.46 32:0.64 33:0.58 34:0.58 35:0.5 36:0.54 37:0.48 38:0.5 39:0.42 40:0.4 41:0.54 42:0.58 43:0.44 44:0.62 45:0.52 46:0.44 47:0.36 48:0.44 49:0.46 
1 0:0.18 1:0.16 2:0.24 3:0.28 4:0.16 5:0.26 6:0.22 7:0.1 8:0.28 9:0.34 10:0.34 11:0.3 12:0.3 13:0.26 14:0.54 15:0.56 16:0.68 17:0.54 18:0.66 19:0.62 20:0.42 21:0.58 22:0.58 23:0.88 24:0.82 25:0.7 26:0.66 27:0.72 28:0.62 29:0.58 30:0.52 31:0.48 32:0.62 33:0.58 34:0.54 35:0.64 36:0.46 37:0.6 38:0.46 39:0.4 40:0.08 41:0.06 42:0.04 43:0 44:0 45:0 46:0 47:0 48:0 49:0 
1 0:0.04 1:0.04 2:0.08 3:0.08 4:0.14 5:0.26 6:0.42 7:0.54 8:0.74 9:0.96 10:0.92 11:0.92 12:0.88 13:0.96 14:0.96 15:0.94 16:0.9 17:0.84 18:0.88 19:0.86 20:0.86 21:0.8 22:0.18 23:0.08 24:0.3 25:0.06 26:0.2 27:0.38 28:0.78 29:0.7 30:0.72 31:0.52 32:0.44 33:0.52 34:0.16 35:0.04 36:0.06 37:0.16 38:0.26 39:0.18 40:0.18 41:0.08 42:0.12 43:0.14 44:0.04 45:0.02 46:0.02 47:0.02 48:0 49:0 
1 0:0 1:0 2:0 3:0 4:0 5:0 6:0 7:0 8:0.12 9:0.28 10:0.26 11:0.38 12:0.36 13:0.4 14:0.44 15:0.4 16:0.42 17:0.5 18:0.52 19:0.52 20:0.78 21:0.52 22:0.6 23:0.78 24:0.6 25:0.64 26:0.76 27:0.74 28:0.7 29:0.72 30:0.62 31:0.46 32:0.56 33:0.74 34:0.48 35:0.28 36:0.32 37:0.22 38:0.18 39:0 40:0 41:0 42:0 43:0 44:0.02 45:0.02 46:0.02 47:0 48:0 49:0 
1 0:0 1:0 2:0 3:0.02 4:0.32 5:0.04 6:0.14 7:0.16 8:0.12 9:0.18 10:0.28 11:0.24 12:0.08 13:0.32 14:0.46 15:0.5 16:0.62 17:0.68 18:0.64 19:0.7 20:0.7 21:0.7 22:0.52 23:0.5 24:0.5 25:0.52 26:0.5 27:0.44 28:0.44 29:0.42 30:0.4 31:0.52 32:0.6 33:0.62 34:0.76 35:0.48 36:0.48 37:0.64 38:0.62 39:0.48 40:0.4 41:0.48 42:0.38 43:0.32 44:0.28 45:0.16 46:0.26 47:0.1 48:0 49:0.08 
1 0:0 1:0 2:0 3:0 4:0 5:0 6:0 7:0 8:0 9:0 10:0.04 11:0.08 12:0.08 13:0.22 14:0.38 15:0.4 16:0.32 17:0.6 18:0.78 19:0.74 20:0.74 21:0.64 22:0.54 23:0.58 24:0.76 25:0.74 26:0.76 27:0.72 28:0.54 29:0.54 30:0.46 31:0.52 32:0.5 33:0.6 34:0.66 35:0.68 36:0.66 37:0.58 38:0.6 39:0.6 40:0.42 41:0.52 42:0.52 43:0.58 44:0.4 45:0.44 46:0.44 47:0.36 48:0.26 49:0.18 
1 0:0.06 1:0.06 2:0.1 3:0.08 4:0.24 5:0.36 6:0.44 7:0.4 8:0.5 9:0.56 10:0.62 11:0.56 12:0.54 13:0.74 14:0.56 15:0.68 16:0.52 17:0.6 18:0.62 19:0.56 20:0.62 21:0.58 22:0.54 23:0.68 24:0.64 25:0.6 26:0.56 27:0.7 28:0.66 29:0.56 30:0.58 31:0.78 32:0.84 33:0.7 34:0.8 35:0.86 36:0.8 37:0.86 38:0.74 39:0.66 40:0.56 41:0.64 42:0.64 43:0.58 44:0.6 45:0.52 46:0.42 47:0.22 48:0.24 49:0.44 
1 0:0.24 1:0.3 2:0.32 3:0.3 4:0.38 5:0.5 6:0.54 7:0.6 8:0.68 9:0.6 10:0.76 11:0.68 12:0.82 13:0.86 14:0.8 15:0.76 16:0.86 17:0.8 18:0.8 19:0.78 20:0.76 21:0.7 22:0.8 23:0.72 24:0.7 25:0.68 26:0.66 27:0.58 28:0.66 29:0.78 30:0.62 31:0.64 32:0.54 33:0.58 34:0.48 35:0.42 36:0.42 37:0.46 38:0.4 39:0.3 40:0.28 41:0.3 42:0.32 43:0.24 44:0.3 45:0.22 46:0.22 47:0.14 48:0.12 49:0.12 
1 0:0.36 1:0.32 2:0.4 3:0.48 4:0.52 5:0.42 6:0.5 7:0.72 8:0.6 9:0.7 10:0.52 11:0.6 12:0.56 13:0.56 14:0.66 15:0.72 16:0.68 17:0.8 18:0.62 19:0.74 20:0.64 21:0.7 22:0.84 23:0.76 24:0.82 25:0.74 26:0.76 27:0.74 28:0.72 29:0.78 30:0.68 31:0.76 32:0.7 33:0.76 34:0.74 35:0.76 36:0.66 37:0.64 38:0.66 39:0.74 40:0.7 41:0.58 42:0.36 43:0.38 44:0.2 45:0.12 46:0.06 47:0.04 48:0 49:0 
1 0:0.1 1:0.08 2:0.12 3:0.1 4:0.14 5:0.22 6:0.28 7:0.4 8:0.72 9:0.8 10:0.7 11:0.74 12:0.76 13:0.66 14:0.7 15:0.82 16:0.78 17:0.8 18:0.64 19:0.72 20:0.88 21:0.8 22:0.74 23:0.76 24:0.86 25:0.78 26:0.74 27:0.66 28:0.8 29:0.8 30:0.6 31:0.58 32:0.74 33:0.72 34:0.7 35:0.04 36:0.04 37:0.02 38:0.04 39:0.02 40:0.08 41:0.04 42:0.04 43:0.02 44:0.04 45:0.06 46:0.04 47:0.04 48:0.04 49:0.02 
1 0:0.08 1:0.24 2:0.16 3:0.34 4:0.5 5:0.6 6:0.52 7:0.6 8:0.54 9:0.64 10:0.64 11:0.66 12:0.78 13:0.72 14:0.64 15:0.72 16:0.7 17:0.74 18:0.68 19:0.84 20:0.82 21:0.72 22:0.8 23:0.74 24:0.72 25:0.8 26:0.64 27:0.58 28:0.56 29:0.66 30:0.58 31:0.66 32:0.64 33:0.62 34:0.64 35:0.66 36:0.54 37:0.44 38:0.6 39:0.54 40:0.34 41:0.42 42:0.52 43:0.58 44:0.4 45:0.46 46:0.44 47:0.22 48:0.26 49:0.36 
1 0:0 1:0 2:0 3:0.02 4:0.08 5:0.08 6:0.08 7:0.08 8:0.08 9:0.1 10:0.3 11:0.24 12:0.36 13:0.28 14:0.42 15:0.42 16:0.5 17:0.42 18:0.34 19:0.4 20:0.4 21:0.5 22:0.34 23:0.58 24:0.38 25:0.3 26:0.3 27:0.38 28:0.4 29:0.54 30:0.64 31:0.74 32:0.7 33:0.76 34:0.5 35:0.52 36:0.5 37:0.4 38:0.48 39:0.52 40:0.4 41:0.34 42:0.42 43:0.26 44:0.24 45:0.08 46:0.1 47:0.12 48:0.02 49:0.04 
0.3663286703569734 0:0 1:0 2:0 3:0 4:0.06 5:0.04 6:0.04 7:0.16 8:0.04 9:0.38 10:0.24 11:0.34 12:0.5 13:0.38 14:0.52 15:0.6 16:0.6 17:0.66 18:0.6 19:0.74 20:0.76 21:0.52 22:0.62 23:0.74 24:0.76 25:0.76 26:0.68 27:0.72 28:0.8 29:0.64 30:0.5 31:0.46 32:0.4 33:0.36 34:0.16 35:0.32 36:0.28 37:0.2 38:0.36 39:0.32 40:0.5 41:0.26 42:0.16 43:0.36 44:0.34 45:0.32 46:0.34 47:0.26 48:0.28 49:0.2 
1 0:0.04 1:0.08 2:0.14 3:0.14 4:0.22 5:0.26 6:0.24 7:0.4 8:0.54 9:0.52 10:0.5 11:0.44 12:0.36 13:0.5 14:0.62 15:0.64 16:0.72 17:0.72 18:0.66 19:0.7 20:0.66 21:0.74 22:0.64 23:0.64 24:0.58 25:0.46 26:0.48 27:0.42 28:0.36 29:0.26 30:0.18 31:0.1 32:0.06 33:0.14 34:0.4 35:0.54 36:0.36 37:0.36 38:0.38 39:0.34 40:0.14 41:0.06 42:0.02 43:0.06 44:0.04 45:0.08 46:0.1 47:0.14 48:0.04 49:0.12 
1 0:0.24 1:0.2 2:0.14 3:0.58 4:0.46 5:0.3 6:0.2 7:0.7 8:0.72 9:0.58 10:0.76 11:0.76 12:0.76 13:0.66 14:0.72 15:0.74 16:0.62 17:0.7 18:0.72 19:0.66 20:0.56 21:0.74 22:0.66 23:0.66 24:0.72 25:0.68 26:0.7 27:0.46 28:0.7 29:0.56 30:0.28 31:0.62 32:0.76 33:0.6 34:0.66 35:0.76 36:0.52 37:0.3 38:0.28 39:0.6 40:0.24 41:0.38 42:0.2 43:0.18 44:0.28 45:0.12 46:0.38 47:0.68 48:0 49:0.1 
1 0:0.06 1:0.1 2:0.12 3:0.16 4:0.14 5:0.2 6:0.36 7:0.36 8:0.34 9:0.32 10:0.32 11:0.3 12:0.4 13:0.38 14:0.52 15:0.48 16:0.42 17:0.62 18:0.62 19:0.6 20:0.64 21:0.58 22:0.54 23:0.6 24:0.66 25:0.82 26:0.76 27:0.82 28:0.62 29:0.72 30:0.52 31:0.66 32:0.66 33:0.58 34:0.64 35:0.42 36:0.42 37:0.46 38:0.42 39:0.3 40:0.24 41:0.16 42:0.16 43:0.16 44:0.1 45:0.08 46:0.04 47:0.06 48:0.06 49:0.06 
1 0:0.08 1:0.58 2:0.24 3:0.26 4:0.32 5:0.36 6:0.5 7:0.64 8:0.48 9:0.44 10:0.48 11:0.58 12:0.68 13:0.66 14:0.58 15:0.66 16:0.54 17:0.42 18:0.52 19:0.36 20:0.56 21:0.68 22:0.6 23:0.72 24:0.76 25:0.58 26:0.64 27:0.76 28:0.52 29:0.62 30:0.58 31:0.64 32:0.66 33:0.68 34:0.72 35:0.74 36:0.8 37:0.82 38:0.78 39:0.68 40:0.6 41:0.56 42:0.4 43:0.3 44:0.26 45:0.18 46:0.02 47:0.08 48:0.04 49:0.04 
1 0:0.02 1:0.02 2:0 3:0 4:0 5:0 6:0 7:0 8:0 9:0 10:0 11:0.06 12:0.2 13:0.3 14:0.52 15:0.56 16:0.66 17:0.7 18:0.84 19:0.78 20:0.7 21:0.6 22:0.68 23:0.7 24:0.62 25:0.72 26:0.84 27:0.72 28:0.8 29:0.8 30:0.9 31:0.92 32:0.86 33:0.88 34:0.74 35:0.68 36:0.7 37:0.64 38:0.66 39:0.58 40:0.62 41:0.6 42:0.46 43:0.56 44:0.6 45:0.48 46:0.32 47:0.5 48:0.5 49:0.56 
1 0:0 1:0 2:0 3:0 4:0.6 5:0.6 6:0.74 7:0.82 8:0.76 9:0.66 10:0.64 11:0.76 12:0.6 13:0.66 14:0.66 15:0.8 16:0.62 17:0.74 18:0.78 19:0.7 20:0.64 21:0.68 22:0.78 23:0.68 24:0.46 25:0.58 26:0.66 27:0.66 28:0.5 29:0.46 30:0.66 31:0.74 32:0.78 33:0.66 34:0.74 35:0.62 36:0.66 37:0.78 38:0.64 39:0.68 40:0.7 41:0.86 42:0.92 43:0.8 44:0.88 45:0.9 46:0 47:0 48:0 49:0 
1 0:0.06 1:0.1 2:0.16 3:0.2 4:0.24 5:0.36 6:0.3 7:0.4 8:0.48 9:0.54 10:0.4 11:0.46 12:0.56 13:0.62 14:0.58 15:0.42 16:0.64 17:0.7 18:0.46 19:0.34 20:0.44 21:0.44 22:0.68 23:0.68 24:0.68 25:0.66 26:0.56 27:0.74 28:0.6 29:0.68 30:0.7 31:0.6 32:0.58 33:0.66 34:0.5 35:0.66 36:0.48 37:0.58 38:0.44 39:0.42 40:0.4 41:0.26 42:0.2 43:0.24 44:0.2 45:0.14 46:0.18 47:0.08 48:0.1 49:0.24 
1 0:0 1:0.02 2:0.02 3:0.06 4:0.12 5:0.14 6:0.14 7:0.16 8:0.18 9:0.2 10:0.28 11:0.32 12:0.4 13:0.36 14:0.46 15:0.42 16:0.52 17:0.54 18:0.64 19:0.68 20:0.66 21:0.64 22:0.64 23:0.74 24:0.7 25:0.64 26:0.68 27:0.78 28:0.74 29:0.74 30:0.68 31:0.78 32:0.74 33:0.78 34:0.82 35:0.8 36:0.9 37:0.8 38:0.54 39:0.32 40:0.16 41:0.32 42:0.26 43:0.14 44:0.2 45:0.14 46:0.08 47:0.22 48:0.1 49:0.08 
1 0:0.04 1:0.02 2:0.02 3:0.04 4:0.08 5:0.18 6:0.14 7:0.2 8:0.24 9:0.5 10:0.54 11:0.42 12:0.54 13:0.42 14:0.72 15:0.42 16:0.58 17:0.78 18:0.76 19:0.64 20:0.74 21:0.6 22:0.78 23:0.74 24:0.78 25:0.7 26:0.66 27:0.64 28:0.54 29:0.54 30:0.58 31:0.54 32:0.5 33:0.44 34:0.46 35:0.5 36:0.38 37:0.4 38:0.22 39:0.24 40:0.16 41:0.2 42:0.14 43:0.24 44:0.26 45:0.2 46:0.26 47:0.16 48:0.24 49:0.3 
1 0:0.08 1:0.16 2:0.16 3:0.16 4:0.18 5:0.14 6:0.1 7:0.16 8:0.14 9:0.24 10:0.2 11:0.24 12:0.32 13:0.42 14:0.52 15:0.42 16:0.6 17:0.58 18:0.64 19:0.6 20:0.48 21:0.58 22:0.42 23:0.52 24:0.6 25:0.58 26:0.6 27:0.6 28:0.58 29:0.44 30:0.48 31:0.46 32:0.34 33:0.46 34:0.4 35:0.36 36:0.26 37:0.26 38:0.18 39:0.2 40:0.14 41:0.16 42:0.22 43:0.08 44:0.08 45:0 46:0 47:0 48:0 49:0 
1 0:0.42 1:0.4 2:0.34 3:0.46 4:0.48 5:0.56 6:0.42 7:0.48 8:0.54 9:0.58 10:0.6 11:0.58 12:0.58 13:0.64 14:0.64 15:0.72 16:0.7 17:0.66 18:0.64 19:0.74 20:0.72 21:0.6 22:0.56 23:0.62 24:0.62 25:0.8 26:0.64 27:0.6 28:0.44 29:0.6 30:0.7 31:0.42 32:0.5 33:0.58 34:0.72 35:0.56 36:0.56 37:0.44 38:0.36 39:0.36 40:0.38 41:0.32 42:0.34 43:0.22 44:0.1 45:0.04 46:0.02 47:0.02 48:0 49:0 
1 0:0.06 1:0.04 2:0.02 3:0 4:0.04 5:0.06 6:0.06 7:0.14 8:0.58 9:0.3 10:0.56 11:0.62 12:0.7 13:0.6 14:0.58 15:0.54 16:0.56 17:0.52 18:0.64 19:0.38 20:0.44 21:0.44 22:0.6 23:0.36 24:0.48 25:0.46 26:0.3 27:0.38 28:0.4 29:0.34 30:0.38 31:0.26 32:0.32 33:0.46 34:0.42 35:0.4 36:0.58 37:0.38 38:0.44 39:0.44 40:0.5 41:0.62 42:0.52 43:0.46 44:0.64 45:0.78 46:0 47:0 48:0 49:0 
1 0:0 1:0 2:0 3:0 4:0.08 5:0.02 6:0.04 7:0.06 8:0.06 9:0.12 10:0.2 11:0.26 12:0.34 13:0.32 14:0.48 15:0.46 16:0.56 17:0.68 18:0.72 19:0.92 20:0.84 21:0.86 22:0.84 23:0.94 24:0.9 25:0.86 26:0.88 27:0.86 28:0.66 29:0.62 30:0.68 31:0.66 32:0.44 33:0.38 34:0.46 35:0.24 36:0.26 37:0.2 38:0.2 39:0.18 40:0.06 41:0.14 42:0.1 43:0.1 44:0.04 45:0.04 46:0.02 47:0 48:0 49:0 
1 0:0.02 1:0.02 2:0.08 3:0.22 4:0.38 5:0.46 6:0.44 7:0.48 8:0.64 9:0.66 10:0.8 11:0.78 12:0.8 13:0.8 14:0.9 15:0.86 16:0.88 17:0.86 18:0.88 19:0.88 20:0.78 21:0.78 22:0.8 23:0.78 24:0.62 25:0.64 26:0.7 27:0.64 28:0.64 29:0.6 30:0.66 31:0.66 32:0.66 33:0.66 34:0.58 35:0.54 36:0.52 37:0.48 38:0.38 39:0.38 40:0.38 41:0.38 42:0.36 43:0.4 44:0.46 45:0.34 46:0.28 47:0.32 48:0.34 49:0.26 
1 0:0 1:0 2:0 3:0.54 4:0.22 5:0.24 6:0.38 7:0.28 8:0.3 9:0.56 10:0.44 11:0.54 12:0.54 13:0.32 14:0.38 15:0.4 16:0.64 17:0.76 18:0.76 19:0.7 20:0.82 21:0.74 22:0.78 23:0.72 24:0.66 25:0.52 26:0.56 27:0.58 28:0.6 29:0.56 30:0.6 31:0.68 32:0.62 33:0.68 34:0.64 35:0.68 36:0.62 37:0.66 38:0.72 39:0.66 40:0.5 41:0.6 42:0.64 43:0.7 44:0.62 45:0.38 46:0.1 47:0 48:0 49:0 
1 0:0 1:0.04 2:0.12 3:0.22 4:0.26 5:0.18 6:0.14 7:0.28 8:0.36 9:0.24 10:0.3 11:0.4 12:0.44 13:0.54 14:0.48 15:0.56 16:0.52 17:0.66 18:0.4 19:0.46 20:0.66 21:0.56 22:0.64 23:0.52 24:0.62 25:0.66 26:0.54 27:0.6 28:0.58 29:0.64 30:0.5 31:0.56 32:0.44 33:0.64 34:0.58 35:0.44 36:0.34 37:0.52 38:0.36 39:0.3 40:0.32 41:0.48 42:0.26 43:0.38 44:0.28 45:0.22 46:0.34 47:0.22 48:0.24 49:0.2 
1 0:0.06 1:0.04 2:0.04 3:0.02 4:0.06 5:0.04 6:0.08 7:0.1 8:0.18 9:0.28 10:0.28 11:0.26 12:0.24 13:0.36 14:0.46 15:0.44 16:0.46 17:0.38 18:0.42 19:0.56 20:0.54 21:0.52 22:0.54 23:0.5 24:0.74 25:0.66 26:0.52 27:0.58 28:0.56 29:0.58 30:0.64 31:0.48 32:0.44 33:0.32 34:0.24 35:0.16 36:0.1 37:0.08 38:0.04 39:0.06 40:0.06 41:0 42:0 43:0 44:0 45:0 46:0 47:0 48:0 49:0 
1 0:0.06 1:0.02 2:0.04 3:0.06 4:0.1 5:0.12 6:0.14 7:0.34 8:0.2 9:0.38 10:0.44 11:0.34 12:0.46 13:0.46 14:0.62 15:0.58 16:0.52 17:0.48 18:0.6 19:0.48 20:0.52 21:0.56 22:0.38 23:0.36 24:0.54 25:0.52 26:0.54 27:0.42 28:0.5 29:0.4 30:0.42 31:0.4 32:0.34 33:0.42 34:0.34 35:0.32 36:0.26 37:0.34 38:0.26 39:0.24 40:0.22 41:0.18 42:0.18 43:0.16 44:0.12 45:0.1 46:0.1 47:0.08 48:0.06 49:0.04 
1 0:0 1:0 2:0 3:0 4:0 5:0.34 6:0.36 7:0.34 8:0.3 9:0.34 10:0.32 11:0.38 12:0.38 13:0.4 14:0.36 15:0.32 16:0.6 17:0.54 18:0.46 19:0.66 20:0.88 21:0.82 22:0.86 23:0.72 24:0.9 25:0.72 26:0.64 27:0.7 28:0.74 29:0.74 30:0.68 31:0.62 32:0.58 33:0.48 34:0.58 35:0.64 36:0.46 37:0.58 38:0.18 39:0.22 40:0.24 41:0.6 42:0.16 43:0.14 44:0.2 45:0.16 46:0.16 47:0.16 48:0.08 49:0.06 
1 0:0.22 1:0.26 2:0.14 3:0.2 4:0.26 5:0.36 6:0.38 7:0.46 8:0.46 9:0.42 10:0.6 11:0.68 12:0.64 13:0.76 14:0.66 15:0.5 16:0.5 17:0.44 18:0.52 19:0.48 20:0.5 21:0.46 22:0.5 23:0.64 24:0.84 25:0.8 26:0.62 27:0.68 28:0.5 29:0.7 30:0.8 31:0.78 32:0.78 33:0.56 34:0.38 35:0.38 36:0.36 37:0.5 38:0.36 39:0.18 40:0.36 41:0.46 42:0.44 43:0.42 44:0.3 45:0.46 46:0.36 47:0.3 48:0.28 49:0.2 
1 0:0 1:0 2:0 3:0 4:0.02 5:0 6:0.06 7:0.06 8:0.14 9:0.16 10:0.16 11:0.22 12:0.16 13:0.28 14:0.38 15:0.44 16:0.58 17:0.68 18:0.6 19:0.66 20:0.8 21:0.76 22:0.88 23:0.8 24:0.74 25:0.8 26:0.8 27:0.82 28:0.7 29:0.76 30:0.72 31:0.74 32:0.68 33:0.58 34:0.84 35:0.74 36:0.8 37:0.72 38:0.72 39:0.86 40:0.7 41:0.8 42:0.62 43:0.66 44:0.64 45:0.52 46:0.62 47:0.16 48:0.26 49:0.16 
1 0:0.26 1:0.1 2:0.48 3:0.34 4:0.46 5:0.52 6:0.54 7:0.48 8:0.72 9:0.7 10:0.66 11:0.74 12:0.72 13:0.7 14:0.76 15:0.7 16:0.68 17:0.24 18:0.34 19:0.44 20:0.6 21:0.42 22:0.8 23:0.58 24:0.56 25:0.68 26:0.68 27:0.74 28:0.68 29:0.56 30:0.58 31:0.5 32:0.54 33:0.46 34:0.46 35:0.38 36:0.38 37:0.42 38:0.44 39:0.38 40:0.24 41:0.26 42:0.18 43:0.3 44:0.2 45:0.24 46:0.02 47:0.1 48:0.06 49:0 
1 0:0 1:0 2:0 3:0 4:0.02 5:0.2 6:0.5 7:0.02 8:0.06 9:0.08 10:0.12 11:0.36 12:0.6 13:0.74 14:0.62 15:0.6 16:0.44 17:0.46 18:0.54 19:0.44 20:0.54 21:0.52 22:0.4 23:0.54 24:0.46 25:0.48 26:0.4 27:0.56 28:0.48 29:0.82 30:0.82 31:0.68 32:0.82 33:0.66 34:0.54 35:0.32 36:0.12 37:0.06 38:0.06 39:0.04 40:0.02 41:0.02 42:0.04 43:0 44:0 45:0 46:0.04 47:0.04 48:0.1 49:0.2 
1 0:0 1:0 2:0 3:0 4:0.08 5:0.16 6:0.26 7:0.26 8:0.24 9:0.26 10:0.2 11:0.38 12:0.26 13:0.36 14:0.44 15:0.36 16:0.36 17:0.38 18:0.42 19:0.32 20:0.26 21:0.38 22:0.38 23:0.2 24:0.38 25:0.44 26:0.4 27:0.42 28:0.48 29:0.36 30:0.4 31:0.52 32:0.48 33:0.52 34:0.58 35:0.54 36:0.6 37:0.64 38:0.5 39:0.7 40:0.26 41:0.06 42:0.14 43:0.18 44:0.02 45:0.08 46:0.14 47:0 48:0.02 49:0.02 
1 0:0.14 1:0.14 2:0.2 3:0.54 4:0.74 5:0.54 6:0.44 7:0.54 8:0.6 9:0.76 10:0.7 11:0.58 12:0.78 13:0.56 14:0.64 15:0.6 16:0.72 17:0.58 18:0.72 19:0.86 20:0.72 21:0.76 22:0.24 23:0.56 24:0.48 25:0.46 26:0.46 27:0.58 28:0.54 29:0.6 30:0.56 31:0.38 32:0.6 33:0.5 34:0.34 35:0.46 36:0.48 37:0.38 38:0.32 39:0.38 40:0.32 41:0.16 42:0.2 43:0.12 44:0.08 45:0.1 46:0.16 47:0.1 48:0.1 49:0.16 
1 0:0 1:0 2:0 3:0.02 4:0.06 5:0.08 6:0.12 7:0.16 8:0.34 9:0.42 10:0.42 11:0.48 12:0.58 13:0.6 14:0.68 15:0.66 16:0.58 17:0.66 18:0.64 19:0.76 20:0.76 21:0.78 22:0.72 23:0.62 24:0.66 25:0.6 26:0.58 27:0.6 28:0.42 29:0.22 30:0.1 31:0 32:0 33:0.02 34:0 35:0.02 36:0.02 37:0 38:0 39:0 40:0 41:0 42:0.02 43:0 44:0 45:0 46:0 47:0 48:0 49:0 
1 0:0 1:0.06 2:0 3:0.06 4:0 5:0.02 6:0.1 7:0.1 8:0 9:0.16 10:0.34 11:0.44 12:0.44 13:0.42 14:0.46 15:0.38 16:0.36 17:0.48 18:0.4 19:0.42 20:0.48 21:0.34 22:0.44 23:0.52 24:0.5 25:0.48 26:0.5 27:0.44 28:0.4 29:0.42 30:0.44 31:0.5 32:0.36 33:0.48 34:0.46 35:0.4 36:0.42 37:0.4 38:0.34 39:0.38 40:0.36 41:0.4 42:0.08 43:0.04 44:0.12 45:0.1 46:0.08 47:0 48:0 49:0 
1 0:0 1:0 2:0 3:0.02 4:0.16 5:0.06 6:0.02 7:0.14 8:0.06 9:0.18 10:0.16 11:0.12 12:0.18 13:0.46 14:0.52 15:0.68 16:0.58 17:0.72 18:0.66 19:0.74 20:0.68 21:0.66 22:0.74 23:0.68 24:0.58 25:0.42 26:0.56 27:0.56 28:0.58 29:0.5 30:0.62 31:0.52 32:0.54 33:0.58 34:0.64 35:0.44 36:0.5 37:0.52 38:0.4 39:0.58 40:0.5 41:0.48 42:0.34 43:0.2 44:0.18 45:0.34 46:0.4 47:0.4 48:0.26 49:0.26 
1 0:0.08 1:0.04 2:0.04 3:0.5 4:0.3 5:0.18 6:0.44 7:0.5 8:0.46 9:0.52 10:0.54 11:0.44 12:0.64 13:0.42 14:0.54 15:0.66 16:0.44 17:0.56 18:0.56 19:0.72 20:0.5 21:0.36 22:0.44 23:0.44 24:0.46 25:0.38 26:0.5 27:0.48 28:0.38 29:0.46 30:0.46 31:0.28 32:0.52 33:0.38 34:0.44 35:0.3 36:0.18 37:0.2 38:0.24 39:0.14 40:0.08 41:0.2 42:0.04 43:0.1 44:0.1 45:0.12 46:0.1 47:0 48:0.02 49:0.02 
1 0:0 1:0 2:0 3:0 4:0 5:0.04 6:0.04 7:0.24 8:0.54 9:0.46 10:0.54 11:0.54 12:0.26 13:0.06 14:0.12 15:0.32 16:0.34 17:0.56 18:0.4 19:0.72 20:0.68 21:0.84 22:0.56 23:0.58 24:0.5 25:0.54 26:0.62 27:0.6 28:0.64 29:0.66 30:0.34 31:0.48 32:0.72 33:0.7 34:0.56 35:0.48 36:0.58 37:0.64 38:0.6 39:0.74 40:0.6 41:0.46 42:0.44 43:0.46 44:0.22 45:0.14 46:0.2 47:0.14 48:0.08 49:0.4 
1 0:0 1:0 2:0 3:0.02 4:0.02 5:0.08 6:0.2 7:0.28 8:0.22 9:0.3 10:0.4 11:0.38 12:0.34 13:0.42 14:0.38 15:0.4 16:0.4 17:0.48 18:0.4 19:0.46 20:0.5 21:0.48 22:0.52 23:0.58 24:0.58 25:0.8 26:0.6 27:0.62 28:0.56 29:0.38 30:0.4 31:0.36 32:0.4 33:0.5 34:0.6 35:0.56 36:0.62 37:0.6 38:0.48 39:0.34 40:0.34 41:0.26 42:0.2 43:0.16 44:0.16 45:0.2 46:0.14 47:0.2 48:0.3 49:0.16 
1 0:0.02 1:0.06 2:0.08 3:0.06 4:0.02 5:0.1 6:0.08 7:0.18 8:0.26 9:0.26 10:0.28 11:0.4 12:0.36 13:0.42 14:0.4 15:0.3 16:0.32 17:0.56 18:0.72 19:0.5 20:0.58 21:0.58 22:0.52 23:0.52 24:0.56 25:0.52 26:0.42 27:0.4 28:0.7 29:0.54 30:0.54 31:0.46 32:0.4 33:0.38 34:0.28 35:0.2 36:0.08 37:0.02 38:0 39:0 40:0 41:0 42:0 43:0 44:0 45:0 46:0 47:0 48:0 49:0 
1 0:0 1:0 2:0 3:0.16 4:0.1 5:0.04 6:0.14 7:0.16 8:0.3 9:0.2 10:0.48 11:0.4 12:0.46 13:0.5 14:0.46 15:0.52 16:0.46 17:0.46 18:0.6 19:0.42 20:0.46 21:0.54 22:0.38 23:0.68 24:0.28 25:0.36 26:0.46 27:0.44 28:0.32 29:0.26 30:0.38 31:0.5 32:0.56 33:0.34 34:0.22 35:0.36 36:0.42 37:0.5 38:0.54 39:0.64 40:0.56 41:0.62 42:0.78 43:0.64 44:0.3 45:0.08 46:0 47:0 48:0 49:0 
-1 0:0 1:0 2:0 3:0.0351 4:0.0351 5:0.0351 6:0.0351 7:0.0793 8:0.0793 9:0.0793 10:0.0914 11:0.0914 12:0.0914 13:0.4709 14:0.4709 15:0.4709 16:0.4709 17:0.504 18:0.504 19:0.504 20:0.8052 21:0.8052 22:0.8052 23:0.8012 24:0.8012 25:0.8012 26:0.8012 27:0.6637 28:0.6637 29:0.6637 30:0.75 31:0.75 32:0.75 33:0.7269 34:0.7269 35:0.7269 36:0.7269 37:0.8102 38:0.8102 39:0.8102 40:0.511 41:0.511 42:0.511 43:0.4809 44:0.4809 45:0.4809 46:0.4809 47:0 48:0 49:0 
-1 0:0 1:0 2:0 3:0.0665 4:0.0665 5:0.0665 6:0.0665 7:0.1443 8:0.1443 9:0.1443 10:0.1682 11:0.1682 12:0.1682 13:0.5348 14:0.5348 15:0.5348 16:0.5348 17:0.5556 18:0.5556 19:0.5556 20:0.7767 21:0.7767 22:0.7767 23:0.757 24:0.757 25:0.757 26:0.757 27:0.6189 28:0.6189 29:0.6189 30:0.7518 31:0.7518 32:0.7518 33:0.6739 34:0.6739 35:0.6739 36:0.6739 37:0.7549 38:0.7549 39:0.7549 40:0.5524 41:0.5524 42:0.5524 43:0.4444 44:0.4444 45:0.4444 46:0.4444 47:0 48:0 49:0 
-1 0:0 1:0 2:0 3:0.0137 4:0.0137 5:0.0137 6:0.0274 7:0.0274 8:0.0274 9:0.4612 10:0.4612 11:0.4612 12:0.4703 13:0.4703 14:0.4703 15:0.774 16:0.774 17:0.774 18:0.7032 19:0.7032 20:0.7032 21:0.5365 22:0.5365 23:0.5365 24:0.7626 25:0.7626 26:0.7055 27:0.7055 28:0.7055 29:0.7968 30:0.7968 31:0.7968 32:0.5525 33:0.5525 34:0.5525 35:0.4909 36:0.4909 37:0.4909 38:0.0274 39:0.0274 40:0.0274 41:0.0274 42:0.0274 43:0.0274 44:0.0137 45:0.0137 46:0.0137 47:0 48:0 49:0 
-1 0:0 1:0 2:0 3:0.0214 4:0.0214 5:0.0214 6:0.061 7:0.061 8:0.0792 9:0.0792 10:0.0792 11:0.479 12:0.479 13:0.479 14:0.5527 15:0.5527 16:0.5527 17:0.7751 18:0.7751 19:0.7403 20:0.7403 21:0.7403 22:0.6255 23:0.6255 24:0.6255 25:0.7284 26:0.7284 27:0.7284 28:0.677 29:0.677 30:0.677 31:0.7482 32:0.7482 33:0.555 34:0.555 35:0.555 36:0.4568 37:0.4568 38:0.4568 39:0.0372 40:0.0372 41:0.0372 42:0.0372 43:0.0372 44:0.023 45:0.023 46:0.023 47:0 48:0 49:0 
-1 0:0 1:0 2:0 3:0.0577 4:0.0577 5:0.0577 6:0.0577 7:0.1255 8:0.1255 9:0.1255 10:0.1538 11:0.1538 12:0.1538 13:0.5334 14:0.5334 15:0.5334 16:0.5334 17:0.5675 18:0.5675 19:0.5675 20:0.7875 21:0.7875 22:0.7875 23:0.7779 24:0.7779 25:0.7779 26:0.7779 27:0.638 28:0.638 29:0.638 30:0.7517 31:0.7517 32:0.7517 33:0.6829 34:0.6829 35:0.6829 36:0.6829 37:0.7603 38:0.7603 39:0.7603 40:0.5659 41:0.5659 42:0.5659 43:0.4522 44:0.4522 45:0.4522 46:0.4522 47:0 48:0 49:0 
-1 0:0 1:0 2:0 3:0.0666 4:0.0666 5:0.0666 6:0.0666 7:0.1588 8:0.1588 9:0.1588 10:0.1825 11:0.1825 12:0.1825 13:0.5046 14:0.5046 15:0.5046 16:0.5046 17:0.5849 18:0.5849 19:0.5849 20:0.8175 21:0.8175 22:0.8175 23:0.7673 24:0.7673 25:0.7673 26:0.7673 27:0.6323 28:0.6323 29:0.6323 30:0.7728 31:0.7728 32:0.7728 33:0.7217 34:0.7217 35:0.7217 36:0.7217 37:0.7892 38:0.7892 39:0.7892 40:0.6442 41:0.6442 42:0.6442 43:0.4398 44:0.4398 45:0.4398 46:0.4398 47:0 48:0 49:0 
-1 0:0 1:0 2:0 3:0.0646 4:0.0646 5:0.0646 6:0.0646 7:0.1255 8:0.1255 9:0.1255 10:0.1635 11:0.1635 12:0.1635 13:0.5741 14:0.5741 15:0.5741 16:0.5741 17:0.6046 18:0.6046 19:0.6046 20:0.8061 21:0.8061 22:0.8061 23:0.7376 24:0.7376 25:0.7376 26:0.7376 27:0.5665 28:0.5665 29:0.5665 30:0.7757 31:0.7757 32:0.7757 33:0.6502 34:0.6502 35:0.6502 36:0.6502 37:0.749 38:0.749 39:0.749 40:0.635 41:0.635 42:0.635 43:0.4487 44:0.4487 45:0.4487 46:0.4487 47:0 48:0 49:0 
-1 0:0 1:0 2:0 3:0.0317 4:0.0317 5:0.0317 6:0.064 7:0.064 8:0.0756 9:0.0756 10:0.0756 11:0.4881 12:0.4881 13:0.4881 14:0.574 15:0.574 16:0.574 17:0.7922 18:0.7922 19:0.7581 20:0.7581 21:0.7581 22:0.6435 23:0.6435 24:0.6435 25:0.7246 26:0.7246 27:0.7246 28:0.6722 29:0.6722 30:0.6722 31:0.7343 32:0.7343 33:0.5436 34:0.5436 35:0.5436 36:0.4546 37:0.4546 38:0.4546 39:0.0786 40:0.0786 41:0.0786 42:0.0731 43:0.0731 44:0.0494 45:0.0494 46:0.0494 47:0 48:0 49:0 
-1 0:0 1:0 2:0 3:0.5371 4:0.5371 5:0.5371 6:0.5371 7:0.6643 8:0.6643 9:0.6643 10:0.8657 11:0.8657 12:0.8657 13:0.7739 14:0.7739 15:0.7739 16:0.7739 17:0.6996 18:0.6996 19:0.6996 20:0.7633 21:0.7633 22:0.7633 23:0.7032 24:0.7032 25:0.7032 26:0.7032 27:0.7385 28:0.7385 29:0.7385 30:0.6784 31:0.6784 32:0.6784 33:0.4134 34:0.4134 35:0.4134 36:0.4134 37:0.0601 38:0.0601 39:0.0601 40:0.0601 41:0.0601 42:0.0601 43:0.0459 44:0.0459 45:0.0459 46:0.0459 47:0 48:0 49:0 
-1 0:0 1:0 2:0 3:0.4319 4:0.4319 5:0.4319 6:0.4319 7:0.6103 8:0.6103 9:0.6103 10:0.8216 11:0.8216 12:0.8216 13:0.8826 14:0.8826 15:0.8826 16:0.8826 17:0.6526 18:0.6526 19:0.6526 20:0.7653 21:0.7653 22:0.7653 23:0.5915 24:0.5915 25:0.5915 26:0.5915 27:0.7418 28:0.7418 29:0.7418 30:0.5305 31:0.5305 32:0.5305 33:0.507 34:0.507 35:0.507 36:0.507 37:0.1455 38:0.1455 39:0.1455 40:0.1408 41:0.1408 42:0.1408 43:0.0892 44:0.0892 45:0.0892 46:0.0892 47:0 48:0 49:0 
-1 0:0 1:0 2:0 3:0.0569 4:0.0569 5:0.0569 6:0.0569 7:0.1199 8:0.1199 9:0.1199 10:0.1295 11:0.1295 12:0.1295 13:0.4927 14:0.4927 15:0.4927 16:0.4927 17:0.5847 18:0.5847 19:0.5847 20:0.8087 21:0.8087 22:0.8087 23:0.7918 24:0.7918 25:0.7918 26:0.7918 27:0.6344 28:0.6344 29:0.6344 30:0.7857 31:0.7857 32:0.7857 33:0.7155 34:0.7155 35:0.7155 36:0.7155 37:0.7809 38:0.7809 39:0.7809 40:0.5847 41:0.5847 42:0.5847 43:0.4552 44:0.4552 45:0.4552 46:0.4552 47:0 48:0 49:0 
-0.6622303240417658 0:0 1:0 2:0 3:0.0174 4:0.0174 5:0.0174 6:0.0494 7:0.0494 8:0.064 9:0.064 10:0.064 11:0.4884 12:0.4884 13:0.4884 14:0.5087 15:0.5087 16:0.5087 17:0.7703 18:0.7703 19:0.7529 20:0.7529 21:0.7529 22:0.564 23:0.564 24:0.564 25:0.782 26:0.782 27:0.782 28:0.6744 29:0.6744 30:0.6744 31:0.7733 32:0.7733 33:0.5727 34:0.5727 35:0.5727 36:0.4797 37:0.4797 38:0.4797 39:0.0552 40:0.0552 41:0.0552 42:0.032 43:0.032 44:0.032 45:0.032 46:0.032 47:0 48:0 49:0 
-1 0:0 1:0 2:0 3:0.0422 4:0.0422 5:0.0422 6:0.0422 7:0.0783 8:0.0783 9:0.0783 10:0.0783 11:0.0783 12:0.0783 13:0.4157 14:0.4157 15:0.4157 16:0.4157 17:0.5783 18:0.5783 19:0.5783 20:0.8072 21:0.8072 22:0.8072 23:0.741 24:0.741 25:0.741 26:0.741 27:0.5843 28:0.5843 29:0.5843 30:0.7651 31:0.7651 32:0.7651 33:0.6807 34:0.6807 35:0.6807 36:0.6807 37:0.7952 38:0.7952 39:0.7952 40:0.6084 41:0.6084 42:0.6084 43:0.4759 44:0.4759 45:0.4759 46:0.4759 47:0 48:0 49:0 
-1 0:0 1:0 2:0 3:0.0432 4:0.0432 5:0.0432 6:0.0432 7:0.1172 8:0.1172 9:0.1172 10:0.143 11:0.143 12:0.143 13:0.5216 14:0.5216 15:0.5216 16:0.5216 17:0.5878 18:0.5878 19:0.5878 20:0.7975 21:0.7975 22:0.7975 23:0.7639 24:0.7639 25:0.7639 26:0.7639 27:0.6669 28:0.6669 29:0.6669 30:0.7459 31:0.7459 32:0.7459 33:0.6966 34:0.6966 35:0.6966 36:0.6966 37:0.7583 38:0.7583 39:0.7583 40:0.6102 41:0.6102 42:0.6102 43:0.4347 44:0.4347 45:0.4347 46:0.4347 47:0 48:0 49:0 
-1 0:0 1:0 2:0 3:0.0421 4:0.0421 5:0.0421 6:0.0421 7:0.1158 8:0.1158 9:0.1158 10:0.1421 11:0.1421 12:0.1421 13:0.4829 14:0.4829 15:0.4829 16:0.4829 17:0.5434 18:0.5434 19:0.5434 20:0.8039 21:0.8039 22:0.8039 23:0.7434 24:0.7434 25:0.7434 26:0.7434 27:0.6211 28:0.6211 29:0.6211 30:0.7303 31:0.7303 32:0.7303 33:0.725 34:0.725 35:0.725 36:0.725 37:0.7947 38:0.7947 39:0.7947 40:0.5829 41:0.5829 42:0.5829 43:0.4421 44:0.4421 45:0.4421 46:0.4421 47:0 48:0 49:0 
-1 0:0 1:0 2:0 3:0.0149 4:0.0149 5:0.0149 6:0.0508 7:0.0508 8:0.0673 9:0.0673 10:0.0673 11:0.4873 12:0.4873 13:0.4873 14:0.5635 15:0.5635 16:0.5635 17:0.7907 18:0.7907 19:0.7728 20:0.7728 21:0.7728 22:0.6323 23:0.6323 24:0.6323 25:0.725 26:0.725 27:0.725 28:0.6472 29:0.6472 30:0.6472 31:0.7309 32:0.7309 33:0.5187 34:0.5187 35:0.5187 36:0.4484 37:0.4484 38:0.4484 39:0.0613 40:0.0613 41:0.0613 42:0.0493 43:0.0493 44:0.0314 45:0.0314 46:0.0314 47:0 48:0 49:0 
-1 0:0 1:0 2:0 3:0.0638 4:0.0638 5:0.0638 6:0.0962 7:0.0962 8:0.1157 9:0.1157 10:0.1157 11:0.48 12:0.48 13:0.48 14:0.5524 15:0.5524 16:0.5524 17:0.7924 18:0.7924 19:0.72 20:0.72 21:0.72 22:0.613 23:0.613 24:0.613 25:0.7146 26:0.7146 27:0.7146 28:0.6768 29:0.6768 30:0.6768 31:0.7405 32:0.7405 33:0.5892 34:0.5892 35:0.5892 36:0.4259 37:0.4259 38:0.4259 39:0.027 40:0.027 41:0.027 42:0.027 43:0.027 44:0.0184 45:0.0184 46:0.0184 47:0 48:0 49:0 
-1 0:0 1:0 2:0 3:0.1155 4:0.1155 5:0.1155 6:0.1155 7:0.2207 8:0.2207 9:0.2207 10:0.2379 11:0.2379 12:0.2379 13:0.5379 14:0.5379 15:0.5379 16:0.5379 17:0.5569 18:0.5569 19:0.5569 20:0.7931 21:0.7931 22:0.7931 23:0.7552 24:0.7552 25:0.7552 26:0.7552 27:0.6241 28:0.6241 29:0.6241 30:0.7379 31:0.7379 32:0.7379 33:0.6879 34:0.6879 35:0.6879 36:0.6879 37:0.7569 38:0.7569 39:0.7569 40:0.581 41:0.581 42:0.581 43:0.4276 44:0.4276 45:0.4276 46:0.4276 47:0 48:0 49:0 
-1 0:0 1:0 2:0 3:0.0375 4:0.0375 5:0.0375 6:0.1054 7:0.1054 8:0.1288 9:0.1288 10:0.1288 11:0.466 12:0.466 13:0.466 14:0.5644 15:0.5644 16:0.5644 17:0.7681 18:0.7681 19:0.7354 20:0.7354 21:0.7354 22:0.6089 23:0.6089 24:0.6089 25:0.7237 26:0.7237 27:0.7237 28:0.6487 29:0.6487 30:0.6487 31:0.7354 32:0.7354 33:0.534 34:0.534 35:0.534 36:0.4379 37:0.4379 38:0.4379 39:0.0585 40:0.0585 41:0.0585 42:0.0539 43:0.0539 44:0.0304 45:0.0304 46:0.0304 47:0 48:0 49:0 
-1 0:0 1:0 2:0 3:0.0435 4:0.0435 5:0.0435 6:0.0797 7:0.0797 8:0.0797 9:0.0797 10:0.0797 11:0.4493 12:0.4493 13:0.4493 14:0.6014 15:0.6014 16:0.6014 17:0.7826 18:0.7826 19:0.7609 20:0.7609 21:0.7609 22:0.6594 23:0.6594 24:0.6594 25:0.7391 26:0.7391 27:0.7391 28:0.6594 29:0.6594 30:0.6594 31:0.7101 32:0.7101 33:0.5217 34:0.5217 35:0.5217 36:0.4493 37:0.4493 38:0.4493 39:0.1377 40:0.1377 41:0.1377 42:0.087 43:0.087 44:0.0797 45:0.0797 46:0.0797 47:0 48:0 49:0 
-1 0:0 1:0 2:0 3:0.0885 4:0.0885 5:0.0885 6:0.1836 7:0.1836 8:0.2323 9:0.2323 10:0.2323 11:0.5044 12:0.5044 13:0.5044 14:0.5177 15:0.5177 16:0.5177 17:0.7765 18:0.7765 19:0.75 20:0.75 21:0.75 22:0.6394 23:0.6394 24:0.6394 25:0.7013 26:0.7013 27:0.7013 28:0.6438 29:0.6438 30:0.6438 31:0.7345 32:0.7345 33:0.5332 34:0.5332 35:0.5332 36:0.4447 37:0.4447 38:0.4447 39:0.0288 40:0.0288 41:0.0288 42:0.0288 43:0.0288 44:0.0243 45:0.0243 46:0.0243 47:0 48:0 49:0 
-1 0:0 1:0 2:0 3:0.0417 4:0.0417 5:0.0417 6:0.088 7:0.088 8:0.0935 9:0.0935 10:0.0935 11:0.4898 12:0.4898 13:0.4898 14:0.5667 15:0.5667 16:0.5667 17:0.7676 18:0.7676 19:0.7574 20:0.7574 21:0.7574 22:0.6046 23:0.6046 24:0.6046 25:0.7435 26:0.7435 27:0.7435 28:0.6565 29:0.6565 30:0.6565 31:0.737 32:0.737 33:0.5537 34:0.5537 35:0.5537 36:0.4528 37:0.4528 38:0.4528 39:0.0528 40:0.0528 41:0.0528 42:0.0435 43:0.0435 44:0.0315 45:0.0315 46:0.0315 47:0 48:0 49:0 
-1 0:0 1:0 2:0 3:0.0677 4:0.0677 5:0.0677 6:0.0677 7:0.1476 8:0.1476 9:0.1476 10:0.1615 11:0.1615 12:0.1615 13:0.5417 14:0.5417 15:0.5417 16:0.5417 17:0.6302 18:0.6302 19:0.6302 20:0.8247 21:0.8247 22:0.8247 23:0.7691 24:0.7691 25:0.7691 26:0.7691 27:0.6667 28:0.6667 29:0.6667 30:0.7326 31:0.7326 32:0.7326 33:0.6823 34:0.6823 35:0.6823 36:0.6823 37:0.7917 38:0.7917 39:0.7917 40:0.6163 41:0.6163 42:0.6163 43:0.4844 44:0.4844 45:0.4844 46:0.4844 47:0 48:0 49:0 
-1 0:0 1:0 2:0 3:0.0264 4:0.0264 5:0.0264 6:0.0264 7:0.0887 8:0.0887 9:0.0887 10:0.1226 11:0.1226 12:0.1226 13:0.5 14:0.5 15:0.5 16:0.5 17:0.5849 18:0.5849 19:0.5849 20:0.8019 21:0.8019 22:0.8019 23:0.7547 24:0.7547 25:0.7547 26:0.7547 27:0.6 28:0.6 29:0.6 30:0.7358 31:0.7358 32:0.7358 33:0.6434 34:0.6434 35:0.6434 36:0.6434 37:0.7717 38:0.7717 39:0.7717 40:0.5887 41:0.5887 42:0.5887 43:0.4491 44:0.4491 45:0.4491 46:0.4491 47:0 48:0 49:0 
-1 0:0 1:0 2:0 3:0.0289 4:0.0289 5:0.0289 6:0.0289 7:0.078 8:0.078 9:0.078 10:0.1243 11:0.1243 12:0.1243 13:0.5289 14:0.5289 15:0.5289 16:0.5289 17:0.5462 18:0.5462 19:0.5462 20:0.7803 21:0.7803 22:0.7803 23:0.7225 24:0.7225 25:0.7225 26:0.7225 27:0.5751 28:0.5751 29:0.5751 30:0.711 31:0.711 32:0.711 33:0.6503 34:0.6503 35:0.6503 36:0.6503 37:0.7486 38:0.7486 39:0.7486 40:0.5231 41:0.5231 42:0.5231 43:0.4538 44:0.4538 45:0.4538 46:0.4538 47:0 48:0 49:0 
-1 0:0 1:0 2:0 3:0.0803 4:0.0803 5:0.0803 6:0.0803 7:0.1684 8:0.1684 9:0.1684 10:0.2124 11:0.2124 12:0.2124 13:0.557 14:0.557 15:0.557 16:0.557 17:0.513 18:0.513 19:0.513 20:0.8031 21:0.8031 22:0.8031 23:0.7409 24:0.7409 25:0.7409 26:0.7409 27:0.6347 28:0.6347 29:0.6347 30:0.7409 31:0.7409 32:0.7409 33:0.6736 34:0.6736 35:0.6736 36:0.6736 37:0.7824 38:0.7824 39:0.7824 40:0.5855 41:0.5855 42:0.5855 43:0.456 44:0.456 45:0.456 46:0.456 47:0 48:0 49:0 
-1 0:0 1:0 2:0 3:0.025 4:0.025 5:0.025 6:0.025 7:0.0583 8:0.0583 9:0.0583 10:0.0583 11:0.0583 12:0.0583 13:0.4458 14:0.4458 15:0.4458 16:0.4458 17:0.5833 18:0.5833 19:0.5833 20:0.8333 21:0.8333 22:0.8333 23:0.7625 24:0.7625 25:0.7625 26:0.7625 27:0.7167 28:0.7167 29:0.7167 30:0.7667 31:0.7667 32:0.7667 33:0.7833 34:0.7833 35:0.7833 36:0.7833 37:0.7792 38:0.7792 39:0.7792 40:0.6083 41:0.6083 42:0.6083 43:0.4125 44:0.4125 45:0.4125 46:0.4125 47:0 48:0 49:0 
-1 0:0 1:0 2:0 3:0.0299 4:0.0299 5:0.0299 6:0.0299 7:0.0506 8:0.0506 9:0.0506 10:0.0571 11:0.0571 12:0.0571 13:0.5117 14:0.5117 15:0.5117 16:0.5117 17:0.5649 18:0.5649 19:0.5649 20:0.787 21:0.787 22:0.787 23:0.7403 24:0.7403 25:0.7403 26:0.7403 27:0.6455 28:0.6455 29:0.6455 30:0.7208 31:0.7208 32:0.7208 33:0.6857 34:0.6857 35:0.6857 36:0.6857 37:0.7545 38:0.7545 39:0.7545 40:0.5675 41:0.5675 42:0.5675 43:0.4312 44:0.4312 45:0.4312 46:0.4312 47:0 48:0 49:0 
-0.4306377790179837 0:0 1:0 2:0 3:0.0408 4:0.0408 5:0.0408 6:0.0408 7:0.0758 8:0.0758 9:0.0758 10:0.0758 11:0.0758 12:0.0758 13:0.4927 14:0.4927 15:0.4927 16:0.4927 17:0.5773 18:0.5773 19:0.5773 20:0.8426 21:0.8426 22:0.8426 23:0.7784 24:0.7784 25:0.7784 26:0.7784 27:0.6997 28:0.6997 29:0.6997 30:0.7405 31:0.7405 32:0.7405 33:0.7318 34:0.7318 35:0.7318 36:0.7318 37:0.7988 38:0.7988 39:0.7988 40:0.5831 41:0.5831 42:0.5831 43:0.4286 44:0.4286 45:0.4286 46:0.4286 47:0 48:0 49:0 
-1 0:0 1:0 2:0 3:0.06 4:0.06 5:0.06 6:0.06 7:0.1125 8:0.1125 9:0.1125 10:0.14 11:0.14 12:0.14 13:0.5325 14:0.5325 15:0.5325 16:0.5325 17:0.59 18:0.59 19:0.59 20:0.785 21:0.785 22:0.785 23:0.735 24:0.735 25:0.735 26:0.735 27:0.595 28:0.595 29:0.595 30:0.735 31:0.735 32:0.735 33:0.6275 34:0.6275 35:0.6275 36:0.6275 37:0.7175 38:0.7175 39:0.7175 40:0.5225 41:0.5225 42:0.5225 43:0.39 44:0.39 45:0.39 46:0.39 47:0 48:0 49:0 
-1 0:0 1:0 2:0 3:0.048 4:0.048 5:0.048 6:0.048 7:0.1063 8:0.1063 9:0.1063 10:0.1279 11:0.1279 12:0.1279 13:0.5202 14:0.5202 15:0.5202 16:0.5202 17:0.5795 18:0.5795 19:0.5795 20:0.7959 21:0.7959 22:0.7959 23:0.7404 24:0.7404 25:0.7404 26:0.7404 27:0.6105 28:0.6105 29:0.6105 30:0.746 31:0.746 32:0.746 33:0.6886 34:0.6886 35:0.6886 36:0.6886 37:0.7817 38:0.7817 39:0.7817 40:0.604 41:0.604 42:0.604 43:0.4666 44:0.4666 45:0.4666 46:0.4666 47:0 48:0 49:0 
-1 0:0 1:0 2:0 3:0.0197 4:0.0197 5:0.0197 6:0.0197 7:0.0727 8:0.0727 9:0.0727 10:0.1 11:0.1 12:0.1 13:0.5379 14:0.5379 15:0.5379 16:0.5379 17:0.5939 18:0.5939 19:0.5939 20:0.7818 21:0.7818 22:0.7818 23:0.7242 24:0.7242 25:0.7242 26:0.7242 27:0.6576 28:0.6576 29:0.6576 30:0.7318 31:0.7318 32:0.7318 33:0.7212 34:0.7212 35:0.7212 36:0.7212 37:0.7667 38:0.7667 39:0.7667 40:0.5864 41:0.5864 42:0.5864 43:0.45 44:0.45 45:0.45 46:0.45 47:0 48:0 49:0 
-1 0:0 1:0 2:0 3:0.0523 4:0.0523 5:0.0523 6:0.0523 7:0.118 8:0.118 9:0.118 10:0.126 11:0.126 12:0.126 13:0.5094 14:0.5094 15:0.5094 16:0.5094 17:0.5576 18:0.5576 19:0.5576 20:0.7936 21:0.7936 22:0.7936 23:0.7855 24:0.7855 25:0.7855 26:0.7855 27:0.6408 28:0.6408 29:0.6408 30:0.7534 31:0.7534 32:0.7534 33:0.6836 34:0.6836 35:0.6836 36:0.6836 37:0.7775 38:0.7775 39:0.7775 40:0.5643 41:0.5643 42:0.5643 43:0.4517 44:0.4517 45:0.4517 46:0.4517 47:0 48:0 49:0 
-1 0:0 1:0 2:0 3:0.4819 4:0.4819 5:0.4819 6:0.4819 7:0.6477 8:0.6477 9:0.6477 10:0.8135 11:0.8135 12:0.8135 13:0.7254 14:0.7254 15:0.7254 16:0.7254 17:0.6114 18:0.6114 19:0.6114 20:0.7047 21:0.7047 22:0.7047 23:0.6218 24:0.6218 25:0.6218 26:0.6218 27:0.6736 28:0.6736 29:0.6736 30:0.5751 31:0.5751 32:0.5751 33:0.3938 34:0.3938 35:0.3938 36:0.3938 37:0.0881 38:0.0881 39:0.0881 40:0.0829 41:0.0829 42:0.0829 43:0.0674 44:0.0674 45:0.0674 46:0.0674 47:0 48:0 49:0 
-1 0:0 1:0 2:0 3:0.0637 4:0.0637 5:0.0637 6:0.0637 7:0.1506 8:0.1506 9:0.1506 10:0.175 11:0.175 12:0.175 13:0.5365 14:0.5365 15:0.5365 16:0.5365 17:0.5446 18:0.5446 19:0.5446 20:0.8019 21:0.8019 22:0.8019 23:0.7625 24:0.7625 25:0.7625 26:0.7625 27:0.6141 28:0.6141 29:0.6141 30:0.7601 31:0.7601 32:0.7601 33:0.7196 34:0.7196 35:0.7196 36:0.7196 37:0.7972 38:0.7972 39:0.7972 40:0.591 41:0.591 42:0.591 43:0.4519 44:0.4519 45:0.4519 46:0.4519 47:0 48:0 49:0 
-1 0:0 1:0 2:0 3:0.5175 4:0.5175 5:0.5175 6:0.5175 7:0.7028 8:0.7028 9:0.7028 10:0.8287 11:0.8287 12:0.8287 13:0.7692 14:0.7692 15:0.7692 16:0.7692 17:0.7133 18:0.7133 19:0.7133 20:0.7587 21:0.7587 22:0.7587 23:0.7098 24:0.7098 25:0.7098 26:0.7098 27:0.7692 28:0.7692 29:0.7692 30:0.6608 31:0.6608 32:0.6608 33:0.486 34:0.486 35:0.486 36:0.486 37:0.0804 38:0.0804 39:0.0804 40:0.049 41:0.049 42:0.049 43:0.049 44:0.049 45:0.049 46:0.049 47:0 48:0 49:0 
-1 0:0 1:0 2:0 3:0.054 4:0.054 5:0.054 6:0.054 7:0.149 8:0.149 9:0.149 10:0.1749 11:0.1749 12:0.1749 13:0.4665 14:0.4665 15:0.4665 16:0.4665 17:0.5032 18:0.5032 19:0.5032 20:0.7905 21:0.7905 22:0.7905 23:0.7624 24:0.7624 25:0.7624 26:0.7624 27:0.6328 28:0.6328 29:0.6328 30:0.7516 31:0.7516 32:0.7516 33:0.7149 34:0.7149 35:0.7149 36:0.7149 37:0.7797 38:0.7797 39:0.7797 40:0.5616 41:0.5616 42:0.5616 43:0.4557 44:0.4557 45:0.4557 46:0.4557 47:0 48:0 49:0 
-1 0:0 1:0 2:0 3:0.0752 4:0.0752 5:0.0752 6:0.0752 7:0.0929 8:0.0929 9:0.0929 10:0.1327 11:0.1327 12:0.1327 13:0.5044 14:0.5044 15:0.5044 16:0.5044 17:0.5841 18:0.5841 19:0.5841 20:0.8274 21:0.8274 22:0.8274 23:0.7566 24:0.7566 25:0.7566 26:0.7566 27:0.6726 28:0.6726 29:0.6726 30:0.7301 31:0.7301 32:0.7301 33:0.6814 34:0.6814 35:0.6814 36:0.6814 37:0.7478 38:0.7478 39:0.7478 40:0.5973 41:0.5973 42:0.5973 43:0.4027 44:0.4027 45:0.4027 46:0.4027 47:0 48:0 49:0 
-1 0:0 1:0 2:0 3:0.0523 4:0.0523 5:0.0523 6:0.1138 7:0.1138 8:0.1251 9:0.1251 10:0.1251 11:0.5015 12:0.5015 13:0.5015 14:0.5477 15:0.5477 16:0.5477 17:0.7785 18:0.7785 19:0.7179 20:0.7179 21:0.7179 22:0.6185 23:0.6185 24:0.6185 25:0.7169 26:0.7169 27:0.7169 28:0.6779 29:0.6779 30:0.6779 31:0.7456 32:0.7456 33:0.5908 34:0.5908 35:0.5908 36:0.4605 37:0.4605 38:0.4605 39:0.0851 40:0.0851 41:0.0851 42:0.0605 43:0.0605 44:0.0513 45:0.0513 46:0.0513 47:0 48:0 49:0 
-1 0:0 1:0 2:0 3:0.0457 4:0.0457 5:0.0457 6:0.0457 7:0.0963 8:0.0963 9:0.0963 10:0.1147 11:0.1147 12:0.1147 13:0.4783 14:0.4783 15:0.4783 16:0.4783 17:0.5612 18:0.5612 19:0.5612 20:0.8062 21:0.8062 22:0.8062 23:0.7572 24:0.7572 25:0.7572 26:0.7572 27:0.6331 28:0.6331 29:0.6331 30:0.7517 31:0.7517 32:0.7517 33:0.6949 34:0.6949 35:0.6949 36:0.6949 37:0.7656 38:0.7656 39:0.7656 40:0.5885 41:0.5885 42:0.5885 43:0.4332 44:0.4332 45:0.4332 46:0.4332 47:0 48:0 49:0 
-1 0:0 1:0 2:0 3:0.0768 4:0.0768 5:0.0768 6:0.0768 7:0.1331 8:0.1331 9:0.1331 10:0.1621 11:0.1621 12:0.1621 13:0.4898 14:0.4898 15:0.4898 16:0.4898 17:0.5614 18:0.5614 19:0.5614 20:0.8123 21:0.8123 22:0.8123 23:0.773 24:0.773 25:0.773 26:0.773 27:0.6451 28:0.6451 29:0.6451 30:0.7747 31:0.7747 32:0.7747 33:0.7116 34:0.7116 35:0.7116 36:0.7116 37:0.7884 38:0.7884 39:0.7884 40:0.6126 41:0.6126 42:0.6126 43:0.4505 44:0.4505 45:0.4505 46:0.4505 47:0 48:0 49:0 
-1 0:0 1:0 2:0 3:0.5093 4:0.5093 5:0.5093 6:0.5093 7:0.5466 8:0.5466 9:0.5466 10:0.8209 11:0.8209 12:0.8209 13:0.7724 14:0.7724 15:0.7724 16:0.7724 17:0.6791 18:0.6791 19:0.6791 20:0.7985 21:0.7985 22:0.7985 23:0.7817 24:0.7817 25:0.7817 26:0.7817 27:0.7966 28:0.7966 29:0.7966 30:0.5989 31:0.5989 32:0.5989 33:0.4664 34:0.4664 35:0.4664 36:0.4664 37:0.0429 38:0.0429 39:0.0429 40:0.0261 41:0.0261 42:0.0261 43:0.0261 44:0.0261 45:0.0261 46:0.0261 47:0 48:0 49:0 
-1 0:0 1:0 2:0 3:0.0694 4:0.0694 5:0.0694 6:0.0694 7:0.1256 8:0.1256 9:0.1256 10:0.1447 11:0.1447 12:0.1447 13:0.5012 14:0.5012 15:0.5012 16:0.5012 17:0.5586 18:0.5586 19:0.5586 20:0.8014 21:0.8014 22:0.8014 23:0.7572 24:0.7572 25:0.7572 26:0.7572 27:0.6507 28:0.6507 29:0.6507 30:0.7536 31:0.7536 32:0.7536 33:0.7189 34:0.7189 35:0.7189 36:0.7189 37:0.7727 38:0.7727 39:0.7727 40:0.6077 41:0.6077 42:0.6077 43:0.433 44:0.433 45:0.433 46:0.433 47:0 48:0 49:0 
-1 0:0 1:0 2:0 3:0.1602 4:0.1602 5:0.1602 6:0.1602 7:0.332 8:0.332 9:0.332 10:0.3633 11:0.3633 12:0.3633 13:0.4609 14:0.4609 15:0.4609 16:0.4609 17:0.6406 18:0.6406 19:0.6406 20:0.7969 21:0.7969 22:0.7969 23:0.7305 24:0.7305 25:0.7305 26:0.7305 27:0.5938 28:0.5938 29:0.5938 30:0.7461 31:0.7461 32:0.7461 33:0.6992 34:0.6992 35:0.6992 36:0.6992 37:0.7852 38:0.7852 39:0.7852 40:0.6367 41:0.6367 42:0.6367 43:0.4375 44:0.4375 45:0.4375 46:0.4375 47:0 48:0 49:0 
-1 0:0 1:0 2:0 3:0.0583 4:0.0583 5:0.0583 6:0.0583 7:0.1341 8:0.1341 9:0.1341 10:0.1574 11:0.1574 12:0.1574 13:0.5335 14:0.5335 15:0.5335 16:0.5335 17:0.5948 18:0.5948 19:0.5948 20:0.8017 21:0.8017 22:0.8017 23:0.7668 24:0.7668 25:0.7668 26:0.7668 27:0.6822 28:0.6822 29:0.6822 30:0.7172 31:0.7172 32:0.7172 33:0.7172 34:0.7172 35:0.7172 36:0.7172 37:0.7843 38:0.7843 39:0.7843 40:0.5627 41:0.5627 42:0.5627 43:0.4723 44:0.4723 45:0.4723 46:0.4723 47:0 48:0 49:0 
-1 0:0 1:0 2:0 3:0.0755 4:0.0755 5:0.0755 6:0.0755 7:0.1312 8:0.1312 9:0.1312 10:0.1352 11:0.1352 12:0.1352 13:0.5129 14:0.5129 15:0.5129 16:0.5129 17:0.5964 18:0.5964 19:0.5964 20:0.8012 21:0.8012 22:0.8012 23:0.7932 24:0.7932 25:0.7932 26:0.7932 27:0.6382 28:0.6382 29:0.6382 30:0.7793 31:0.7793 32:0.7793 33:0.674 34:0.674 35:0.674 36:0.674 37:0.7734 38:0.7734 39:0.7734 40:0.5865 41:0.5865 42:0.5865 43:0.4533 44:0.4533 45:0.4533 46:0.4533 47:0 48:0 49:0 
-1 0:0 1:0 2:0 3:0.0297 4:0.0297 5:0.0297 6:0.0297 7:0.0551 8:0.0551 9:0.0551 10:0.0551 11:0.0551 12:0.0551 13:0.4746 14:0.4746 15:0.4746 16:0.4746 17:0.5466 18:0.5466 19:0.5466 20:0.8263 21:0.8263 22:0.8263 23:0.7669 24:0.7669 25:0.7669 26:0.7669 27:0.6441 28:0.6441 29:0.6441 30:0.7415 31:0.7415 32:0.7415 33:0.7076 34:0.7076 35:0.7076 36:0.7076 37:0.7797 38:0.7797 39:0.7797 40:0.5805 41:0.5805 42:0.5805 43:0.4364 44:0.4364 45:0.4364 46:0.4364 47:0 48:0 49:0 
-1 0:0 1:0 2:0 3:0.054 4:0.054 5:0.054 6:0.054 7:0.12 8:0.12 9:0.12 10:0.132 11:0.132 12:0.132 13:0.534 14:0.534 15:0.534 16:0.534 17:0.628 18:0.628 19:0.628 20:0.81 21:0.81 22:0.81 23:0.75 24:0.75 25:0.75 26:0.75 27:0.614 28:0.614 29:0.614 30:0.74 31:0.74 32:0.74 33:0.668 34:0.668 35:0.668 36:0.668 37:0.738 38:0.738 39:0.738 40:0.608 41:0.608 42:0.608 43:0.416 44:0.416 45:0.416 46:0.416 47:0 48:0 49:0 
-1 0:0 1:0 2:0 3:0 4:0.4813 5:0.4813 6:0.4813 7:0.4813 8:0.5134 9:0.5134 10:0.5134 11:0.5134 12:0.7968 13:0.7968 14:0.7968 15:0.7968 16:0.7968 17:0.7326 18:0.7326 19:0.7326 20:0.7326 21:0.5401 22:0.5401 23:0.5401 24:0.5401 25:0.7326 26:0.7326 27:0.7326 28:0.7326 29:0.6684 30:0.6684 31:0.6684 32:0.6684 33:0.7861 34:0.7861 35:0.7861 36:0.7861 37:0.5187 38:0.5187 39:0.5187 40:0.5187 41:0.5187 42:0.4652 43:0.4652 44:0.4652 45:0.4652 46:0 47:0 48:0 49:0 
-1 0:0 1:0 2:0 3:0.03 4:0.03 5:0.03 6:0.03 7:0.0815 8:0.0815 9:0.0815 10:0.1159 11:0.1159 12:0.1159 13:0.5451 14:0.5451 15:0.5451 16:0.5451 17:0.588 18:0.588 19:0.588 20:0.8197 21:0.8197 22:0.8197 23:0.8283 24:0.8283 25:0.8283 26:0.8283 27:0.6137 28:0.6137 29:0.6137 30:0.7597 31:0.7597 32:0.7597 33:0.6052 34:0.6052 35:0.6052 36:0.6052 37:0.7167 38:0.7167 39:0.7167 40:0.5107 41:0.5107 42:0.5107 43:0.4292 44:0.4292 45:0.4292 46:0.4292 47:0 48:0 49:0 
-1 0:0 1:0 2:0 3:0.0569 4:0.0569 5:0.0569 6:0.0569 7:0.1346 8:0.1346 9:0.1346 10:0.1569 11:0.1569 12:0.1569 13:0.4987 14:0.4987 15:0.4987 16:0.4987 17:0.5627 18:0.5627 19:0.5627 20:0.798 21:0.798 22:0.798 23:0.7516 24:0.7516 25:0.7516 26:0.7516 27:0.634 28:0.634 29:0.634 30:0.7556 31:0.7556 32:0.7556 33:0.7111 34:0.7111 35:0.7111 36:0.7111 37:0.7791 38:0.7791 39:0.7791 40:0.5941 41:0.5941 42:0.5941 43:0.451 44:0.451 45:0.451 46:0.451 47:0 48:0 49:0 
-1 0:0 1:0 2:0 3:0.0444 4:0.0444 5:0.0444 6:0.0444 7:0.1143 8:0.1143 9:0.1143 10:0.1348 11:0.1348 12:0.1348 13:0.5171 14:0.5171 15:0.5171 16:0.5171 17:0.5563 18:0.5563 19:0.5563 20:0.7782 21:0.7782 22:0.7782 23:0.7355 24:0.7355 25:0.7355 26:0.7355 27:0.6314 28:0.6314 29:0.6314 30:0.7201 31:0.7201 32:0.7201 33:0.6587 34:0.6587 35:0.6587 36:0.6587 37:0.7253 38:0.7253 39:0.7253 40:0.5444 41:0.5444 42:0.5444 43:0.4096 44:0.4096 45:0.4096 46:0.4096 47:0 48:0 49:0 
-1 0:0 1:0 2:0 3:0.0668 4:0.0668 5:0.0668 6:0.0668 7:0.1336 8:0.1336 9:0.1336 10:0.143 11:0.143 12:0.143 13:0.5158 14:0.5158 15:0.5158 16:0.5158 17:0.5815 18:0.5815 19:0.5815 20:0.8077 21:0.8077 22:0.8077 23:0.7808 24:0.7808 25:0.7808 26:0.7808 27:0.6694 28:0.6694 29:0.6694 30:0.7632 31:0.7632 32:0.7632 33:0.714 34:0.714 35:0.714 36:0.714 37:0.7937 38:0.7937 39:0.7937 40:0.6061 41:0.6061 42:0.6061 43:0.4596 44:0.4596 45:0.4596 46:0.4596 47:0 48:0 49:0 
-1 0:0 1:0 2:0 3:0.0476 4:0.0476 5:0.0476 6:0.0476 7:0.0969 8:0.0969 9:0.0969 10:0.1165 11:0.1165 12:0.1165 13:0.5179 14:0.5179 15:0.5179 16:0.5179 17:0.5748 18:0.5748 19:0.5748 20:0.8061 21:0.8061 22:0.8061 23:0.7696 24:0.7696 25:0.7696 26:0.7696 27:0.6301 28:0.6301 29:0.6301 30:0.7696 31:0.7696 32:0.7696 33:0.7134 34:0.7134 35:0.7134 36:0.7134 37:0.7866 38:0.7866 39:0.7866 40:0.6131 41:0.6131 42:0.6131 43:0.4583 44:0.4583 45:0.4583 46:0.4583 47:0 48:0 49:0 
-1 0:0 1:0 2:0 3:0.0978 4:0.0978 5:0.0978 6:0.0978 7:0.2217 8:0.2217 9:0.2217 10:0.2348 11:0.2348 12:0.2348 13:0.437 14:0.437 15:0.437 16:0.437 17:0.5848 18:0.5848 19:0.5848 20:0.8391 21:0.8391 22:0.8391 23:0.8348 24:0.8348 25:0.8348 26:0.8348 27:0.7043 28:0.7043 29:0.7043 30:0.7587 31:0.7587 32:0.7587 33:0.7087 34:0.7087 35:0.7087 36:0.7087 37:0.7696 38:0.7696 39:0.7696 40:0.5957 41:0.5957 42:0.5957 43:0.437 44:0.437 45:0.437 46:0.437 47:0 48:0 49:0 
-1 0:0 1:0 2:0 3:0.0279 4:0.0279 5:0.0279 6:0.0279 7:0.0824 8:0.0824 9:0.0824 10:0.1131 11:0.1131 12:0.1131 13:0.5237 14:0.5237 15:0.5237 16:0.5237 17:0.5656 18:0.5656 19:0.5656 20:0.7905 21:0.7905 22:0.7905 23:0.7388 24:0.7388 25:0.7388 26:0.7388 27:0.6355 28:0.6355 29:0.6355 30:0.7249 31:0.7249 32:0.7249 33:0.7137 34:0.7137 35:0.7137 36:0.7137 37:0.7807 38:0.7807 39:0.7807 40:0.5866 41:0.5866 42:0.5866 43:0.4637 44:0.4637 45:0.4637 46:0.4637 47:0 48:0 49:0 
-1 0:0 1:0 2:0 3:0.0529 4:0.0529 5:0.0529 6:0.1046 7:0.1046 8:0.1134 9:0.1134 10:0.1134 11:0.4681 12:0.4681 13:0.4681 14:0.5694 15:0.5694 16:0.5694 17:0.7907 18:0.7907 19:0.7863 20:0.7863 21:0.7863 22:0.62 23:0.62 24:0.62 25:0.7313 26:0.7313 27:0.7313 28:0.6256 29:0.6256 30:0.6256 31:0.7059 32:0.7059 33:0.5352 34:0.5352 35:0.5352 36:0.4229 37:0.4229 38:0.4229 39:0.0518 40:0.0518 41:0.0518 42:0.0385 43:0.0385 44:0.033 45:0.033 46:0.033 47:0 48:0 49:0 
-1 0:0 1:0 2:0 3:0.0719 4:0.0719 5:0.0719 6:0.0719 7:0.1375 8:0.1375 9:0.1375 10:0.1627 11:0.1627 12:0.1627 13:0.5359 14:0.5359 15:0.5359 16:0.5359 17:0.5675 18:0.5675 19:0.5675 20:0.7881 21:0.7881 22:0.7881 23:0.7604 24:0.7604 25:0.7604 26:0.7604 27:0.6557 28:0.6557 29:0.6557 30:0.7415 31:0.7415 32:0.7415 33:0.6822 34:0.6822 35:0.6822 36:0.6822 37:0.7604 38:0.7604 39:0.7604 40:0.5788 41:0.5788 42:0.5788 43:0.4477 44:0.4477 45:0.4477 46:0.4477 47:0 48:0 49:0 
-1 0:0 1:0 2:0 3:0.468 4:0.468 5:0.468 6:0.468 7:0.616 8:0.616 9:0.616 10:0.832 11:0.832 12:0.832 13:0.776 14:0.776 15:0.776 16:0.776 17:0.74 18:0.74 19:0.74 20:0.752 21:0.752 22:0.752 23:0.764 24:0.764 25:0.764 26:0.764 27:0.736 28:0.736 29:0.736 30:0.588 31:0.588 32:0.588 33:0.432 34:0.432 35:0.432 36:0.432 37:0.068 38:0.068 39:0.068 40:0.064 41:0.064 42:0.064 43:0.052 44:0.052 45:0.052 46:0.052 47:0 48:0 49:0 
-1 0:0 1:0 2:0 3:0.0783 4:0.0783 5:0.0783 6:0.0783 7:0.1627 8:0.1627 9:0.1627 10:0.1627 11:0.1627 12:0.1627 13:0.5241 14:0.5241 15:0.5241 16:0.5241 17:0.5301 18:0.5301 19:0.5301 20:0.7771 21:0.7771 22:0.7771 23:0.7831 24:0.7831 25:0.7831 26:0.7831 27:0.6627 28:0.6627 29:0.6627 30:0.741 31:0.741 32:0.741 33:0.6807 34:0.6807 35:0.6807 36:0.6807 37:0.7831 38:0.7831 39:0.7831 40:0.5301 41:0.5301 42:0.5301 43:0.4578 44:0.4578 45:0.4578 46:0.4578 47:0 48:0 49:0 
-1 0:0 1:0 2:0 3:0.1018 4:0.1018 5:0.1018 6:0.1018 7:0.1814 8:0.1814 9:0.1814 10:0.2566 11:0.2566 12:0.2566 13:0.4602 14:0.4602 15:0.4602 16:0.4602 17:0.5044 18:0.5044 19:0.5044 20:0.8274 21:0.8274 22:0.8274 23:0.8142 24:0.8142 25:0.8142 26:0.8142 27:0.6106 28:0.6106 29:0.6106 30:0.8053 31:0.8053 32:0.8053 33:0.6991 34:0.6991 35:0.6991 36:0.6991 37:0.8186 38:0.8186 39:0.8186 40:0.5664 41:0.5664 42:0.5664 43:0.4867 44:0.4867 45:0.4867 46:0.4867 47:0 48:0 49:0 
-1 0:0 1:0 2:0 3:0.025 4:0.025 5:0.025 6:0.025 7:0.3893 8:0.3893 9:0.3893 10:0.4429 11:0.4429 12:0.4429 13:0.75 14:0.75 15:0.75 16:0.75 17:0.6571 18:0.6571 19:0.6571 20:0.7536 21:0.7536 22:0.7536 23:0.6071 24:0.6071 25:0.6071 26:0.6071 27:0.5857 28:0.5857 29:0.5857 30:0.5893 31:0.5893 32:0.5893 33:0.5571 34:0.5571 35:0.5571 36:0.5571 37:0.7 38:0.7 39:0.7 40:0.5536 41:0.5536 42:0.5536 43:0.3679 44:0.3679 45:0.3679 46:0.3679 47:0 48:0 49:0 
-1 0:0 1:0 2:0 3:0.2044 4:0.2044 5:0.2044 6:0.2813 7:0.2813 8:0.2813 9:0.5516 10:0.5516 11:0.5516 12:0.6088 13:0.6088 14:0.6088 15:0.7011 16:0.7011 17:0.7011 18:0.6615 19:0.6615 20:0.6615 21:0.5802 22:0.5802 23:0.5802 24:0.5802 25:0.5802 26:0.5473 27:0.5473 28:0.5473 29:0.5934 30:0.5934 31:0.5934 32:0.5165 33:0.5165 34:0.5165 35:0.3912 36:0.3912 37:0.3912 38:0.0659 39:0.0659 40:0.0659 41:0.0637 42:0.0637 43:0.0637 44:0.0527 45:0.0527 46:0.0527 47:0 48:0 49:0 
-1 0:0 1:0 2:0 3:0 4:0.3333 5:0.3333 6:0.3333 7:0.6667 8:0.6667 9:0.6667 10:0.6667 11:0.6667 12:0.6667 13:0.6667 14:0.6667 15:0.6667 16:0.6667 17:0.6667 18:0.5714 19:0.5714 20:0.5714 21:0.3333 22:0.3333 23:0.3333 24:0.3333 25:0.5714 26:0.5714 27:0.5714 28:0.5714 29:0.6667 30:0.6667 31:0.6667 32:0.6667 33:0.6667 34:0.6667 35:0.6667 36:0.6667 37:0.6667 38:0.6667 39:0.6667 40:0.6667 41:0.6667 42:0.6667 43:0.3333 44:0.3333 45:0.3333 46:0 47:0 48:0 49:0 
-1 0:0 1:0 2:0 3:0.3134 4:0.3134 5:0.3134 6:0.2948 7:0.2948 8:0.2948 9:0.6157 10:0.6157 11:0.6157 12:0.5075 13:0.5075 14:0.5075 15:0.5075 16:0.541 17:0.541 18:0.541 19:0.5149 20:0.5149 21:0.5149 22:0.5187 23:0.5187 24:0.5187 25:0.5634 26:0.5634 27:0.5634 28:0.6082 29:0.6082 30:0.6082 31:0.8172 32:0.8172 33:0.8172 34:0.6493 35:0.6493 36:0.6493 37:0.6493 38:0.6045 39:0.6045 40:0.6045 41:0.0448 42:0.0448 43:0.0448 44:0.0224 45:0.0224 46:0.0224 47:0 48:0 49:0 
-1 0:0 1:0 2:0 3:0 4:0.5259 5:0.5259 6:0.5259 7:0.3704 8:0.3704 9:0.3704 10:0.3704 11:0.7259 12:0.7259 13:0.7259 14:0.5333 15:0.5333 16:0.5333 17:0.5333 18:0.5259 19:0.5259 20:0.5259 21:0.6593 22:0.6593 23:0.6593 24:0.6593 25:0.5852 26:0.5852 27:0.5852 28:0.5852 29:0.7111 30:0.7111 31:0.7111 32:0.6296 33:0.6296 34:0.6296 35:0.6296 36:0.6815 37:0.6815 38:0.6815 39:0.4 40:0.4 41:0.4 42:0.4 43:0.4444 44:0.4444 45:0.4444 46:0 47:0 48:0 49:0 
-1 0:0 1:0 2:0 3:0.0087 4:0.0087 5:0.0087 6:0.3033 7:0.3033 8:0.3345 9:0.3345 10:0.3345 11:0.6083 12:0.6083 13:0.6083 14:0.5459 15:0.5459 16:0.5459 17:0.669 18:0.669 19:0.591 20:0.591 21:0.591 22:0.5633 23:0.5633 24:0.5633 25:0.5685 26:0.5685 27:0.5685 28:0.5771 29:0.5771 30:0.5771 31:0.669 32:0.669 33:0.5581 34:0.5581 35:0.5581 36:0.4142 37:0.4142 38:0.4142 39:0.0676 40:0.0676 41:0.0676 42:0.0468 43:0.0468 44:0.0381 45:0.0381 46:0.0381 47:0 48:0 49:0 
-1 0:0 1:0 2:0 3:0 4:0.4578 5:0.4578 6:0.4578 7:0.5289 8:0.5289 9:0.5289 10:0.5289 11:0.6978 12:0.6978 13:0.6978 14:0.56 15:0.56 16:0.56 17:0.56 18:0.6756 19:0.6756 20:0.6756 21:0.4933 22:0.4933 23:0.4933 24:0.4933 25:0.5911 26:0.5911 27:0.5911 28:0.5911 29:0.5244 30:0.5244 31:0.5244 32:0.5378 33:0.5378 34:0.5378 35:0.5378 36:0.6489 37:0.6489 38:0.6489 39:0.5022 40:0.5022 41:0.5022 42:0.5022 43:0.3778 44:0.3778 45:0.3778 46:0 47:0 48:0 49:0 
