svm_type c_svc
kernel_type rbf
gamma 0.0204082
nr_class 2
total_sv 902
rho -7.05423
label 0 1
nr_sv 452 450
SV
1 0:0.0723 1:0.0843 2:0.0602 3:0.0843 4:0.1928 5:0.2048 6:0.2169 7:0.2289 8:0.1687 9:0.2892 10:0.253 11:0.4337 12:0.3494 13:0.3976 14:0.3614 15:0.4699 16:0.506 17:0.494 18:0.5542 19:0.5783 20:0.5181 21:0.5422 22:0.5301 23:0.6265 24:0.5301 25:0.6265 26:0.5542 27:0.5904 28:0.5422 29:0.6145 30:0.5904 31:0.4699 32:0.6265 33:0.5422 34:0.6145 35:0.6988 36:0.6265 37:0.6145 38:0.5181 39:0.4578 40:0.5783 41:0.3735 42:0.3735 43:0.4217 44:0.2651 45:0.3614 46:0.3133 47:0.2048 48:0.3253 49:0.2771 
1 0:0.0114 1:0 2:0 3:0 4:0.0114 5:0 6:0.0114 7:0 8:0 9:0 10:0.0114 11:0 12:0.0114 13:0 14:0 15:0 16:0 17:0 18:0.0114 19:0 20:0.0455 21:0.0341 22:0.0227 23:0.0909 24:0.1364 25:0.1477 26:0.1477 27:0.1477 28:0.1932 29:0.2727 30:0.3068 31:0.5114 32:0.5909 33:0.625 34:0.6364 35:0.8182 36:0.6818 37:0.2386 38:0.1932 39:0.0795 40:0.0341 41:0.1136 42:0.1136 43:0.0568 44:0.0568 45:0.0568 46:0.0795 47:0.0682 48:0.0682 49:0.0795 
1 0:0 1:0 2:0 3:0 4:0 5:0 6:0 7:0 8:0.0127 9:0 10:0 11:0.0127 12:0.0127 13:0.0759 14:0.1646 15:0.3291 16:0.3797 17:0.3797 18:0.4557 19:0.4557 20:0.4304 21:0.4051 22:0.4684 23:0.481 24:0.557 25:0.4177 26:0.5316 27:0.5949 28:0.6076 29:0.7215 30:0.6835 31:0.7722 32:0.6076 33:0.481 34:0.3165 35:0.2911 36:0.3544 37:0.4684 38:0.2658 39:0.2278 40:0.2532 41:0.1266 42:0.1646 43:0.1392 44:0.0633 45:0.1139 46:0.1266 47:0 48:0 49:0 
1 0:0 1:0 2:0 3:0 4:0 5:0 6:0 7:0.0133 8:0.0133 9:0.0267 10:0.0267 11:0.0133 12:0.0267 13:0.0533 14:0.0667 15:0.1467 16:0.24 17:0.2933 18:0.28 19:0.6267 20:0.6267 21:0.48 22:0.48 23:0.4133 24:0.3733 25:0.44 26:0.48 27:0.44 28:0.5067 29:0.3867 30:0.3867 31:0.32 32:0.3067 33:0.1867 34:0.1867 35:0.2 36:0.1467 37:0.0533 38:0.04 39:0.0933 40:0.0533 41:0.0267 42:0 43:0.0267 44:0.0267 45:0.0133 46:0.0133 47:0.0133 48:0 49:0 
1 0:0 1:0 2:0 3:0 4:0 5:0.0097 6:0.0097 7:0.0388 8:0.1553 9:0.3592 10:0.3495 11:0.5922 12:0.5243 13:0.5146 14:0.3883 15:0.4369 16:0.4757 17:0.4854 18:0.4563 19:0.5534 20:0.4466 21:0.4078 22:0.5049 23:0.4854 24:0.4466 25:0.4272 26:0.4175 27:0.4466 28:0.3883 29:0.4078 30:0.3398 31:0.301 32:0.2621 33:0.3398 34:0.3398 35:0.2913 36:0.3107 37:0.2913 38:0.301 39:0.3204 40:0.2621 41:0.1748 42:0.1359 43:0.0874 44:0.0291 45:0.068 46:0.068 47:0.1165 48:0.1456 49:0.1068 
1 0:0.0455 1:0.1061 2:0.0758 3:0.1818 4:0.1667 5:0.197 6:0.1818 7:0.1667 8:0.1212 9:0.1061 10:0.197 11:0.1818 12:0.2424 13:0.3636 14:0.3939 15:0.4091 16:0.4394 17:0.4394 18:0.3485 19:0.3333 20:0.4848 21:0.4848 22:0.3788 23:0.2727 24:0.2424 25:0.2576 26:0.3788 27:0.3788 28:0.2879 29:0.2576 30:0.2879 31:0.3636 32:0.6212 33:0.7424 34:0.6364 35:0.5152 36:0.4848 37:0.5909 38:0.6818 39:0.6364 40:0.6818 41:0.6061 42:0.5909 43:0.4091 44:0.2273 45:0.1212 46:0.1212 47:0.2121 48:0.197 49:0.1515 
1 0:0 1:0 2:0 3:0 4:0 5:0 6:0 7:0 8:0 9:0 10:0 11:0.0141 12:0.0141 13:0 14:0 15:0.0141 16:0.0282 17:0.0141 18:0.0141 19:0 20:0 21:0 22:0.0141 23:0.0282 24:0.0423 25:0.0845 26:0.0845 27:0.1831 28:0.1408 29:0.1549 30:0.3944 31:0.493 32:0.6197 33:0.8028 34:0.8732 35:0.8592 36:0.7465 37:0.6901 38:0.5211 39:0.3239 40:0.0845 41:0 42:0 43:0 44:0 45:0 46:0 47:0 48:0 49:0 
1 0:0 1:0 2:0 3:0 4:0 5:0 6:0 7:0 8:0 9:0.0267 10:0.04 11:0 12:0.0133 13:0.0133 14:0 15:0 16:0.0267 17:0.0933 18:0.1333 19:0.1733 20:0.3067 21:0.32 22:0.3467 23:0.2933 24:0.24 25:0.2267 26:0.2 27:0.24 28:0.2667 29:0.4533 30:0.4667 31:0.4667 32:0.3733 33:0.4667 34:0.5067 35:0.4933 36:0.2667 37:0.2667 38:0.2267 39:0.3067 40:0.1867 41:0.16 42:0.16 43:0.0667 44:0.16 45:0.0533 46:0 47:0.0267 48:0 49:0 
0.8906521934604799 0:0 1:0 2:0 3:0.0137 4:0.0274 5:0.0137 6:0.0137 7:0.0137 8:0.0274 9:0.0411 10:0.0274 11:0.0411 12:0.0274 13:0.0274 14:0.0548 15:0.0411 16:0.0137 17:0.0411 18:0.0274 19:0.0548 20:0.0274 21:0.0274 22:0.0274 23:0.0685 24:0.1644 25:0.2466 26:0.3425 27:0.3699 28:0.4932 29:0.6164 30:0.6027 31:0.6712 32:0.7671 33:0.7808 34:0.6027 35:0.589 36:0.4932 37:0.5068 38:0.4658 39:0.3699 40:0.2055 41:0.1233 42:0.0685 43:0.1096 44:0.0959 45:0.0548 46:0.0685 47:0.0548 48:0.1096 49:0.0822 
1 0:0 1:0 2:0 3:0 4:0 5:0 6:0 7:0 8:0 9:0 10:0 11:0.0541 12:0.1351 13:0.1757 14:0.3243 15:0.1351 16:0.3649 17:0.1486 18:0.4595 19:0.5405 20:0.4189 21:0.4865 22:0.6081 23:0.5405 24:0.5946 25:0.527 26:0.3919 27:0.4054 28:0.5135 29:0.4189 30:0.473 31:0.3243 32:0.6081 33:0.3784 34:0.4324 35:0.4324 36:0.2703 37:0.3514 38:0.2568 39:0.2973 40:0.3243 41:0.2838 42:0.1486 43:0.1351 44:0.1892 45:0.2027 46:0.1081 47:0.1216 48:0.1622 49:0.1486 
1 0:0 1:0 2:0.0102 3:0.0408 4:0.0816 5:0.0816 6:0.0918 7:0.0408 8:0.102 9:0.1224 10:0.0816 11:0.102 12:0.1327 13:0.102 14:0.1633 15:0.1939 16:0.1327 17:0.1429 18:0.1327 19:0.1735 20:0.2041 21:0.2143 22:0.2653 23:0.2755 24:0.2755 25:0.2551 26:0.3673 27:0.3469 28:0.3776 29:0.3878 30:0.3673 31:0.4592 32:0.4898 33:0.4082 34:0.3878 35:0.4082 36:0.4592 37:0.3571 38:0.2857 39:0.3163 40:0.2551 41:0.2041 42:0.1327 43:0.0408 44:0.0714 45:0.0408 46:0.0102 47:0.0204 48:0.0408 49:0.0102 
1 0:0.1831 1:0.1549 2:0.169 3:0.1549 4:0.2817 5:0.1268 6:0.0845 7:0.2394 8:0.169 9:0.2535 10:0.2394 11:0.1831 12:0.3521 13:0.2254 14:0.2817 15:0.4648 16:0.3662 17:0.3662 18:0.3944 19:0.507 20:0.5352 21:0.4507 22:0.4789 23:0.3944 24:0.4789 25:0.3662 26:0.4225 27:0.4085 28:0.4366 29:0.4789 30:0.4507 31:0.3944 32:0.4225 33:0.4507 34:0.5211 35:0.3662 36:0.5493 37:0.5493 38:0.5493 39:0.4507 40:0.1972 41:0.1549 42:0.2394 43:0.3662 44:0.1831 45:0.1127 46:0.169 47:0.1127 48:0.0704 49:0.1549 
1 0:0.023 1:0.023 2:0.023 3:0.0345 4:0.023 5:0.0575 6:0.0575 7:0.023 8:0.023 9:0.023 10:0.0805 11:0.1494 12:0.1264 13:0.1034 14:0.1494 15:0.1839 16:0.1839 17:0.1494 18:0.1954 19:0.1609 20:0.1839 21:0.2069 22:0.1954 23:0.2529 24:0.2184 25:0.3103 26:0.1954 27:0.1839 28:0.3563 29:0.3218 30:0.3793 31:0.4483 32:0.5057 33:0.4713 34:0.4828 35:0.5172 36:0.5402 37:0.5172 38:0.4943 39:0.5747 40:0.5057 41:0.3793 42:0.3103 43:0.1379 44:0.2299 45:0.046 46:0.023 47:0.046 48:0.046 49:0.023 
1 0:0 1:0.0417 2:0.1111 3:0.0417 4:0.0556 5:0.0833 6:0.0417 7:0.0833 8:0.0278 9:0.0556 10:0.0694 11:0.1389 12:0.1667 13:0.25 14:0.2083 15:0.2639 16:0.2917 17:0.3472 18:0.3056 19:0.3056 20:0.3611 21:0.2222 22:0.2361 23:0.1944 24:0.2083 25:0.1806 26:0.3472 27:0.2778 28:0.4444 29:0.3194 30:0.5 31:0.375 32:0.2639 33:0.4167 34:0.4722 35:0.4722 36:0.375 37:0.3194 38:0.4722 39:0.2639 40:0.2778 41:0.2222 42:0.2361 43:0.2222 44:0.1806 45:0.1806 46:0.1528 47:0.1111 48:0.1111 49:0.0278 
1 0:0 1:0 2:0 3:0 4:0 5:0 6:0 7:0 8:0 9:0 10:0 11:0 12:0.04 13:0.0667 14:0.1467 15:0.1333 16:0.1733 17:0.3467 18:0.6 19:0.3333 20:0.2533 21:0.3067 22:0.2533 23:0.3067 24:0.2533 25:0.3867 26:0.4933 27:0.36 28:0.56 29:0.48 30:0.3467 31:0.48 32:0.5467 33:0.3733 34:0.32 35:0.3333 36:0.4133 37:0.4133 38:0.32 39:0.24 40:0.3333 41:0.24 42:0.2133 43:0.2133 44:0.1467 45:0.16 46:0.16 47:0.12 48:0.1867 49:0.1067 
0.7136805387528186 0:0.2162 1:0.1486 2:0.1486 3:0.1757 4:0.1892 5:0.1757 6:0.1486 7:0.0946 8:0.1486 9:0.1351 10:0.1216 11:0.2432 12:0.2297 13:0.2297 14:0.3784 15:0.2838 16:0.2973 17:0.3378 18:0.3919 19:0.3378 20:0.2838 21:0.3243 22:0.2838 23:0.3649 24:0.2838 25:0.3243 26:0.1081 27:0.0135 28:0.2703 29:0.2973 30:0.2838 31:0.3378 32:0.3514 33:0.2432 34:0.2568 35:0.2432 36:0.1081 37:0.0946 38:0.1351 39:0.1081 40:0.0541 41:0.0135 42:0.0405 43:0.0135 44:0 45:0 46:0 47:0 48:0.027 49:0 
1 0:0 1:0 2:0.0267 3:0.0267 4:0.04 5:0.0933 6:0.08 7:0.12 8:0.1067 9:0.1333 10:0.1467 11:0.1067 12:0.1467 13:0.12 14:0.1733 15:0.2267 16:0.24 17:0.3067 18:0.3867 19:0.4533 20:0.36 21:0.4267 22:0.4533 23:0.44 24:0.3333 25:0.4267 26:0.3333 27:0.3867 28:0.4533 29:0.5467 30:0.52 31:0.56 32:0.52 33:0.4533 34:0.36 35:0.32 36:0.2933 37:0.28 38:0.2933 39:0.2667 40:0.2267 41:0.2667 42:0.2267 43:0.0533 44:0.0933 45:0.08 46:0.0667 47:0.0667 48:0.1867 49:0.16 
1 0:0 1:0 2:0 3:0 4:0 5:0 6:0 7:0 8:0.0227 9:0.0341 10:0.1477 11:0.2159 12:0.2727 13:0.4205 14:0.5909 15:0.5909 16:0.6364 17:0.5795 18:0.5909 19:0.6477 20:0.8295 21:0.5227 22:0.4318 23:0.3864 24:0.3182 25:0.1818 26:0.1136 27:0.1591 28:0.1136 29:0.0227 30:0.1477 31:0.1023 32:0.1705 33:0.125 34:0.1818 35:0.1818 36:0.1477 37:0.1705 38:0.2386 39:0.2841 40:0.25 41:0.1818 42:0.1591 43:0.1023 44:0.0909 45:0.0909 46:0.0795 47:0.0909 48:0.0341 49:0.0114 
1 0:0 1:0 2:0 3:0 4:0 5:0 6:0.0135 7:0.0135 8:0.0135 9:0.0135 10:0.0135 11:0.027 12:0.0135 13:0.0405 14:0.1351 15:0.1892 16:0.2162 17:0.1757 18:0.2568 19:0.3378 20:0.4054 21:0.3378 22:0.4189 23:0.4324 24:0.3649 25:0.4189 26:0.4189 27:0.3243 28:0.2568 29:0.2973 30:0.3649 31:0.3378 32:0.4324 33:0.3108 34:0.4054 35:0.3378 36:0.4324 37:0.3649 38:0.3514 39:0.3514 40:0.3649 41:0.3514 42:0.2432 43:0.1351 44:0.0811 45:0.1351 46:0.1486 47:0.0541 48:0.1486 49:0.0541 
1 0:0 1:0 2:0 3:0 4:0 5:0 6:0 7:0 8:0.02 9:0.02 10:0.02 11:0 12:0 13:0 14:0 15:0 16:0.18 17:0.22 18:0.26 19:0.24 20:0.18 21:0.26 22:0.28 23:0.34 24:0.32 25:0.34 26:0.32 27:0.36 28:0.28 29:0.28 30:0.36 31:0.42 32:0.3 33:0.42 34:0.36 35:0.38 36:0.2 37:0.04 38:0 39:0 40:0 41:0 42:0 43:0 44:0 45:0 46:0 47:0 48:0 49:0 
1 0:0 1:0 2:0 3:0 4:0 5:0 6:0 7:0.0411 8:0.0548 9:0.137 10:0.2192 11:0.2877 12:0.3425 13:0.4384 14:0.4521 15:0.5068 16:0.4384 17:0.411 18:0.3973 19:0.4521 20:0.3562 21:0.5205 22:0.5205 23:0.7123 24:0.4795 25:0.3562 26:0.2877 27:0.1781 28:0.2055 29:0.137 30:0.0685 31:0.0274 32:0.1233 33:0.0822 34:0.0959 35:0.0411 36:0.0548 37:0.0959 38:0.0822 39:0.1096 40:0.0959 41:0.0548 42:0.0548 43:0.0548 44:0.0274 45:0.0274 46:0.0274 47:0.0274 48:0.0411 49:0.0274 
1 0:0 1:0 2:0 3:0.02 4:0.08 5:0.14 6:0.2 7:0.12 8:0.14 9:0.26 10:0.18 11:0.22 12:0.28 13:0.26 14:0.12 15:0.1 16:0.16 17:0.14 18:0.12 19:0.16 20:0.12 21:0.2 22:0.22 23:0.2 24:0.28 25:0.16 26:0.22 27:0.18 28:0.2 29:0.12 30:0.22 31:0.22 32:0.1 33:0.18 34:0.18 35:0.26 36:0.42 37:0.52 38:0.32 39:0.16 40:0 41:0 42:0 43:0 44:0 45:0 46:0 47:0 48:0 49:0.02 
1 0:0 1:0 2:0 3:0 4:0 5:0 6:0 7:0 8:0 9:0 10:0.0135 11:0.0135 12:0.0135 13:0.0405 14:0.1081 15:0.027 16:0.1081 17:0.0405 18:0.1622 19:0.1757 20:0.3919 21:0.4595 22:0.3514 23:0.1486 24:0.1351 25:0.2838 26:0.2297 27:0.1216 28:0.2703 29:0.2703 30:0.2568 31:0.4595 32:0.3919 33:0.5 34:0.473 35:0.3784 36:0.2432 37:0.0811 38:0.0405 39:0.027 40:0.0541 41:0 42:0.027 43:0 44:0.0135 45:0.027 46:0 47:0 48:0.0135 49:0 
1 0:0.1573 1:0.1798 2:0.1798 3:0.2022 4:0.2921 5:0.3146 6:0.2921 7:0.2921 8:0.2247 9:0.3258 10:0.2809 11:0.2809 12:0.2697 13:0.2697 14:0.427 15:0.427 16:0.4494 17:0.4719 18:0.3596 19:0.382 20:0.3933 21:0.5506 22:0.5169 23:0.5393 24:0.4607 25:0.4045 26:0.3708 27:0.4719 28:0.382 29:0.4607 30:0.4045 31:0.4831 32:0.6292 33:0.5169 34:0.5955 35:0.4157 36:0.5393 37:0.5281 38:0.5393 39:0.382 40:0.3933 41:0.2584 42:0.1685 43:0.1798 44:0.1124 45:0.0562 46:0.0674 47:0.0562 48:0.0337 49:0.0562 
1 0:0.0533 1:0.04 2:0.0133 3:0.0933 4:0.08 5:0.0667 6:0.1067 7:0.12 8:0.0667 9:0.1067 10:0.0533 11:0.0267 12:0.0267 13:0.1067 14:0.1733 15:0.16 16:0.24 17:0.24 18:0.3467 19:0.3467 20:0.4 21:0.4133 22:0.44 23:0.36 24:0.4533 25:0.4933 26:0.4533 27:0.5067 28:0.6133 29:0.52 30:0.6133 31:0.56 32:0.6667 33:0.6933 34:0.5333 35:0.56 36:0.5067 37:0.44 38:0.2933 39:0.1467 40:0.1333 41:0.16 42:0.2667 43:0.28 44:0.3867 45:0.3333 46:0.2667 47:0.12 48:0.04 49:0.0133 
1 0:0 1:0 2:0 3:0.0133 4:0 5:0.0533 6:0.0533 7:0.0667 8:0.0667 9:0.04 10:0.04 11:0.08 12:0.0933 13:0.0933 14:0.2 15:0.12 16:0.2 17:0.16 18:0.6933 19:0.8933 20:0.44 21:0.4133 22:0.44 23:0.3467 24:0.4933 25:0.4 26:0.2933 27:0.3467 28:0.32 29:0.4267 30:0.28 31:0.3467 32:0.3467 33:0.3333 34:0.5067 35:0.36 36:0.3733 37:0.56 38:0.4133 39:0.44 40:0.5067 41:0.04 42:0.0133 43:0.04 44:0.28 45:0.48 46:0.7067 47:0.0533 48:0.0667 49:0.0667 
1 0:0 1:0 2:0 3:0.0484 4:0.0484 5:0.0161 6:0.0645 7:0.0484 8:0.0484 9:0.0484 10:0.0323 11:0.0161 12:0.0323 13:0.0323 14:0 15:0.0323 16:0.1774 17:0.2581 18:0.2097 19:0.2903 20:0.2097 21:0.2097 22:0.2903 23:0.3065 24:0.2419 25:0.129 26:0.1129 27:0.1129 28:0.129 29:0.0968 30:0.1935 31:0.3226 32:0.3387 33:0.2903 34:0.2097 35:0.2097 36:0.2903 37:0.2742 38:0.4355 39:0.2903 40:0.2258 41:0.2097 42:0.1613 43:0.0645 44:0.0645 45:0.0323 46:0 47:0.0161 48:0.0161 49:0 
1 0:0 1:0 2:0 3:0.04 4:0.0533 5:0.08 6:0.1067 7:0.16 8:0.1467 9:0.24 10:0.28 11:0.32 12:0.32 13:0.3067 14:0.36 15:0.44 16:0.44 17:0.4133 18:0.52 19:0.4667 20:0.44 21:0.4267 22:0.4 23:0.48 24:0.5067 25:0.4933 26:0.44 27:0.4667 28:0.5067 29:0.5733 30:0.5867 31:0.72 32:0.7467 33:0.6533 34:0.7467 35:0.6533 36:0.6 37:0.3733 38:0.4667 39:0.48 40:0.48 41:0.4533 42:0.4667 43:0.1733 44:0.2533 45:0.2533 46:0.2533 47:0.2667 48:0.32 49:0.4133 
1 0:0 1:0 2:0 3:0 4:0 5:0 6:0 7:0.0667 8:0.08 9:0.0933 10:0.08 11:0.1467 12:0.1733 13:0.1867 14:0.2133 15:0.2 16:0.2667 17:0.4 18:0.3333 19:0.2933 20:0.4933 21:0.4667 22:0.4933 23:0.4933 24:0.44 25:0.3867 26:0.4133 27:0.32 28:0.3733 29:0.32 30:0.4133 31:0.4267 32:0.5067 33:0.3867 34:0.4133 35:0.4933 36:0.48 37:0.44 38:0.4 39:0.1467 40:0.1867 41:0.12 42:0.0533 43:0.0667 44:0.0667 45:0.0933 46:0.04 47:0.0667 48:0.0267 49:0.0267 
1 0:0.0135 1:0.0135 2:0.0135 3:0 4:0 5:0.027 6:0.0135 7:0.027 8:0.0676 9:0.0811 10:0.1892 11:0.1486 12:0.1892 13:0.2162 14:0.2838 15:0.3108 16:0.2568 17:0.1757 18:0.2297 19:0.3108 20:0.3514 21:0.4054 22:0.3108 23:0.1892 24:0.2973 25:0.2838 26:0.4324 27:0.2432 28:0.2568 29:0.3514 30:0.2838 31:0.3649 32:0.2703 33:0.2973 34:0.2973 35:0.2568 36:0.3243 37:0.1081 38:0.0811 39:0.0946 40:0.0811 41:0.0405 42:0.0676 43:0.027 44:0.0135 45:0.027 46:0.0405 47:0.0135 48:0.0676 49:0.1081 
1 0:0 1:0 2:0 3:0 4:0.12 5:0.1 6:0.14 7:0.12 8:0.14 9:0.14 10:0.34 11:0.34 12:0.34 13:0.26 14:0.36 15:0.58 16:0.5 17:0.68 18:0.74 19:0.8 20:0.76 21:0.76 22:0.72 23:0.76 24:0.74 25:0.72 26:0.72 27:0.76 28:0.7 29:0.7 30:0.68 31:0.7 32:0.68 33:0.7 34:0.5 35:0.54 36:0.6 37:0.54 38:0.46 39:0.32 40:0.18 41:0.2 42:0.16 43:0.06 44:0.1 45:0.12 46:0.2 47:0.14 48:0.16 49:0.12 
1 0:0 1:0 2:0 3:0 4:0 5:0 6:0 7:0 8:0.0333 9:0.05 10:0.1833 11:0.2333 12:0.3167 13:0.3 14:0.3167 15:0.45 16:0.4 17:0.35 18:0.4167 19:0.3833 20:0.4 21:0.3833 22:0.2833 23:0.25 24:0.1833 25:0.1 26:0.15 27:0.1333 28:0.1833 29:0.1667 30:0.2667 31:0.1667 32:0.1 33:0.1833 34:0.2833 35:0.3 36:0.25 37:0.2 38:0.25 39:0.1667 40:0.1 41:0.1167 42:0.0667 43:0.1167 44:0.05 45:0.0667 46:0 47:0.0167 48:0.05 49:0.0167 
1 0:0.1892 1:0.2297 2:0.3243 3:0.2838 4:0.4189 5:0.2973 6:0.2568 7:0.2162 8:0.2703 9:0.3108 10:0.3378 11:0.3243 12:0.3649 13:0.3649 14:0.4865 15:0.5676 16:0.6892 17:0.7838 18:0.8108 19:0.7568 20:0.7027 21:0.7973 22:0.7703 23:0.7838 24:0.7973 25:0.6892 26:0.6486 27:0.7973 28:0.5946 29:0.4595 30:0.4595 31:0.6081 32:0.5946 33:0.6216 34:0.6892 35:0.5946 36:0.6216 37:0.5405 38:0.5 39:0.5405 40:0.3919 41:0.2973 42:0.2973 43:0.2027 44:0.2162 45:0.2027 46:0.1892 47:0.1622 48:0.1486 49:0.1622 
1 0:0 1:0 2:0 3:0 4:0 5:0 6:0 7:0 8:0.0541 9:0.0135 10:0.0946 11:0.0946 12:0.1351 13:0.1892 14:0.2297 15:0.1622 16:0.1486 17:0.2432 18:0.3784 19:0.3243 20:0.1216 21:0.1351 22:0.3649 23:0.3108 24:0.3108 25:0.2297 26:0.2432 27:0.2568 28:0.2027 29:0.2162 30:0.3649 31:0.2973 32:0.2432 33:0.3243 34:0.3243 35:0.2432 36:0.3649 37:0.2297 38:0.527 39:0.1486 40:0 41:0 42:0 43:0 44:0 45:0 46:0 47:0 48:0.027 49:0.0811 
1 0:0 1:0 2:0 3:0 4:0 5:0 6:0 7:0 8:0 9:0.0533 10:0.1333 11:0.12 12:0.2 13:0.2133 14:0.2533 15:0.24 16:0.2933 17:0.3067 18:0.2533 19:0.3467 20:0.3733 21:0.3467 22:0.4133 23:0.6133 24:0.6667 25:0.64 26:0.6933 27:0.56 28:0.5733 29:0.64 30:0.56 31:0.6267 32:0.4933 33:0.3467 34:0.2933 35:0.2133 36:0.2667 37:0.1867 38:0.24 39:0.2 40:0.1333 41:0.1867 42:0.0933 43:0.0267 44:0 45:0.0133 46:0.0267 47:0 48:0 49:0.1867 
0.8016870753096681 0:0.5366 1:0.561 2:0.3537 3:0.061 4:0 5:0.5244 6:0.5732 7:0.5732 8:0.561 9:0.5976 10:0.1829 11:0.0854 12:0.4512 13:0.6463 14:0.5244 15:0.4268 16:0.5366 17:0.6098 18:0.6829 19:0.6707 20:0.6951 21:0.6341 22:0.7439 23:0.7561 24:0.8171 25:0.8415 26:0.7195 27:0.5854 28:0.5732 29:0.7439 30:0.7561 31:0.5976 32:0.6829 33:0.5488 34:0.4512 35:0.4634 36:0.4878 37:0.5 38:0.4512 39:0.5244 40:0.3293 41:0.2317 42:0.2195 43:0.1341 44:0.1341 45:0.122 46:0.0732 47:0.1341 48:0.0854 49:0 
1 0:0 1:0 2:0 3:0 4:0 5:0 6:0 7:0.0541 8:0.2027 9:0.3649 10:0.2432 11:0.2027 12:0.4459 13:0.2027 14:0.2432 15:0.2432 16:0.2568 17:0.2973 18:0.3108 19:0.2838 20:0.2568 21:0.3378 22:0.2297 23:0.3649 24:0.2568 25:0.3514 26:0.3514 27:0.2432 28:0.3108 29:0.4595 30:0.5405 31:0.3243 32:0.3243 33:0.2432 34:0.2297 35:0.3108 36:0.3108 37:0.3243 38:0.0946 39:0.027 40:0.1351 41:0 42:0 43:0 44:0 45:0 46:0 47:0 48:0 49:0 
1 0:0 1:0 2:0 3:0 4:0.0323 5:0.0484 6:0.1452 7:0.129 8:0.1452 9:0.129 10:0.1613 11:0.2258 12:0.1935 13:0.2258 14:0.3065 15:0.1613 16:0.2258 17:0.2742 18:0.2581 19:0.2419 20:0.3226 21:0.4194 22:0.371 23:0.2742 24:0.4355 25:0.4194 26:0.4516 27:0.3065 28:0.371 29:0.8387 30:0.629 31:0.5645 32:0.4355 33:0.4516 34:0.3548 35:0.3065 36:0.2742 37:0.3065 38:0.2581 39:0.2581 40:0.2419 41:0.1613 42:0.2742 43:0.2742 44:0.2742 45:0.2097 46:0 47:0 48:0 49:0 
1 0:0 1:0 2:0 3:0 4:0 5:0.027 6:0.0135 7:0 8:0.027 9:0.0541 10:0.0135 11:0.027 12:0.0541 13:0.0676 14:0.0405 15:0.1081 16:0.1216 17:0.2838 18:0.2973 19:0.3649 20:0.4459 21:0.4189 22:0.5405 23:0.3784 24:0.1216 25:0.027 26:0.5135 27:0.4189 28:0.2973 29:0.2027 30:0.1757 31:0.2568 32:0.3243 33:0.3378 34:0.3243 35:0.2568 36:0.2703 37:0.0676 38:0.1351 39:0.0405 40:0.0135 41:0.0811 42:0.0811 43:0.0811 44:0.0541 45:0.0135 46:0.0676 47:0.027 48:0.0405 49:0.0541 
1 0:0 1:0 2:0 3:0 4:0 5:0 6:0.0135 7:0.0135 8:0.0135 9:0.0676 10:0.0676 11:0.0946 12:0.1622 13:0.2432 14:0.1351 15:0.2162 16:0.3649 17:0.4459 18:0.2432 19:0.3108 20:0.2703 21:0.1892 22:0.2973 23:0.527 24:0.4865 25:0.4324 26:0.4054 27:0.5 28:0.5541 29:0.473 30:0.4865 31:0.5 32:0.4189 33:0.4865 34:0.4324 35:0.4459 36:0.3919 37:0.2838 38:0.2432 39:0.1622 40:0.0946 41:0.1081 42:0.1486 43:0.0946 44:0.1622 45:0.1486 46:0.1757 47:0.1486 48:0.1486 49:0.1081 
1 0:0 1:0 2:0 3:0 4:0 5:0 6:0 7:0 8:0 9:0 10:0 11:0.1892 12:0.2162 13:0.3108 14:0.3784 15:0.3649 16:0.3514 17:0.2703 18:0.2162 19:0.1757 20:0.2162 21:0.2568 22:0.2973 23:0.1892 24:0.1622 25:0.0811 26:0.0946 27:0.1486 28:0.1622 29:0.1757 30:0.2027 31:0.2027 32:0.1351 33:0.0946 34:0.0541 35:0.2703 36:0.473 37:0.1351 38:0.0946 39:0.0811 40:0.0405 41:0.027 42:0.0135 43:0.027 44:0.0135 45:0.027 46:0.0405 47:0.0946 48:0.0135 49:0 
1 0:0.093 1:0.0698 2:0.1628 3:0.1163 4:0.1628 5:0.1628 6:0.093 7:0.2326 8:0.2326 9:0.2558 10:0.3256 11:0.3023 12:0.2558 13:0.4651 14:0.4419 15:0.3256 16:0.4419 17:0.3488 18:0.3953 19:0.4419 20:0.4186 21:0.4419 22:0.3488 23:0.3953 24:0.2558 25:0.2558 26:0.3721 27:0.3256 28:0.3721 29:0.3488 30:0.3256 31:0.3488 32:0.3488 33:0.3953 34:0.2791 35:0.2791 36:0.3721 37:0.2791 38:0.2326 39:0.2791 40:0.3256 41:0.3023 42:0.3488 43:0.2326 44:0.1395 45:0.1163 46:0 47:0 48:0 49:0.0233 
1 0:0 1:0 2:0 3:0.0052 4:0.0417 5:0.0417 6:0.026 7:0.0208 8:0.0208 9:0.0156 10:0.0208 11:0.0104 12:0.0208 13:0.0156 14:0.0208 15:0.0052 16:0.0313 17:0.0365 18:0.0469 19:0.0521 20:0.0781 21:0.1042 22:0.0833 23:0.0573 24:0.0781 25:0.0573 26:0.0625 27:0.1094 28:0.1458 29:0.1042 30:0.1927 31:0.2969 32:0.2708 33:0.6302 34:0.4792 35:0.4531 36:0.7448 37:0.4479 38:0.276 39:0.026 40:0.0365 41:0.0365 42:0.0469 43:0.0469 44:0.0417 45:0.0365 46:0.0625 47:0.0573 48:0.0469 49:0.0729 
1 0:0 1:0.0135 2:0.027 3:0.027 4:0.0135 5:0.0405 6:0.0135 7:0.027 8:0.0676 9:0.0811 10:0.0946 11:0.1351 12:0.1081 13:0.1892 14:0.1892 15:0.2973 16:0.4324 17:0.6216 18:0.5 19:0.6216 20:0.5676 21:0.5 22:0.5946 23:0.5811 24:0.5676 25:0.6216 26:0.527 27:0.4865 28:0.5405 29:0.5405 30:0.5405 31:0.6216 32:0.6081 33:0.527 34:0.5405 35:0.473 36:0.4189 37:0.4054 38:0.027 39:0.0405 40:0.1892 41:0.027 42:0.0541 43:0.1081 44:0.0946 45:0.1486 46:0.1622 47:0.2432 48:0.2432 49:0.2568 
1 0:0.025 1:0.05 2:0.1 3:0.1 4:0.1125 5:0.1625 6:0.125 7:0.1625 8:0.4625 9:0.3875 10:0.4625 11:0.5375 12:0.575 13:0.5375 14:0.6 15:0.625 16:0.4875 17:0.5875 18:0.475 19:0.6 20:0.5 21:0.5125 22:0.4125 23:0.2625 24:0.2 25:0.2375 26:0.1875 27:0.1125 28:0.05 29:0.0125 30:0.225 31:0.25 32:0.225 33:0.2375 34:0.3625 35:0.3375 36:0.35 37:0.3625 38:0.1625 39:0.125 40:0.1 41:0.2125 42:0.2 43:0.0625 44:0 45:0 46:0 47:0 48:0 49:0 
1 0:0 1:0 2:0.0137 3:0 4:0 5:0 6:0 7:0 8:0 9:0.0274 10:0.0959 11:0.0685 12:0.0959 13:0.0959 14:0.0959 15:0.1233 16:0.1233 17:0.0822 18:0.1233 19:0.1781 20:0.1233 21:0.1233 22:0.2329 23:0.1918 24:0.1507 25:0.2055 26:0.1918 27:0.1781 28:0.3014 29:0.2329 30:0.2329 31:0.8493 32:0.589 33:0.7671 34:0.7123 35:0.6027 36:0.1918 37:0.0548 38:0.0137 39:0.0137 40:0 41:0.0137 42:0.0137 43:0 44:0 45:0 46:0.0137 47:0 48:0 49:0 
1 0:0.0533 1:0.12 2:0.0933 3:0.1333 4:0.1333 5:0.12 6:0.1333 7:0.1733 8:0.1067 9:0.1867 10:0.28 11:0.32 12:0.3733 13:0.4133 14:0.4 15:0.4933 16:0.4667 17:0.4667 18:0.4267 19:0.48 20:0.56 21:0.4933 22:0.6 23:0.64 24:0.6 25:0.6667 26:0.56 27:0.72 28:0.6533 29:0.6 30:0.6667 31:0.6533 32:0.5333 33:0.6 34:0.56 35:0.4267 36:0.4667 37:0.4267 38:0.4267 39:0.4133 40:0.3867 41:0.24 42:0.3333 43:0.2533 44:0.1467 45:0.12 46:0.2133 47:0.0267 48:0.0267 49:0.0267 
1 0:0.0541 1:0.027 2:0.027 3:0.027 4:0.0405 5:0.0405 6:0.0405 7:0.0541 8:0.0405 9:0.0135 10:0.0676 11:0.1622 12:0.1351 13:0.2027 14:0.2027 15:0.2568 16:0.1892 17:0.2027 18:0.2838 19:0.2703 20:0.2703 21:0.1486 22:0.2297 23:0.2838 24:0.2568 25:0.2703 26:0.5541 27:0.2838 28:0.2838 29:0.2703 30:0.2703 31:0.2297 32:0.2297 33:0.3108 34:0.2162 35:0.3784 36:0.4054 37:0.3919 38:0.2568 39:0.1081 40:0.1622 41:0.1216 42:0.1351 43:0.0676 44:0 45:0.0135 46:0.027 47:0 48:0 49:0 
1 0:0.0395 1:0.0395 2:0.1316 3:0.2237 4:0.25 5:0.2237 6:0.25 7:0.2632 8:0.3947 9:0.2763 10:0.3553 11:0.2895 12:0.6579 13:0.7368 14:0.7237 15:0.7632 16:0.6842 17:0.7895 18:0.8026 19:0.8289 20:0.8684 21:0.8684 22:0.8026 23:0.7105 24:0.8026 25:0.7237 26:0.4342 27:0.25 28:0.2763 29:0.4737 30:0.4868 31:0.3421 32:0.6316 33:0.5921 34:0.6053 35:0.4737 36:0.4211 37:0.4474 38:0.3816 39:0.2632 40:0.1842 41:0.0921 42:0.0658 43:0.0658 44:0.0789 45:0.0526 46:0.1316 47:0.1579 48:0.2237 49:0.25 
0.6247150889098239 0:0 1:0 2:0 3:0 4:0 5:0 6:0.1364 7:0.1455 8:0.4273 9:0.4182 10:0.4545 11:0.4818 12:0.5 13:0.5273 14:0.5818 15:0.4545 16:0.3545 17:0.3182 18:0.2455 19:0.1636 20:0.1455 21:0.1455 22:0.1182 23:0.1182 24:0.2182 25:0.1727 26:0.2091 27:0.3455 28:0.4909 29:0.4909 30:0.4818 31:0.5091 32:0.4455 33:0.4545 34:0.4364 35:0.4364 36:0.1182 37:0.0545 38:0.0818 39:0.0636 40:0.0545 41:0.0091 42:0.0273 43:0.0091 44:0.1818 45:0 46:0 47:0 48:0 49:0 
1 0:0.0128 1:0.0128 2:0.0128 3:0.0256 4:0.0256 5:0 6:0.0256 7:0.0256 8:0.0769 9:0.1026 10:0.1282 11:0.1026 12:0.0641 13:0.1538 14:0.2692 15:0.3846 16:0.4103 17:0.4615 18:0.4744 19:0.4744 20:0.5897 21:0.5897 22:0.6282 23:0.5256 24:0.5128 25:0.6282 26:0.7308 27:0.6538 28:0.6282 29:0.6282 30:0.5641 31:0.6282 32:0.5897 33:0.5769 34:0.5128 35:0.4615 36:0.3718 37:0.3205 38:0.359 39:0.2821 40:0.2821 41:0.3077 42:0.2308 43:0.1795 44:0.1667 45:0.1282 46:0.1282 47:0.141 48:0.0897 49:0.0641 
1 0:0 1:0 2:0 3:0 4:0 5:0.0541 6:0.1351 7:0.2162 8:0.2027 9:0.2703 10:0.2703 11:0.2568 12:0.3649 13:0.3243 14:0.3919 15:0.4054 16:0.3243 17:0.2703 18:0.2973 19:0.3649 20:0.4054 21:0.3514 22:0.2973 23:0.2973 24:0.2838 25:0.3378 26:0.3243 27:0.5676 28:0.4324 29:0.4324 30:0.5676 31:0.6081 32:0.5541 33:0.473 34:0.4324 35:0.4865 36:0.4189 37:0.3649 38:0.3649 39:0.3243 40:0.3784 41:0.2297 42:0.2162 43:0.2297 44:0.0946 45:0.0811 46:0.0405 47:0 48:0 49:0.027 
1 0:0 1:0 2:0 3:0 4:0 5:0 6:0.0308 7:0.0154 8:0.0308 9:0.0462 10:0.1077 11:0.0308 12:0.0462 13:0.0769 14:0.3077 15:0.2615 16:0.5692 17:0.1692 18:0.3077 19:0.4462 20:0.3846 21:0.3692 22:0.3231 23:0.2308 24:0.2615 25:0.1538 26:0.2769 27:0.2769 28:0.2615 29:0.3231 30:0.3077 31:0.2308 32:0.2923 33:0.2308 34:0.2615 35:0.1538 36:0.1231 37:0 38:0 39:0.0154 40:0.0462 41:0.0308 42:0.0308 43:0.0462 44:0.0615 45:0.0769 46:0.0615 47:0.0308 48:0.0154 49:0.0462 
1 0:0 1:0 2:0 3:0.0093 4:0.0278 5:0.0278 6:0.1019 7:0.1667 8:0.1667 9:0.1759 10:0.2222 11:0.1852 12:0.2593 13:0.3241 14:0.2963 15:0.2778 16:0.2963 17:0.2685 18:0.3056 19:0.2963 20:0.3519 21:0.4352 22:0.4537 23:0.4537 24:0.5 25:0.6019 26:0.5741 27:0.25 28:0.1574 29:0.0463 30:0.2037 31:0.7037 32:0.6019 33:0.7315 34:0.5833 35:0.2963 36:0.037 37:0.0556 38:0.0648 39:0.1574 40:0.3056 41:0.1389 42:0.0648 43:0.0556 44:0.037 45:0.0278 46:0.0093 47:0.0463 48:0 49:0.0185 
1 0:0 1:0 2:0 3:0 4:0 5:0 6:0 7:0 8:0 9:0 10:0 11:0.027 12:0.0811 13:0.1351 14:0.1216 15:0.1486 16:0.0405 17:0.5811 18:0.5135 19:0.4595 20:0.0405 21:0.5946 22:0.3514 23:0.2432 24:0.2568 25:0.2297 26:0.1757 27:0.2162 28:0.2838 29:0.1351 30:0.1216 31:0.2162 32:0.1892 33:0.2838 34:0.4054 35:0.4189 36:0.5676 37:0.5811 38:0.5135 39:0.2973 40:0.3243 41:0.2838 42:0.2703 43:0.2297 44:0.1757 45:0.1622 46:0.0946 47:0.0405 48:0.0405 49:0 
1 0:0 1:0 2:0 3:0 4:0 5:0 6:0.068 7:0.1262 8:0.1068 9:0.0583 10:0.1068 11:0.233 12:0.3495 13:0.2427 14:0.1456 15:0.1359 16:0.1456 17:0.2524 18:0.1359 19:0.233 20:0.301 21:0.2427 22:0.1845 23:0.3398 24:0.2233 25:0.3398 26:0.466 27:0.4369 28:0.6117 29:0.699 30:0.767 31:0.6699 32:0.7767 33:0.8544 34:0.8155 35:0.6214 36:0.7379 37:0.2718 38:0.0097 39:0.0194 40:0 41:0 42:0 43:0 44:0 45:0 46:0 47:0 48:0 49:0 
1 0:0.3378 1:0.3243 2:0.3919 3:0.2973 4:0.2838 5:0.2838 6:0.2162 7:0.2838 8:0.3784 9:0.2973 10:0.2297 11:0.4189 12:0.2432 13:0.3919 14:0.3919 15:0.4459 16:0.4189 17:0.4189 18:0.3378 19:0.3514 20:0.2297 21:0.4865 22:0.3243 23:0.1622 24:0.2162 25:0.2432 26:0.2568 27:0.3649 28:0.3919 29:0.5 30:0.4865 31:0.3514 32:0.3649 33:0.8378 34:0.5676 35:0.5135 36:0.4459 37:0.3108 38:0.2568 39:0.1486 40:0.0676 41:0.0405 42:0 43:0.0135 44:0 45:0 46:0 47:0 48:0 49:0 
1 0:0.027 1:0.0676 2:0.0541 3:0.0405 4:0.1216 5:0.1216 6:0.1757 7:0.1486 8:0.1486 9:0.3108 10:0.3784 11:0.3649 12:0.3784 13:0.4459 14:0.4324 15:0.4865 16:0.5135 17:0.5 18:0.6757 19:0.6216 20:0.5811 21:0.5541 22:0.5541 23:0.6892 24:0.8108 25:0.7838 26:0.7027 27:0.7027 28:0.5676 29:0.5676 30:0.6351 31:0.6757 32:0.5405 33:0.6622 34:0.7568 35:0.6351 36:0.527 37:0.2838 38:0.2838 39:0.2432 40:0.2703 41:0.2027 42:0.2162 43:0.0946 44:0.0811 45:0.1216 46:0.1216 47:0.0676 48:0.1486 49:0.1622 
1 0:0 1:0 2:0 3:0 4:0.0067 5:0.02 6:0.06 7:0.0933 8:0.1267 9:0.22 10:0.2333 11:0.2333 12:0.2667 13:0.3533 14:0.4267 15:0.3467 16:0.4 17:0.34 18:0.4133 19:0.3867 20:0.3267 21:0.3667 22:0.46 23:0.54 24:0.5733 25:0.54 26:0.6067 27:0.62 28:0.5467 29:0.52 30:0.48 31:0.5333 32:0.5067 33:0.5267 34:0.7533 35:0.8067 36:0.8 37:0.2933 38:0.1067 39:0.1267 40:0.1467 41:0.1267 42:0.12 43:0.0933 44:0.1133 45:0.0867 46:0.0667 47:0.1 48:0.0533 49:0.04 
1 0:0.3784 1:0.4865 2:0.3378 3:0.4189 4:0.3784 5:0.4324 6:0.4189 7:0.2973 8:0.3649 9:0.4324 10:0.473 11:0.5676 12:0.5676 13:0.6622 14:0.5946 15:0.5946 16:0.6081 17:0.5811 18:0.6622 19:0.6757 20:0.7973 21:0.6892 22:0.6486 23:0.6216 24:0.527 25:0.5946 26:0.5811 27:0.5811 28:0.5676 29:0.5 30:0.6486 31:0.527 32:0.5946 33:0.7297 34:0.7703 35:0.7432 36:0.8108 37:0.8243 38:0.7432 39:0.3243 40:0.2973 41:0.5135 42:0.473 43:0.2703 44:0.1622 45:0.2297 46:0.1216 47:0.1892 48:0.1757 49:0.0676 
1 0:0 1:0 2:0 3:0 4:0 5:0 6:0 7:0 8:0.0308 9:0.0154 10:0.0923 11:0.1 12:0.1615 13:0.1769 14:0.2308 15:0.2615 16:0.2077 17:0.3231 18:0.2923 19:0.3 20:0.2538 21:0.3 22:0.3231 23:0.2692 24:0.3308 25:0.3077 26:0.3231 27:0.2692 28:0.2846 29:0.3538 30:0.2846 31:0.2692 32:0.2308 33:0.2385 34:0.2 35:0.2 36:0.1923 37:0.1077 38:0.0846 39:0.0308 40:0.0231 41:0 42:0.0077 43:0.0077 44:0 45:0 46:0 47:0.0462 48:0 49:0 
1 0:0 1:0 2:0 3:0 4:0 5:0 6:0 7:0 8:0.0548 9:0.0548 10:0.1644 11:0.2603 12:0.1918 13:0.2603 14:0.2603 15:0.3973 16:0.4521 17:0.3562 18:0.411 19:0.3562 20:0.3836 21:0.3562 22:0.274 23:0.137 24:0.2329 25:0.411 26:0.4521 27:0.4384 28:0.5205 29:0.3836 30:0.4658 31:0.6849 32:0.6712 33:0.589 34:0.3562 35:0.3425 36:0.2192 37:0.1918 38:0.3425 39:0.2466 40:0.2329 41:0.1918 42:0.1096 43:0.1233 44:0.2329 45:0.2329 46:0.1233 47:0.1644 48:0.1096 49:0.0548 
1 0:0.0758 1:0.0909 2:0.1061 3:0.1212 4:0.1667 5:0.1818 6:0.2424 7:0.1515 8:0.2424 9:0.4394 10:0.3333 11:0.4091 12:0.3485 13:0.4394 14:0.7576 15:0.4848 16:0.6515 17:0.5909 18:0.5909 19:0.5909 20:0.6061 21:0.5758 22:0.6818 23:0.6818 24:0.5909 25:0.4545 26:0.5758 27:0.4848 28:0.4848 29:0.5455 30:0.5758 31:0.5758 32:0.6061 33:0.6515 34:0.5758 35:0.5152 36:0.4242 37:0.6212 38:0.6364 39:0.4242 40:0.2576 41:0.4242 42:0.2727 43:0.197 44:0.1667 45:0.1364 46:0.1818 47:0.1061 48:0.1515 49:0.0758 
1 0:0.1622 1:0.1351 2:0.0811 3:0.2432 4:0.1622 5:0.1757 6:0.1757 7:0.1757 8:0.1757 9:0.2432 10:0.2027 11:0.3108 12:0.2162 13:0.2703 14:0.1757 15:0.2838 16:0.1892 17:0.3784 18:0.2297 19:0.2973 20:0.2838 21:0.3108 22:0.3243 23:0.3108 24:0.3514 25:0.2838 26:0.2568 27:0.4189 28:0.3649 29:0.2838 30:0.3784 31:0.3784 32:0.3784 33:0.4054 34:0.2568 35:0.3514 36:0.4324 37:0.5946 38:0.5405 39:0.2703 40:0.1081 41:0.0811 42:0.0811 43:0 44:0.027 45:0.0135 46:0 47:0 48:0.0405 49:0.0405 
1 0:0 1:0 2:0 3:0 4:0 5:0.027 6:0.0676 7:0.1081 8:0.1486 9:0.1757 10:0.2973 11:0.4054 12:0.4865 13:0.6351 14:0.5946 15:0.6486 16:0.6622 17:0.6892 18:0.5676 19:0.5811 20:0.5135 21:0.6216 22:0.4865 23:0.2297 24:0.0946 25:0.2162 26:0.2703 27:0.2297 28:0.3514 29:0.1351 30:0.1351 31:0.1486 32:0.2297 33:0.0946 34:0.1486 35:0.1757 36:0.0405 37:0.0405 38:0 39:0 40:0 41:0 42:0 43:0 44:0 45:0 46:0 47:0.0405 48:0.027 49:0 
1 0:0 1:0 2:0 3:0 4:0 5:0 6:0 7:0 8:0 9:0 10:0 11:0 12:0 13:0 14:0 15:0 16:0.0568 17:0.0795 18:0.1364 19:0.1136 20:0.25 21:0.2386 22:0.3636 23:0.4318 24:0.4091 25:0.5455 26:0.6136 27:0.5114 28:0.5909 29:0.5795 30:0.625 31:0.6364 32:0.6705 33:0.7159 34:0.6136 35:0.6705 36:0.2159 37:0.1023 38:0.0341 39:0 40:0 41:0 42:0 43:0 44:0 45:0 46:0 47:0 48:0 49:0 
1 0:0 1:0 2:0.1757 3:0.2703 4:0.1757 5:0.0811 6:0.0541 7:0.1081 8:0.027 9:0.0811 10:0.0405 11:0.1622 12:0.0946 13:0.0811 14:0.1351 15:0.1216 16:0.0946 17:0.1216 18:0.2027 19:0.3514 20:0.2297 21:0.2703 22:0.2162 23:0.2432 24:0.2162 25:0.2838 26:0.3243 27:0.3243 28:0.2838 29:0.3919 30:0.3514 31:0.4054 32:0.2973 33:0.4324 34:0.3919 35:0.5 36:0.6216 37:0.3784 38:0.3378 39:0.0811 40:0.0135 41:0 42:0 43:0 44:0 45:0 46:0 47:0 48:0 49:0 
1 0:0.2933 1:0.28 2:0.3333 3:0.36 4:0.3333 5:0.3467 6:0.4133 7:0.4 8:0.4133 9:0.3867 10:0.4 11:0.4133 12:0.3467 13:0.36 14:0.32 15:0.4133 16:0.4 17:0.4133 18:0.3867 19:0.52 20:0.5467 21:0.48 22:0.6133 23:0.6267 24:0.64 25:0.6533 26:0.72 27:0.6 28:0.6933 29:0.6933 30:0.6667 31:0.7333 32:0.76 33:0.76 34:0.6667 35:0.68 36:0.6667 37:0.64 38:0.5867 39:0.4933 40:0.5867 41:0.4667 42:0.3067 43:0.28 44:0.1467 45:0.08 46:0.0667 47:0.08 48:0.1067 49:0.0667 
1 0:0 1:0 2:0 3:0.0103 4:0.0309 5:0.0515 6:0.0928 7:0.1134 8:0.1753 9:0.2165 10:0.2784 11:0.2887 12:0.268 13:0.3299 14:0.3608 15:0.3402 16:0.3505 17:0.3814 18:0.433 19:0.5361 20:0.6392 21:0.6598 22:0.6289 23:0.6907 24:0.6701 25:0.6186 26:0.7113 27:0.7216 28:0.6495 29:0.6804 30:0.6289 31:0.567 32:0.6186 33:0.5567 34:0.5361 35:0.4948 36:0.5155 37:0.5052 38:0.5464 39:0.5155 40:0.5567 41:0.5876 42:0.4639 43:0.433 44:0.1959 45:0.1031 46:0.0825 47:0.1443 48:0.0928 49:0.1546 
1 0:0 1:0 2:0.0341 3:0.0795 4:0.0682 5:0.1136 6:0.1705 7:0.1477 8:0.0682 9:0.125 10:0.1705 11:0.1932 12:0.1477 13:0.1818 14:0.1818 15:0.3068 16:0.2955 17:0.3068 18:0.2386 19:0.2386 20:0.2273 21:0.2273 22:0.1818 23:0.2159 24:0.2045 25:0.2841 26:0.3068 27:0.2955 28:0.2159 29:0.3182 30:0.3182 31:0.4205 32:0.3295 33:0.3182 34:0.2727 35:0.25 36:0.3295 37:0.25 38:0.1591 39:0.1932 40:0.1364 41:0.0909 42:0.0341 43:0.0227 44:0.0227 45:0 46:0 47:0 48:0 49:0 
1 0:0.0303 1:0.0152 2:0.0606 3:0.0455 4:0.1212 5:0.1515 6:0.1818 7:0.303 8:0.2879 9:0.2727 10:0.303 11:0.3636 12:0.2879 13:0.3333 14:0.3485 15:0.3333 16:0.5 17:0.6212 18:0.4848 19:0.5152 20:0.5909 21:0.5303 22:0.7424 23:0.7576 24:0.7121 25:0.7576 26:0.5758 27:0.5152 28:0.7121 29:0.6364 30:0.5606 31:0.6364 32:0.6061 33:0.6818 34:0.5606 35:0.5606 36:0.5303 37:0.5303 38:0.4848 39:0.3333 40:0.5455 41:0.4242 42:0.2879 43:0.3636 44:0.3333 45:0.3333 46:0.5 47:0.3333 48:0.1515 49:0.1667 
0.7778288492995736 0:0 1:0 2:0 3:0 4:0 5:0 6:0.0541 7:0.2703 8:0.4054 9:0.7027 10:0.6892 11:0.5676 12:0.5811 13:0.6622 14:0.7432 15:0.7973 16:0.7568 17:0.7162 18:0.7162 19:0.7162 20:0.5811 21:0.3649 22:0.3243 23:0.4324 24:0.3108 25:0.1892 26:0.2162 27:0.2568 28:0.2838 29:0.4324 30:0.5405 31:0.5676 32:0.5811 33:0.6081 34:0.7027 35:0.4865 36:0.5946 37:0.5676 38:0.473 39:0.5405 40:0.5 41:0.5 42:0.4054 43:0.2973 44:0.3784 45:0.3919 46:0.4459 47:0.3649 48:0.3108 49:0.4595 
1 0:0 1:0 2:0.2297 3:0.0135 4:0.1351 5:0.0135 6:0 7:0 8:0.027 9:0.0405 10:0.0811 11:0.0676 12:0.1351 13:0.1622 14:0.2973 15:0.3514 16:0.4189 17:0.4459 18:0.4324 19:0.5676 20:0.5405 21:0.5135 22:0.5135 23:0.4324 24:0.3243 25:0.3649 26:0.3243 27:0.2432 28:0.2568 29:0.1622 30:0.2568 31:0.3378 32:0.2568 33:0.3108 34:0.2568 35:0.3108 36:0.2838 37:0.1351 38:0.1351 39:0.0676 40:0.1351 41:0.0811 42:0.0946 43:0.0135 44:0.0405 45:0.027 46:0.0405 47:0.0946 48:0.0676 49:0.0541 
1 0:0.0946 1:0.0676 2:0.0135 3:0.1081 4:0.0946 5:0.1351 6:0.1351 7:0.1892 8:0.1486 9:0.1622 10:0.2297 11:0.3108 12:0.4054 13:0.5541 14:0.5946 15:0.6486 16:0.6757 17:0.8919 18:0.8784 19:0.8108 20:0.7838 21:0.5405 22:0.5676 23:0.5811 24:0.6351 25:0.4595 26:0.473 27:0.4324 28:0.4054 29:0.4054 30:0.3108 31:0.3649 32:0.2973 33:0.2703 34:0.3649 35:0.3108 36:0.3108 37:0.3108 38:0.3378 39:0.2568 40:0.2297 41:0.1622 42:0.2162 43:0.2568 44:0.2297 45:0.1757 46:0.1622 47:0.0946 48:0.0946 49:0.0135 
1 0:0 1:0.0122 2:0 3:0 4:0 5:0.0122 6:0.0122 7:0 8:0.0366 9:0.061 10:0.1341 11:0.1098 12:0.1707 13:0.1585 14:0.1341 15:0.1829 16:0.1829 17:0.2805 18:0.2805 19:0.3659 20:0.3293 21:0.3537 22:0.5244 23:0.5976 24:0.5854 25:0.4756 26:0.5732 27:0.5854 28:0.439 29:0.5 30:0.439 31:0.5122 32:0.6341 33:0.5854 34:0.5976 35:0.6463 36:0.4146 37:0.1341 38:0.1951 39:0.122 40:0.0854 41:0.0854 42:0.0854 43:0.0488 44:0.0854 45:0.0244 46:0.0244 47:0 48:0 49:0 
1 0:0.1758 1:0.1758 2:0.1538 3:0.2308 4:0.3077 5:0.3077 6:0.3956 7:0.4835 8:0.6923 9:0.6593 10:0.6264 11:0.6044 12:0.5385 13:0.5495 14:0.5824 15:0.6044 16:0.6374 17:0.6923 18:0.7143 19:0.7253 20:0.4835 21:0.5165 22:0.5824 23:0.5604 24:0.6374 25:0.6923 26:0.7253 27:0.6484 28:0.5934 29:0.6484 30:0.5604 31:0.5385 32:0.6154 33:0.6703 34:0.7912 35:0.6923 36:0.7582 37:0.5165 38:0.4945 39:0.4286 40:0.2747 41:0.1538 42:0.1429 43:0.1429 44:0.1099 45:0.1758 46:0.2967 47:0.3187 48:0.1099 49:0.1099 
1 0:0.0244 1:0 2:0 3:0 4:0.0122 5:0.0366 6:0.0122 7:0.0122 8:0 9:0 10:0 11:0 12:0 13:0.0122 14:0 15:0 16:0 17:0.0122 18:0.0244 19:0.0366 20:0 21:0 22:0 23:0 24:0 25:0 26:0 27:0 28:0 29:0 30:0.1463 31:0.3049 32:0.3902 33:0.561 34:0.561 35:0.6341 36:0.6098 37:0.5 38:0.5 39:0.3659 40:0.2439 41:0.0366 42:0 43:0 44:0 45:0 46:0 47:0 48:0 49:0 
1 0:0.0152 1:0 2:0 3:0.0303 4:0.0152 5:0.0303 6:0.0909 7:0.0909 8:0.1515 9:0.197 10:0.1515 11:0.1364 12:0.1515 13:0.2879 14:0.4697 15:0.5606 16:0.7727 17:0.8182 18:0.7273 19:0.7424 20:0.6667 21:0.5909 22:0.5758 23:0.5758 24:0.5455 25:0.5909 26:0.5455 27:0.4394 28:0.3485 29:0.1061 30:0.3939 31:0.2576 32:0.2727 33:0.2576 34:0.3939 35:0.2576 36:0.3182 37:0.4545 38:0.4242 39:0.4091 40:0.3182 41:0.4091 42:0.4091 43:0.3485 44:0.3485 45:0.3333 46:0.2576 47:0.303 48:0.1364 49:0.1515 
1 0:0 1:0 2:0 3:0.0133 4:0.0133 5:0.0133 6:0 7:0.04 8:0.04 9:0.0667 10:0.0533 11:0.0667 12:0.1067 13:0.0933 14:0.08 15:0.08 16:0.08 17:0.0133 18:0.1067 19:0.1067 20:0.12 21:0.1333 22:0.0933 23:0.2 24:0.28 25:0.12 26:0.24 27:0.2 28:0.2533 29:0.24 30:0.3867 31:0.44 32:0.5867 33:0.6667 34:0.5733 35:0.6 36:0.56 37:0.48 38:0.52 39:0.4267 40:0.4667 41:0.3867 42:0.28 43:0.2267 44:0.08 45:0.0133 46:0.0133 47:0 48:0 49:0 
1 0:0.0303 1:0.101 2:0.1111 3:0.101 4:0.2121 5:0.1919 6:0.1414 7:0.3333 8:0.1414 9:0.1919 10:0.1212 11:0.1818 12:0.0909 13:0.0606 14:0.0303 15:0.0505 16:0.1212 17:0.3131 18:0.4444 19:0.4444 20:0.1919 21:0.2323 22:0.2727 23:0.1717 24:0.3131 25:0.5556 26:0.5152 27:0.5758 28:0.4545 29:0.6566 30:0.6263 31:0.5556 32:0.596 33:0.4343 34:0.3737 35:0.6364 36:0.3636 37:0.3737 38:0.3737 39:0.3131 40:0.1414 41:0.3232 42:0 43:0.0202 44:0 45:0.0303 46:0.0202 47:0.0606 48:0.101 49:0 
1 0:0.0135 1:0 2:0.0135 3:0.0541 4:0.0405 5:0.1486 6:0.2703 7:0.2568 8:0.2432 9:0.3108 10:0.3243 11:0.4459 12:0.4189 13:0.473 14:0.4189 15:0.4054 16:0.3784 17:0.3919 18:0.3514 19:0.3784 20:0.2973 21:0.4459 22:0.5405 23:0.6351 24:0.6081 25:0.5135 26:0.6216 27:0.5676 28:0.5541 29:0.3919 30:0.473 31:0.5676 32:0.527 33:0.1486 34:0.1757 35:0.2027 36:0.3514 37:0.4324 38:0.4459 39:0.3243 40:0.3784 41:0.2568 42:0.1757 43:0.1622 44:0.1081 45:0.0676 46:0.0541 47:0.027 48:0.0811 49:0.027 
1 0:0.02 1:0 2:0.02 3:0 4:0.02 5:0.04 6:0.12 7:0.14 8:0.14 9:0.12 10:0.12 11:0.14 12:0.1 13:0.12 14:0.24 15:0.1 16:0.24 17:0.4 18:0.34 19:0.36 20:0.38 21:0.26 22:0.26 23:0.32 24:0.26 25:0.34 26:0.26 27:0.32 28:0.32 29:0.3 30:0.22 31:0.26 32:0.24 33:0.24 34:0.24 35:0.16 36:0.22 37:0.3 38:0.18 39:0.14 40:0.1 41:0.08 42:0.02 43:0.02 44:0 45:0 46:0 47:0 48:0 49:0 
1 0:0 1:0 2:0 3:0 4:0 5:0.012 6:0.0361 7:0.0964 8:0.1205 9:0.1205 10:0.2048 11:0.2651 12:0.4819 13:0.5181 14:0.5542 15:0.4819 16:0.506 17:0.5181 18:0.6024 19:0.7229 20:0.7831 21:0.759 22:0.759 23:0.8193 24:0.759 25:0.7229 26:0.2892 27:0.241 28:0.1687 29:0.1205 30:0.0482 31:0.012 32:0 33:0 34:0 35:0 36:0 37:0 38:0 39:0 40:0 41:0 42:0 43:0 44:0 45:0 46:0 47:0 48:0 49:0 
1 0:0 1:0 2:0 3:0 4:0 5:0 6:0.0909 7:0.0227 8:0.0341 9:0.0455 10:0.0227 11:0.0341 12:0.0795 13:0.0455 14:0.0568 15:0.1136 16:0.0909 17:0.0909 18:0.25 19:0.2159 20:0.3295 21:0.4659 22:0.6136 23:0.5 24:0.5227 25:0.5 26:0.5341 27:0.5682 28:0.5114 29:0.4773 30:0.5114 31:0.4432 32:0.5227 33:0.3409 34:0.4205 35:0.4318 36:0.4205 37:0.4545 38:0.4091 39:0.3977 40:0.3182 41:0.3182 42:0.1932 43:0.2614 44:0.1818 45:0.0682 46:0 47:0.0114 48:0 49:0.0114 
1 0:0 1:0 2:0.1622 3:0.0811 4:0.1081 5:0.1622 6:0.2162 7:0.1622 8:0.4865 9:0.4865 10:0.4054 11:0.4324 12:0.3784 13:0.4324 14:0.4324 15:0.5676 16:0.3243 17:0.4054 18:0.4324 19:0.4595 20:0.2973 21:0.4054 22:0.3784 23:0.4324 24:0.4324 25:0.5135 26:0.3514 27:0.2703 28:0.1622 29:0.2703 30:0.4054 31:0.3784 32:0.3784 33:0.4054 34:0.5676 35:0.4054 36:0.2703 37:0.3514 38:0.2973 39:0.3243 40:0.3784 41:0.2973 42:0.2162 43:0.1351 44:0.0811 45:0.1622 46:0 47:0.027 48:0.1081 49:0.1081 
1 0:0.0364 1:0.0727 2:0.0909 3:0.1455 4:0.1455 5:0.1636 6:0.2545 7:0.3091 8:0.3091 9:0.3455 10:0.3273 11:0.3636 12:0.4364 13:0.4364 14:0.4727 15:0.5273 16:0.5273 17:0.4182 18:0.4909 19:0.5091 20:0.4545 21:0.4727 22:0.3273 23:0.3818 24:0.5455 25:0.5455 26:0.5636 27:0.6545 28:0.6364 29:0.5091 30:0.5636 31:0.6182 32:0.5818 33:0.4727 34:0.6182 35:0.5273 36:0.4182 37:0.3455 38:0.3636 39:0.3636 40:0.2545 41:0.2364 42:0.2 43:0.2 44:0.1636 45:0.0545 46:0.0364 47:0.0364 48:0 49:0.0182 
1 0:0 1:0 2:0 3:0 4:0 5:0 6:0 7:0 8:0.0147 9:0.1324 10:0.1029 11:0.1765 12:0.1471 13:0.2206 14:0.2059 15:0.3235 16:0.3971 17:0.3382 18:0.2647 19:0.3235 20:0.3676 21:0.3824 22:0.4559 23:0.6765 24:0.6912 25:0.6765 26:0.7059 27:0.8088 28:0.7059 29:0.7059 30:0.5882 31:0.6765 32:0.6029 33:0.6471 34:0.5441 35:0.4412 36:0.4559 37:0.2353 38:0.3235 39:0.2941 40:0.2794 41:0.0588 42:0.2353 43:0.1471 44:0.0735 45:0.0882 46:0.1029 47:0.0588 48:0.0588 49:0.1029 
1 0:0.1205 1:0.1928 2:0.2048 3:0.241 4:0.3614 5:0.3976 6:0.4337 7:0.506 8:0.6145 9:0.6506 10:0.7229 11:0.7711 12:0.759 13:0.747 14:0.7831 15:0.7108 16:0.747 17:0.6988 18:0.6867 19:0.6506 20:0.6867 21:0.8072 22:0.7349 23:0.7108 24:0.7108 25:0.5542 26:0.7349 27:0.7831 28:0.7952 29:0.6506 30:0.6627 31:0.5904 32:0.6867 33:0.6386 34:0.494 35:0.4337 36:0.4337 37:0.2771 38:0.2289 39:0.2169 40:0.1084 41:0.0482 42:0.0241 43:0.012 44:0 45:0.012 46:0 47:0 48:0 49:0 
1 0:0 1:0 2:0 3:0 4:0 5:0 6:0 7:0.027 8:0 9:0.027 10:0.027 11:0.0541 12:0.027 13:0.1351 14:0.1757 15:0.3108 16:0.2568 17:0.3108 18:0.4054 19:0.4595 20:0.5 21:0.527 22:0.5405 23:0.5405 24:0.2568 25:0.2162 26:0.1486 27:0.0811 28:0.0405 29:0 30:0 31:0.0541 32:0.1622 33:0.1622 34:0.2432 35:0.2162 36:0.2432 37:0.3514 38:0.3378 39:0.2027 40:0.1351 41:0.0811 42:0.027 43:0 44:0 45:0.027 46:0 47:0.0405 48:0.027 49:0.0135 
1 0:0.1667 1:0.2273 2:0.1212 3:0.1364 4:0.1212 5:0.1364 6:0.1364 7:0.197 8:0.1515 9:0.1667 10:0.2424 11:0.197 12:0.3182 13:0.3636 14:0.3788 15:0.2424 16:0.4394 17:0.5606 18:0.6061 19:0.6364 20:0.7576 21:0.803 22:0.8485 23:0.7879 24:0.8636 25:0.8636 26:0.8636 27:0.9394 28:0.8333 29:0.8485 30:0.8182 31:0.803 32:0.7879 33:0.7727 34:0.8485 35:0.7576 36:0.8485 37:0.6818 38:0.697 39:0.6667 40:0.6364 41:0.6212 42:0.5 43:0.5152 44:0.2576 45:0.303 46:0.2879 47:0.1667 48:0.1061 49:0.0303 
1 0:0 1:0 2:0 3:0 4:0 5:0 6:0 7:0 8:0 9:0.3182 10:0.303 11:0.3333 12:0.3788 13:0.2576 14:0.3333 15:0.2879 16:0.3485 17:0.3333 18:0.3182 19:0.4091 20:0.2879 21:0.3333 22:0.2879 23:0.3636 24:0.2576 25:0.2879 26:0.2576 27:0.2879 28:0.3182 29:0.3939 30:0.2727 31:0.3333 32:0.4242 33:0.4242 34:0.2727 35:0.2879 36:0.2727 37:0.3333 38:0.3485 39:0.2879 40:0.3333 41:0.3333 42:0.2576 43:0.5455 44:0 45:0 46:0 47:0 48:0 49:0 
1 0:0 1:0 2:0 3:0.0135 4:0.1081 5:0.2162 6:0.1757 7:0.5 8:0.2838 9:0.1622 10:0.0946 11:0.0946 12:0.1081 13:0.0676 14:0.1216 15:0.1757 16:0.1892 17:0.2973 18:0.5405 19:0.2297 20:0.3378 21:0.2973 22:0.1486 23:0.2162 24:0.4459 25:0.2027 26:0.3108 27:0.3108 28:0.2568 29:0.2838 30:0.2162 31:0.2297 32:0.3378 33:0.5135 34:0.3108 35:0.1081 36:0.1351 37:0.2568 38:0.2703 39:0.2973 40:0.0946 41:0 42:0.0135 43:0.0946 44:0.027 45:0.0405 46:0.0135 47:0 48:0 49:0.0135 
1 0:0.0317 1:0.0159 2:0.0317 3:0.0794 4:0.1111 5:0.0952 6:0.1111 7:0.1429 8:0.1905 9:0.0635 10:0.1905 11:0.127 12:0.2381 13:0.254 14:0.3651 15:0.3016 16:0.2698 17:0.3651 18:0.3651 19:0.4762 20:0.5238 21:0.6508 22:0.3333 23:0.5079 24:0.4921 25:0.5397 26:0.6667 27:0.6032 28:0.5556 29:0.5714 30:0.619 31:0.5714 32:0.6349 33:0.5079 34:0.6349 35:0.5714 36:0.5397 37:0.5079 38:0.381 39:0.2857 40:0.3333 41:0.2222 42:0.1905 43:0.2381 44:0.2222 45:0.2063 46:0.2063 47:0.1905 48:0.2063 49:0.1429 
1 0:0.1646 1:0.1392 2:0.2532 3:0.2532 4:0.1772 5:0.3418 6:0.3418 7:0.4557 8:0.443 9:0.4684 10:0.5316 11:0.6456 12:0.6329 13:0.5823 14:0.5949 15:0.5696 16:0.6835 17:0.7342 18:0.6203 19:0.6203 20:0.6076 21:0.5443 22:0.5949 23:0.6076 24:0.6203 25:0.6076 26:0.5823 27:0.5696 28:0.6203 29:0.6962 30:0.5696 31:0.6456 32:0.6076 33:0.6456 34:0.6709 35:0.4557 36:0.3924 37:0.4304 38:0.3797 39:0.3038 40:0.4177 41:0.4304 42:0.2911 43:0.2152 44:0.2278 45:0.2278 46:0.1646 47:0.2278 48:0.0253 49:0.0253 
1 0:0.012 1:0.0241 2:0.0361 3:0.0241 4:0.0361 5:0.0241 6:0.0602 7:0.0482 8:0.0482 9:0.0723 10:0.0723 11:0.0843 12:0.1084 13:0.0602 14:0.1084 15:0.0602 16:0.1325 17:0.1205 18:0.241 19:0.2048 20:0.1928 21:0.2289 22:0.2048 23:0.2289 24:0.2289 25:0.2048 26:0.3373 27:0.253 28:0.3373 29:0.4699 30:0.3614 31:0.3012 32:0.3133 33:0.1928 34:0.1687 35:0.4458 36:0.3012 37:0.3253 38:0.2651 39:0.012 40:0 41:0 42:0.012 43:0 44:0 45:0 46:0.012 47:0 48:0 49:0 
1 0:0 1:0 2:0 3:0 4:0 5:0 6:0 7:0 8:0 9:0 10:0 11:0 12:0 13:0 14:0 15:0 16:0.0152 17:0 18:0.0152 19:0.0152 20:0.0455 21:0 22:0.0758 23:0.0606 24:0.0455 25:0 26:0.0152 27:0.0455 28:0.1667 29:0.2727 30:0.3333 31:0.4697 32:0.803 33:0.8636 34:0.8333 35:0.8788 36:0.7121 37:0.6515 38:0.4697 39:0.2424 40:0.0909 41:0.0455 42:0.0303 43:0.0606 44:0.1212 45:0.0303 46:0.1061 47:0.1515 48:0.197 49:0.0758 
1 0:0.2179 1:0.0385 2:0 3:0.0897 4:0.0128 5:0 6:0.0769 7:0.1667 8:0.4744 9:0.4103 10:0.3974 11:0.6923 12:0.4872 13:0.6667 14:0.6154 15:0.6282 16:0.6667 17:0.7179 18:0.6538 19:0.7308 20:0.6923 21:0.8077 22:0.5513 23:0.6923 24:0.7692 25:0.8077 26:0.5641 27:0.6667 28:0.6795 29:0.5769 30:0.7308 31:0.7308 32:0.6026 33:0.5128 34:0.4359 35:0.6282 36:0.2692 37:0.1538 38:0.4744 39:0.359 40:0.4103 41:0.2949 42:0.2692 43:0.0897 44:0.0256 45:0.2308 46:0.1282 47:0.1282 48:0.1282 49:0.2949 
1 0:0.1343 1:0.1045 2:0.1194 3:0.1343 4:0.1791 5:0.1642 6:0.2239 7:0.4478 8:0.4328 9:0.5075 10:0.4925 11:0.4776 12:0.4627 13:0.6119 14:0.6418 15:0.6866 16:0.6866 17:0.6866 18:0.4925 19:0.4776 20:0.5224 21:0.403 22:0.6119 23:0.4776 24:0.5373 25:0.3881 26:0.4776 27:0.4776 28:0.4776 29:0.403 30:0.3284 31:0.3134 32:0.1791 33:0.1493 34:0.1642 35:0.2836 36:0.209 37:0.194 38:0.0896 39:0.1791 40:0.194 41:0.0746 42:0.0299 43:0.0299 44:0.1045 45:0 46:0 47:0 48:0.0299 49:0.0597 
1 0:0 1:0 2:0 3:0.026 4:0.039 5:0.0519 6:0.0649 7:0.1039 8:0.1039 9:0.1169 10:0.2078 11:0.3247 12:0.3247 13:0.2857 14:0.4026 15:0.5455 16:0.4545 17:0.5844 18:0.4935 19:0.5584 20:0.5455 21:0.5065 22:0.4416 23:0.3896 24:0.4286 25:0.3247 26:0.1429 27:0.1429 28:0.2208 29:0.3377 30:0.3506 31:0.3247 32:0.2987 33:0.2857 34:0.2468 35:0.2727 36:0.2987 37:0.2597 38:0.2597 39:0.2987 40:0.1688 41:0.2338 42:0.1299 43:0.1558 44:0.013 45:0.0779 46:0.026 47:0.039 48:0.0519 49:0.039 
1 0:0.0933 1:0.1467 2:0.1333 3:0.24 4:0.1867 5:0.1333 6:0.3467 7:0.2 8:0.0267 9:0.4 10:0.3867 11:0.3867 12:0.4667 13:0.7867 14:0.4533 15:0.3067 16:0.4133 17:0.56 18:0.4133 19:0.7333 20:0.6667 21:0.4267 22:0.4667 23:0.6133 24:0.52 25:0.5733 26:0.5467 27:0.4933 28:0.4133 29:0.4133 30:0.4133 31:0.4667 32:0.36 33:0.5333 34:0.4533 35:0.52 36:0.3867 37:0.28 38:0.3067 39:0.2533 40:0.1333 41:0.1467 42:0.2667 43:0.16 44:0.12 45:0.1067 46:0.04 47:0.12 48:0.0533 49:0.0133 
1 0:0.075 1:0.1 2:0.025 3:0.1 4:0.1 5:0.125 6:0.125 7:0.075 8:0.15 9:0.15 10:0.15 11:0.15 12:0.175 13:0.175 14:0.25 15:0.275 16:0.325 17:0.325 18:0.5 19:0.325 20:0.45 21:0.4 22:0.425 23:0.375 24:0.325 25:0.25 26:0.225 27:0.3 28:0.275 29:0.325 30:0.35 31:0.35 32:0.45 33:0.325 34:0.5 35:0.475 36:0.525 37:0.35 38:0.475 39:0.4 40:0.35 41:0.45 42:0.275 43:0.45 44:0.125 45:0.225 46:0.25 47:0.075 48:0.175 49:0.1 
1 0:0 1:0 2:0 3:0 4:0.0152 5:0 6:0.0303 7:0.0303 8:0.0303 9:0.0303 10:0.0303 11:0.0303 12:0.0455 13:0.0303 14:0.0455 15:0.0758 16:0.0758 17:0.1515 18:0.1061 19:0.1667 20:0.1061 21:0.0758 22:0.1212 23:0.2121 24:0.197 25:0.197 26:0.1364 27:0.1212 28:0.1515 29:0.1212 30:0.1515 31:0.1667 32:0.1818 33:0.303 34:0.3485 35:0.4091 36:0.5303 37:0.5758 38:0.4848 39:0.3636 40:0.3939 41:0.197 42:0.0455 43:0.0303 44:0.0909 45:0.0303 46:0 47:0 48:0.0455 49:0.0303 
1 0:0.0152 1:0.1212 2:0.1364 3:0.1212 4:0.1212 5:0.1667 6:0.2121 7:0.2576 8:0.2273 9:0.3636 10:0.303 11:0.4091 12:0.4697 13:0.4545 14:0.4545 15:0.5455 16:0.4697 17:0.6818 18:0.5606 19:0.6212 20:0.5152 21:0.4697 22:0.3485 23:0.4242 24:0.4091 25:0.4091 26:0.303 27:0.303 28:0.2576 29:0.1515 30:0.197 31:0.2576 32:0.1818 33:0.1667 34:0.1364 35:0.0606 36:0.1515 37:0.0758 38:0.2424 39:0.1818 40:0.1667 41:0.1364 42:0.2273 43:0.1061 44:0.0152 45:0.0455 46:0.0606 47:0.0152 48:0.0152 49:0 
1 0:0 1:0 2:0 3:0 4:0 5:0 6:0 7:0 8:0 9:0.0149 10:0.0448 11:0.0448 12:0.0448 13:0.0448 14:0.0299 15:0.0896 16:0.1194 17:0.0746 18:0.1343 19:0.1493 20:0.0896 21:0.2985 22:0.3582 23:0.3731 24:0.4179 25:0.4776 26:0.5821 27:0.6418 28:0.7015 29:0.6269 30:0.7164 31:0.597 32:0.6716 33:0.6567 34:0.7015 35:0.6269 36:0.6716 37:0.6567 38:0.5821 39:0.6567 40:0.5373 41:0.5672 42:0.5672 43:0 44:0 45:0 46:0 47:0 48:0 49:0 
1 0:0.54 1:0.46 2:0.38 3:0.34 4:0.36 5:0.18 6:0.24 7:0.34 8:0.38 9:0.38 10:0.42 11:0.46 12:0.74 13:0.76 14:0.68 15:0.58 16:0.56 17:0.58 18:0.64 19:0.82 20:0.66 21:0.78 22:0.68 23:0.26 24:0.42 25:0.34 26:0.2 27:0.3 28:0.5 29:0.48 30:0.48 31:0.34 32:0.28 33:0.24 34:0.32 35:0.24 36:0.22 37:0.26 38:0.12 39:0.1 40:0 41:0 42:0 43:0 44:0 45:0 46:0 47:0 48:0 49:0 
1 0:0.0135 1:0.027 2:0.027 3:0.0135 4:0.0135 5:0.027 6:0.0676 7:0.0676 8:0.027 9:0.0676 10:0.0541 11:0.1216 12:0.1216 13:0.1351 14:0.1757 15:0.1351 16:0.1757 17:0.1351 18:0.1486 19:0.1622 20:0.1216 21:0.2297 22:0.2297 23:0.1892 24:0.1486 25:0.1757 26:0.2027 27:0.2297 28:0.2703 29:0.4189 30:0.4595 31:0.4459 32:0.473 33:0.6081 34:0.5541 35:0.5541 36:0.5811 37:0.6081 38:0.6486 39:0.3784 40:0.4595 41:0.3378 42:0.3108 43:0.1757 44:0.1892 45:0.2568 46:0.2568 47:0.1622 48:0.0946 49:0.1081 
1 0:0 1:0 2:0 3:0 4:0.0484 5:0.0806 6:0.0968 7:0.1048 8:0.1371 9:0.1532 10:0.2177 11:0.1855 12:0.2177 13:0.2258 14:0.2097 15:0.2177 16:0.2419 17:0.2419 18:0.2903 19:0.4355 20:0.4032 21:0.4597 22:0.4516 23:0.5081 24:0.5323 25:0.621 26:0.6048 27:0.6694 28:0.6935 29:0.621 30:0.6774 31:0.7016 32:0.7016 33:0.6532 34:0.6452 35:0.6694 36:0.5806 37:0.371 38:0.2016 39:0.1532 40:0.1048 41:0.0726 42:0.0645 43:0.0323 44:0.0242 45:0 46:0.0081 47:0 48:0 49:0 
1 0:0 1:0 2:0 3:0 4:0 5:0.0405 6:0.0541 7:0.0676 8:0.1081 9:0.0811 10:0.0946 11:0.1081 12:0.1216 13:0.1486 14:0.1757 15:0.1622 16:0.1757 17:0.2027 18:0.1216 19:0.2568 20:0.2973 21:0.2162 22:0.2432 23:0.2973 24:0.2162 25:0.2568 26:0.2162 27:0.2432 28:0.2703 29:0.5541 30:0.4595 31:0.6757 32:0.4595 33:0.6081 34:0.4865 35:0.5135 36:0.5135 37:0.5405 38:0.527 39:0.6216 40:0.6622 41:0.5135 42:0.5405 43:0.2838 44:0.2568 45:0.1351 46:0.0676 47:0.0676 48:0.0676 49:0.0135 
1 0:0.1023 1:0.0795 2:0.0909 3:0 4:0.0341 5:0.0568 6:0.0909 7:0.0114 8:0.0227 9:0.0227 10:0.0114 11:0.0682 12:0.1023 13:0.1932 14:0.1932 15:0.0909 16:0.1364 17:0.1364 18:0.1477 19:0.25 20:0.2045 21:0.3636 22:0.25 23:0.4545 24:0.4659 25:0.3636 26:0.4091 27:0.4773 28:0.5341 29:0.4773 30:0.7273 31:0.5455 32:0.6136 33:0.5227 34:0.4318 35:0.4773 36:0.3636 37:0.3864 38:0.25 39:0.2273 40:0.1818 41:0.125 42:0.125 43:0.1364 44:0 45:0 46:0 47:0.0114 48:0 49:0 
1 0:0.0135 1:0 2:0 3:0 4:0 5:0 6:0.027 7:0.0541 8:0.0946 9:0.1486 10:0.1892 11:0.2838 12:0.2973 13:0.5405 14:0.6892 15:0.5811 16:0.6216 17:0.7297 18:0.6216 19:0.527 20:0.5 21:0.5676 22:0.6486 23:0.6892 24:0.7162 25:0.7297 26:0.6757 27:0.6486 28:0.7297 29:0.6216 30:0.5 31:0.4459 32:0.3649 33:0.2703 34:0.3649 35:0.5 36:0.4054 37:0.4054 38:0.5 39:0.473 40:0.2973 41:0.2703 42:0.3108 43:0.2432 44:0.2703 45:0.0811 46:0.1757 47:0.2027 48:0.2162 49:0.2703 
1 0:0 1:0 2:0 3:0 4:0.04 5:0.02 6:0.04 7:0 8:0.1 9:0.14 10:0.2 11:0.2 12:0.22 13:0.28 14:0.28 15:0.3 16:0.36 17:0.44 18:0.4 19:0.4 20:0.34 21:0.4 22:0.44 23:0.46 24:0.46 25:0.52 26:0.32 27:0.4 28:0.18 29:0.38 30:0.38 31:0.28 32:0.42 33:0.52 34:0.48 35:0.5 36:0.48 37:0.54 38:0.42 39:0.44 40:0.34 41:0.32 42:0.3 43:0.08 44:0.04 45:0 46:0 47:0 48:0 49:0.02 
1 0:0.3378 1:0.3243 2:0.3243 3:0.3919 4:0.5135 5:0.473 6:0.4595 7:0.3243 8:0.4324 9:0.4189 10:0.473 11:0.2838 12:0.4324 13:0.4054 14:0.473 15:0.527 16:0.5541 17:0.5946 18:0.6622 19:0.5811 20:0.6622 21:0.6892 22:0.5946 23:0.6081 24:0.5946 25:0.6351 26:0.5811 27:0.6486 28:0.5946 29:0.527 30:0.6216 31:0.5676 32:0.5811 33:0.473 34:0.3784 35:0.473 36:0.4595 37:0.2162 38:0.2568 39:0.1486 40:0.0405 41:0.0405 42:0.1216 43:0.0676 44:0.0135 45:0.027 46:0.0135 47:0.027 48:0.0135 49:0 
1 0:0 1:0 2:0 3:0 4:0 5:0.0133 6:0.0133 7:0.0133 8:0.0267 9:0.0133 10:0.04 11:0.0533 12:0.1067 13:0.16 14:0.0933 15:0.24 16:0.1867 17:0.2 18:0.1867 19:0.2 20:0.1867 21:0.2533 22:0.3067 23:0.28 24:0.28 25:0.24 26:0.2533 27:0.2933 28:0.28 29:0.3333 30:0.4533 31:0.48 32:0.5467 33:0.5333 34:0.4667 35:0.52 36:0.4533 37:0.44 38:0.4533 39:0.4667 40:0.4 41:0.28 42:0.3733 43:0.3333 44:0.3067 45:0.24 46:0.12 47:0.1067 48:0.04 49:0.0133 
1 0:0.0081 1:0.0081 2:0.0323 3:0.0323 4:0.0565 5:0.0726 6:0.0645 7:0.0806 8:0.0726 9:0.1129 10:0.121 11:0.1855 12:0.2984 13:0.3629 14:0.4839 15:0.5806 16:0.5565 17:0.621 18:0.7339 19:0.7339 20:0.6694 21:0.6532 22:0.621 23:0.5161 24:0.5242 25:0.5403 26:0.5 27:0.4194 28:0.4113 29:0.4274 30:0.3952 31:0.4597 32:0.4032 33:0.371 34:0.3871 35:0.4597 36:0.3952 37:0.3468 38:0.2984 39:0.4677 40:0.3629 41:0.2823 42:0.2177 43:0.121 44:0.0806 45:0.0726 46:0.0726 47:0.0161 48:0.0484 49:0.0323 
1 0:0.0811 1:0.1351 2:0.1757 3:0.2297 4:0.2027 5:0.2703 6:0.2162 7:0.3243 8:0.3649 9:0.4054 10:0.4054 11:0.4189 12:0.5 13:0.4865 14:0.5676 15:0.5541 16:0.5135 17:0.4865 18:0.5946 19:0.5405 20:0.5946 21:0.5541 22:0.5676 23:0.5676 24:0.5946 25:0.5135 26:0.5811 27:0.527 28:0.5135 29:0.473 30:0.3919 31:0.4459 32:0.4595 33:0.473 34:0.6622 35:0.5946 36:0.6351 37:0.6081 38:0.2703 39:0.1216 40:0.0676 41:0.027 42:0 43:0.0135 44:0.027 45:0 46:0 47:0 48:0 49:0 
1 0:0 1:0 2:0 3:0 4:0 5:0 6:0 7:0 8:0 9:0 10:0 11:0 12:0 13:0 14:0 15:0 16:0.0227 17:0.5 18:0.6364 19:0.7045 20:0.8864 21:0.9091 22:0.7955 23:0.7273 24:0.75 25:0.6818 26:0.5909 27:0.7273 28:0.6364 29:0.5682 30:0.6591 31:0.5 32:0.7045 33:0.6818 34:0.8409 35:0.5455 36:0.4091 37:0.4318 38:0.3636 39:0.3409 40:0.1818 41:0.2045 42:0.2955 43:0.2045 44:0.1364 45:0.0227 46:0.0455 47:0.1364 48:0.1591 49:0.1136 
1 0:0 1:0 2:0 3:0 4:0 5:0 6:0 7:0 8:0 9:0 10:0 11:0 12:0.06 13:0.06 14:0 15:0.06 16:0.04 17:0.1 18:0.06 19:0.06 20:0.06 21:0.06 22:0.08 23:0.1 24:0.08 25:0.08 26:0.08 27:0.2 28:0.14 29:0.22 30:0.3 31:0.5 32:0.64 33:0.64 34:0.8 35:0.66 36:0.6 37:0.68 38:0.54 39:0.52 40:0.28 41:0.32 42:0.3 43:0.12 44:0.04 45:0.14 46:0 47:0.06 48:0 49:0 
1 0:0.1067 1:0.1333 2:0.12 3:0.1333 4:0.1467 5:0.1333 6:0.2267 7:0.24 8:0.2267 9:0.1733 10:0.32 11:0.3467 12:0.44 13:0.4533 14:0.52 15:0.7867 16:0.8533 17:0.8533 18:0.7333 19:0.7467 20:0.72 21:0.7067 22:0.8267 23:0.6667 24:0.7067 25:0.6533 26:0.7067 27:0.64 28:0.5867 29:0.6667 30:0.5067 31:0.5733 32:0.4133 33:0.4133 34:0.4667 35:0.28 36:0.3733 37:0.2667 38:0.2933 39:0.2133 40:0.1867 41:0.1733 42:0.2 43:0.08 44:0.1067 45:0.0267 46:0.0933 47:0.0667 48:0.0667 49:0.0267 
1 0:0 1:0 2:0 3:0.0115 4:0.023 5:0.0345 6:0.0345 7:0.0115 8:0.0575 9:0.1149 10:0.0575 11:0.1034 12:0.0805 13:0.1034 14:0.1034 15:0.1379 16:0.1379 17:0.1494 18:0.1724 19:0.2184 20:0.1954 21:0.3793 22:0.3678 23:0.4138 24:0.3908 25:0.4828 26:0.4943 27:0.5402 28:0.4598 29:0.4598 30:0.4713 31:0.5632 32:0.6092 33:0.6437 34:0.6207 35:0.6437 36:0.5517 37:0.3448 38:0.1264 39:0.1264 40:0.0345 41:0.0115 42:0 43:0 44:0 45:0.0115 46:0 47:0.2299 48:0.0345 49:0.0115 
1 0:0 1:0 2:0 3:0 4:0 5:0.0114 6:0 7:0 8:0 9:0.0455 10:0.0795 11:0.0795 12:0.0795 13:0.1818 14:0.2727 15:0.3068 16:0.3295 17:0.3068 18:0.3068 19:0.2841 20:0.3977 21:0.4432 22:0.5341 23:0.4886 24:0.5227 25:0.6818 26:0.7614 27:0.5568 28:0.5455 29:0.6136 30:0.6364 31:0.6591 32:0.9091 33:0.3864 34:0.4432 35:0.6591 36:0.125 37:0.1932 38:0.0455 39:0.0114 40:0.1364 41:0.1591 42:0.1591 43:0.1477 44:0.1818 45:0.0909 46:0.125 47:0.0909 48:0.1364 49:0.1591 
1 0:0 1:0 2:0 3:0 4:0.0133 5:0.0667 6:0.0267 7:0.0533 8:0.04 9:0.0533 10:0.0533 11:0.16 12:0.08 13:0.1067 14:0.0667 15:0.0667 16:0.2533 17:0.1733 18:0.16 19:0.3867 20:0.4667 21:0.28 22:0.32 23:0.4 24:0.3867 25:0.2933 26:0.2267 27:0.2933 28:0.1867 29:0.2667 30:0.24 31:0.36 32:0.2533 33:0.28 34:0.2933 35:0.4133 36:0.32 37:0.4 38:0.84 39:0.2 40:0.1067 41:0.0667 42:0.0533 43:0.04 44:0.2267 45:0.0267 46:0 47:0 48:0 49:0 
1 0:0 1:0 2:0 3:0 4:0 5:0 6:0 7:0.0135 8:0.027 9:0.1892 10:0.3514 11:0.3919 12:0.4189 13:0.5 14:0.5541 15:0.5 16:0.5405 17:0.527 18:0.5541 19:0.5946 20:0.5946 21:0.6081 22:0.527 23:0.5135 24:0.4189 25:0.4459 26:0.5135 27:0.4459 28:0.4189 29:0.3649 30:0.3243 31:0.3649 32:0.3649 33:0.2838 34:0.2703 35:0.2838 36:0.1351 37:0.0541 38:0.027 39:0.0541 40:0.0405 41:0.0405 42:0.0541 43:0.0541 44:0.1216 45:0.027 46:0 47:0 48:0.0135 49:0 
1 0:0 1:0 2:0 3:0 4:0 5:0 6:0 7:0 8:0 9:0 10:0 11:0 12:0 13:0 14:0.4324 15:0.4189 16:0.473 17:0.4595 18:0.5811 19:0.5541 20:0.5135 21:0.5 22:0.5 23:0.5676 24:0.5946 25:0.5811 26:0.4595 27:0.3919 28:0.4595 29:0.4865 30:0.4459 31:0.5135 32:0.4189 33:0.4459 34:0.3514 35:0.3919 36:0.3919 37:0.3784 38:0.3378 39:0.2568 40:0.3108 41:0.2838 42:0.3784 43:0.3243 44:0.2973 45:0.2162 46:0.2703 47:0.1892 48:0.2568 49:0.1757 
1 0:0 1:0 2:0 3:0 4:0.0104 5:0 6:0 7:0 8:0 9:0 10:0 11:0 12:0 13:0.0833 14:0.1771 15:0.1771 16:0.2604 17:0.5104 18:0.6875 19:0.7188 20:0.875 21:0.6771 22:0.2292 23:0.1458 24:0.3438 25:0.375 26:0.4479 27:0.5 28:0.4271 29:0.3333 30:0.3333 31:0.3542 32:0.2083 33:0.2396 34:0.1771 35:0.1771 36:0.2292 37:0.1042 38:0.1042 39:0.125 40:0.0833 41:0.0729 42:0.0729 43:0.0521 44:0.0521 45:0.0208 46:0.0208 47:0 48:0.0104 49:0.0104 
1 0:0.2297 1:0.2703 2:0.1892 3:0.2973 4:0.2432 5:0.2973 6:0.2973 7:0.4324 8:0.2297 9:0.3919 10:0.3378 11:0.3514 12:0.2838 13:0.4324 14:0.3108 15:0.4324 16:0.4324 17:0.3919 18:0.4054 19:0.5 20:0.5405 21:0.4324 22:0.4189 23:0.4054 24:0.5 25:0.3378 26:0.3514 27:0.1892 28:0.2703 29:0.2432 30:0.3378 31:0.4324 32:0.6081 33:0.2297 34:0.3108 35:0.3514 36:0.2703 37:0.2027 38:0.1216 39:0.0946 40:0.0405 41:0.027 42:0.0405 43:0.0135 44:0.0676 45:0.0135 46:0 47:0.0135 48:0 49:0 
1 0:0 1:0 2:0 3:0 4:0 5:0 6:0.03 7:0.08 8:0.13 9:0.27 10:0.37 11:0.44 12:0.52 13:0.54 14:0.69 15:0.68 16:0.7 17:0.77 18:0.75 19:0.75 20:0.71 21:0.63 22:0.63 23:0.5 24:0.46 25:0.49 26:0.58 27:0.64 28:0.68 29:0.67 30:0.64 31:0.67 32:0.73 33:0.69 34:0.6 35:0.49 36:0.45 37:0.42 38:0.39 39:0.36 40:0.25 41:0.23 42:0.08 43:0 44:0 45:0 46:0 47:0 48:0 49:0 
1 0:0.0533 1:0.08 2:0.0667 3:0.0533 4:0.0533 5:0.1067 6:0.2267 7:0.16 8:0.2267 9:0.2267 10:0.2 11:0.1733 12:0.1733 13:0.1867 14:0.3733 15:0.4933 16:0.4 17:0.48 18:0.4667 19:0.4667 20:0.4267 21:0.5467 22:0.4933 23:0.4533 24:0.4667 25:0.52 26:0.3733 27:0.3467 28:0.32 29:0.2933 30:0.28 31:0.2933 32:0.2267 33:0.3467 34:0.2533 35:0.2133 36:0.24 37:0.3067 38:0.32 39:0.2667 40:0.2133 41:0.16 42:0.1467 43:0.24 44:0.12 45:0.0933 46:0.08 47:0.1333 48:0.12 49:0.0533 
1 0:0 1:0 2:0 3:0 4:0 5:0.04 6:0.0667 7:0.1333 8:0.0933 9:0.0933 10:0.16 11:0.1333 12:0.1867 13:0.2933 14:0.4667 15:0.44 16:0.5067 17:0.6667 18:0.6267 19:0.64 20:0.76 21:0.64 22:0.68 23:0.7333 24:0.6667 25:0.8 26:0.5733 27:0.4267 28:0.44 29:0.4 30:0.3333 31:0.2533 32:0.2933 33:0.2533 34:0.3067 35:0.2933 36:0.24 37:0.2267 38:0.16 39:0.2 40:0.08 41:0.0667 42:0.0533 43:0.04 44:0.0533 45:0.04 46:0.04 47:0.0267 48:0.04 49:0.0133 
1 0:0 1:0 2:0 3:0 4:0 5:0 6:0.0135 7:0.0135 8:0.0135 9:0 10:0.027 11:0.1216 12:0.2703 13:0.6892 14:0.5811 15:0.6486 16:0.7432 17:0.7568 18:0.8243 19:0.8784 20:0.8649 21:0.8784 22:0.7297 23:0.7432 24:0.8243 25:0.8378 26:0.7432 27:0.7838 28:0.6622 29:0.5946 30:0.5811 31:0.5946 32:0.5 33:0.4054 34:0.5135 35:0.5135 36:0.4324 37:0.4054 38:0.3784 39:0.4324 40:0.2838 41:0.3108 42:0.2297 43:0.2838 44:0.2432 45:0.2838 46:0.2703 47:0.1486 48:0.1486 49:0.1757 
1 0:0.12 1:0.12 2:0.1733 3:0.2533 4:0.3067 5:0.28 6:0.3067 7:0.32 8:0.36 9:0.4133 10:0.3333 11:0.44 12:0.2533 13:0.2533 14:0.2933 15:0.28 16:0.3867 17:0.3733 18:0.44 19:0.4533 20:0.56 21:0.32 22:0.4133 23:0.4267 24:0.12 25:0.0533 26:0.0667 27:0 28:0 29:0 30:0 31:0.2133 32:0.2133 33:0.2933 34:0.1467 35:0.2133 36:0.1733 37:0.24 38:0.04 39:0.2267 40:0.1733 41:0.0267 42:0.0267 43:0.0667 44:0.0133 45:0.0133 46:0 47:0 48:0 49:0 
1 0:0.0455 1:0.0606 2:0.0758 3:0.1212 4:0.1364 5:0.1212 6:0.1515 7:0.1364 8:0.1364 9:0.2121 10:0.1818 11:0.2273 12:0.2879 13:0.3182 14:0.3636 15:0.3939 16:0.3788 17:0.3485 18:0.4394 19:0.3788 20:0.3788 21:0.5303 22:0.3182 23:0.3636 24:0.3636 25:0.3939 26:0.4091 27:0.3485 28:0.3636 29:0.2879 30:0.2879 31:0.4242 32:0.2576 33:0.5303 34:0.303 35:0.1212 36:0.3182 37:0.303 38:0.2424 39:0 40:0 41:0 42:0 43:0.0152 44:0 45:0 46:0.0152 47:0 48:0.0455 49:0.0758 
1 0:0 1:0 2:0.0135 3:0.0135 4:0.0811 5:0.027 6:0.0676 7:0.1216 8:0.1622 9:0.2027 10:0.2432 11:0.3243 12:0.4189 13:0.4459 14:0.3784 15:0.473 16:0.5541 17:0.6081 18:0.4054 19:0.5 20:0.5946 21:0.473 22:0.473 23:0.5405 24:0.4865 25:0.3784 26:0.3784 27:0.527 28:0.4054 29:0.2568 30:0.3514 31:0.2162 32:0.3108 33:0.2162 34:0.2027 35:0.1216 36:0.0676 37:0.0405 38:0.0135 39:0 40:0 41:0 42:0 43:0 44:0 45:0 46:0 47:0 48:0 49:0 
1 0:0 1:0 2:0 3:0 4:0 5:0 6:0 7:0 8:0 9:0 10:0 11:0 12:0.08 13:0.0933 14:0.16 15:0.32 16:0.5467 17:0.6 18:0.5733 19:0.7467 20:0.5867 21:0.5467 22:0.52 23:0.5867 24:0.52 25:0.52 26:0.44 27:0.5467 28:0.52 29:0.3867 30:0.3467 31:0.4 32:0.4267 33:0.36 34:0.3733 35:0.3333 36:0.36 37:0.24 38:0.1733 39:0.2533 40:0.1867 41:0.1467 42:0.1467 43:0.1067 44:0.0533 45:0.0933 46:0.0267 47:0.0133 48:0 49:0.0133 
1 0:0.027 1:0.0405 2:0.0541 3:0.0946 4:0.0676 5:0.0946 6:0.1081 7:0.1081 8:0.1216 9:0.1216 10:0.1757 11:0.1486 12:0.2027 13:0.2162 14:0.2973 15:0.3243 16:0.2703 17:0.4189 18:0.3649 19:0.5 20:0.3378 21:0.3243 22:0.4054 23:0.3649 24:0.2838 25:0.3243 26:0.3514 27:0.2973 28:0.3108 29:0.2973 30:0.3649 31:0.3108 32:0.3243 33:0.2973 34:0.1757 35:0.2297 36:0.1757 37:0.2162 38:0.2162 39:0.1892 40:0.1351 41:0.0676 42:0.027 43:0.027 44:0.0135 45:0.027 46:0 47:0.0135 48:0 49:0.027 
1 0:0 1:0 2:0 3:0 4:0 5:0 6:0.1 7:0.08 8:0.12 9:0.14 10:0.16 11:0.22 12:0.16 13:0.12 14:0.36 15:0.28 16:0.26 17:0.2 18:0.24 19:0.34 20:0.38 21:0.3 22:0.4 23:0.4 24:0.26 25:0.28 26:0.26 27:0.24 28:0.32 29:0.24 30:0.28 31:0.34 32:0.48 33:0.42 34:0.5 35:0.44 36:0.22 37:0.16 38:0.22 39:0.22 40:0.12 41:0.2 42:0.12 43:0.1 44:0 45:0.02 46:0 47:0 48:0 49:0 
1 0:0 1:0 2:0 3:0 4:0 5:0 6:0 7:0 8:0 9:0 10:0 11:0 12:0 13:0 14:0 15:0 16:0 17:0 18:0 19:0 20:0 21:0 22:0 23:0.0175 24:0.0526 25:0.1053 26:0.1404 27:0.1228 28:0.2456 29:0.3158 30:0.3333 31:0.4211 32:0.4912 33:0.614 34:0.5789 35:0.4912 36:0.7018 37:0.6491 38:0.3684 39:0.193 40:0.1579 41:0.1579 42:0 43:0.0175 44:0 45:0.0526 46:0.0877 47:0.0702 48:0 49:0 
1 0:0 1:0 2:0.0435 3:0.0725 4:0.1739 5:0.2754 6:0.3768 7:0.4058 8:0.3478 9:0.4493 10:0.4783 11:0.5217 12:0.5072 13:0.4783 14:0.4928 15:0.4783 16:0.5217 17:0.5362 18:0.5652 19:0.5217 20:0.5652 21:0.5942 22:0.5652 23:0.5362 24:0.5507 25:0.5072 26:0.5797 27:0.6232 28:0.5217 29:0.5072 30:0.4203 31:0.3623 32:0.2899 33:0.4783 34:0.2319 35:0.3188 36:0.3188 37:0.3043 38:0.2609 39:0.1304 40:0.1884 41:0.2174 42:0.1594 43:0.1594 44:0.1304 45:0.1304 46:0.1159 47:0.087 48:0.1884 49:0.1159 
1 0:0.0132 1:0.0395 2:0.0263 3:0.0526 4:0.0526 5:0.0921 6:0.0526 7:0.0526 8:0.1053 9:0.0921 10:0.0921 11:0.1316 12:0.2237 13:0.3421 14:0.3947 15:0.4737 16:0.5526 17:0.5263 18:0.4868 19:0.5 20:0.5132 21:0.5526 22:0.3684 23:0.4211 24:0.4474 25:0.5132 26:0.5132 27:0.5526 28:0.5132 29:0.6184 30:0.4868 31:0.5263 32:0.5132 33:0.5658 34:0.5 35:0.5526 36:0.5395 37:0.5921 38:0.5263 39:0.5 40:0.5789 41:0.4605 42:0.4211 43:0.3553 44:0.4079 45:0.7105 46:0.5132 47:0.1711 48:0.0132 49:0.0526 
1 0:0 1:0 2:0 3:0 4:0 5:0 6:0 7:0 8:0 9:0 10:0 11:0 12:0 13:0 14:0 15:0 16:0.0135 17:0 18:0 19:0.0135 20:0.027 21:0.027 22:0.0541 23:0.1081 24:0.0946 25:0.1351 26:0.2568 27:0.2432 28:0.2162 29:0.4054 30:0.5 31:0.6486 32:0.6622 33:0.7027 34:0.6486 35:0.5676 36:0.3108 37:0.2027 38:0.1216 39:0.0811 40:0.0811 41:0.0541 42:0.027 43:0 44:0.0405 45:0 46:0 47:0 48:0 49:0.0135 
1 0:0 1:0 2:0 3:0 4:0 5:0 6:0 7:0 8:0 9:0.0133 10:0 11:0 12:0 13:0 14:0.0267 15:0.0133 16:0.12 17:0.2 18:0.3867 19:0.3733 20:0.48 21:0.52 22:0.9333 23:0.52 24:0.1867 25:0.32 26:0.2533 27:0.28 28:0.4 29:0.56 30:0.5867 31:0.5333 32:0.4267 33:0.44 34:0.4667 35:0.3467 36:0.24 37:0.1867 38:0.1733 39:0.2267 40:0.1333 41:0.04 42:0.0267 43:0.0267 44:0.04 45:0.04 46:0.0533 47:0.0667 48:0.04 49:0.0267 
1 0:0 1:0 2:0 3:0 4:0.0149 5:0.0746 6:0.1493 7:0.209 8:0.2985 9:0.4179 10:0.4478 11:0.5672 12:0.5224 13:0.6567 14:0.6567 15:0.6269 16:0.6567 17:0.7164 18:0.806 19:0.6269 20:0.6716 21:0.7164 22:0.7612 23:0.5821 24:0.5672 25:0.6716 26:0.7313 27:0.6418 28:0.7463 29:0.5672 30:0.6716 31:0.7015 32:0.6716 33:0.5821 34:0.597 35:0.7612 36:0.597 37:0.5672 38:0.4776 39:0.4328 40:0.4478 41:0.4179 42:0.194 43:0.0299 44:0.0448 45:0.0597 46:0.0896 47:0.0746 48:0.0597 49:0.0299 
1 0:0.027 1:0.027 2:0.027 3:0.027 4:0.027 5:0.0135 6:0.0135 7:0.0135 8:0.0135 9:0.0946 10:0.2973 11:0.3108 12:0.7838 13:0.4324 14:0.4189 15:0.5135 16:0.7297 17:0.9595 18:0.3243 19:0.2027 20:0.1216 21:0.0946 22:0.1892 23:0.1486 24:0.0811 25:0.1351 26:0.1892 27:0.2027 28:0.1486 29:0.473 30:0.1892 31:0.3108 32:0.4054 33:0.4054 34:0.3784 35:0.3243 36:0.2568 37:0.3108 38:0.0811 39:0.0135 40:0.0135 41:0.0135 42:0.027 43:0 44:0 45:0 46:0.0135 47:0.0135 48:0.0135 49:0.0135 
1 0:0.1392 1:0.1772 2:0.1139 3:0.1392 4:0.1772 5:0.1646 6:0.2658 7:0.2532 8:0.1899 9:0.2785 10:0.2405 11:0.2405 12:0.2658 13:0.2911 14:0.3165 15:0.4051 16:0.3924 17:0.3544 18:0.443 19:0.4177 20:0.4177 21:0.3797 22:0.4557 23:0.3924 24:0.3924 25:0.3418 26:0.3797 27:0.4304 28:0.4051 29:0.3418 30:0.3671 31:0.2532 32:0.3165 33:0.2785 34:0.2532 35:0.2532 36:0.3038 37:0.3038 38:0.2532 39:0.1899 40:0.1519 41:0.1392 42:0.1519 43:0.0633 44:0.0506 45:0.038 46:0.0253 47:0.038 48:0.0633 49:0.0759 
1 0:0 1:0 2:0 3:0 4:0 5:0 6:0 7:0.029 8:0.0435 9:0.058 10:0.1014 11:0.1304 12:0.1594 13:0.1884 14:0.3188 15:0.2029 16:0.2029 17:0.3478 18:0.2319 19:0.2464 20:0.2754 21:0.1884 22:0.2174 23:0.2899 24:0.2464 25:0.3333 26:0.4058 27:0.3768 28:0.3333 29:0.3913 30:0.3188 31:0.3623 32:0.3478 33:0.3913 34:0.3043 35:0.3768 36:0.3478 37:0.3043 38:0.2174 39:0.2609 40:0.2609 41:0.2609 42:0.2174 43:0.1739 44:0.1594 45:0.0725 46:0.0435 47:0.0145 48:0 49:0.0145 
1 0:0.0109 1:0.0543 2:0.0543 3:0.0978 4:0.0652 5:0.163 6:0.2174 7:0.1739 8:0.2174 9:0.3043 10:0.2065 11:0.2283 12:0.2065 13:0.2935 14:0.25 15:0.3587 16:0.3587 17:0.3478 18:0.4348 19:0.3696 20:0.4565 21:0.337 22:0.3804 23:0.3913 24:0.337 25:0.4457 26:0.4239 27:0.4565 28:0.4348 29:0.3478 30:0.3804 31:0.4783 32:0.337 33:0.3587 34:0.3913 35:0.3478 36:0.2717 37:0.2717 38:0.2391 39:0.2609 40:0.2283 41:0.2174 42:0.1957 43:0.1739 44:0.1304 45:0.0978 46:0.087 47:0.087 48:0.0435 49:0.0326 
1 0:0 1:0 2:0 3:0 4:0 5:0 6:0 7:0 8:0 9:0.0175 10:0.0702 11:0.114 12:0.1667 13:0.2105 14:0.2456 15:0.2544 16:0.3246 17:0.3596 18:0.4298 19:0.4474 20:0.6053 21:0.5702 22:0.6228 23:0.6316 24:0.6228 25:0.6491 26:0.6754 27:0.6316 28:0.6842 29:0.7193 30:0.7193 31:0.6228 32:0.5526 33:0.5965 34:0.4035 35:0.3509 36:0.2105 37:0.1491 38:0.0526 39:0.0263 40:0.0088 41:0.0263 42:0 43:0 44:0 45:0 46:0 47:0 48:0 49:0 
1 0:0.0152 1:0.1061 2:0.197 3:0.197 4:0.1818 5:0.1212 6:0.1515 7:0.1212 8:0.1515 9:0.1515 10:0.1364 11:0.0758 12:0.1061 13:0.1364 14:0.197 15:0.303 16:0.3788 17:0.5455 18:0.5 19:0.5 20:0.4848 21:0.5152 22:0.5606 23:0.4545 24:0.4697 25:0.3636 26:0.3939 27:0.3485 28:0.5606 29:0.5606 30:0.4848 31:0.5152 32:0.5758 33:0.4848 34:0.5909 35:0.5758 36:0.5909 37:0.5606 38:0.5303 39:0.5303 40:0.6061 41:0.4545 42:0.4394 43:0.4242 44:0.2273 45:0.1515 46:0.0152 47:0 48:0.0758 49:0 
1 0:0 1:0 2:0 3:0 4:0 5:0.0313 6:0.0938 7:0.1094 8:0.2344 9:0.25 10:0.2813 11:0.2656 12:0.3125 13:0.2813 14:0.3594 15:0.3125 16:0.3281 17:0.4063 18:0.3594 19:0.3438 20:0.3906 21:0.3438 22:0.375 23:0.2813 24:0.4531 25:0.4688 26:0.375 27:0.4531 28:0.4844 29:0.3281 30:0.4688 31:0.4531 32:0.4063 33:0.4063 34:0.3125 35:0.4688 36:0.3125 37:0.3281 38:0.375 39:0.2813 40:0.2969 41:0.2969 42:0.25 43:0.2656 44:0.1875 45:0.125 46:0.0156 47:0.0156 48:0 49:0 
1 0:0 1:0.0533 2:0 3:0.0267 4:0.0267 5:0.0267 6:0.0533 7:0.0133 8:0 9:0 10:0 11:0.0533 12:0.1067 13:0.0267 14:0.0933 15:0.0533 16:0.32 17:0.2133 18:0.56 19:0.5467 20:0.4667 21:0.3733 22:0.2933 23:0.2533 24:0.32 25:0.1867 26:0.12 27:0.2 28:0.1067 29:0.12 30:0.0667 31:0.0667 32:0.0667 33:0.12 34:0.04 35:0.08 36:0.0267 37:0.1333 38:0.2267 39:0.12 40:0.04 41:0.0133 42:0 43:0 44:0 45:0 46:0 47:0 48:0 49:0 
1 0:0 1:0 2:0 3:0 4:0.0462 5:0.0462 6:0.0615 7:0.0462 8:0 9:0.1077 10:0.1231 11:0.1846 12:0.1692 13:0.2769 14:0.2769 15:0.3385 16:0.3538 17:0.2615 18:0.3385 19:0.3231 20:0.2923 21:0.3692 22:0.4769 23:0.4 24:0.3846 25:0.3692 26:0.3846 27:0.3538 28:0.4154 29:0.4154 30:0.3231 31:0.3846 32:0.2923 33:0.3846 34:0.3692 35:0.4308 36:0.3385 37:0.3077 38:0.3692 39:0.3846 40:0.2615 41:0.2154 42:0.1385 43:0.1385 44:0.0308 45:0 46:0 47:0 48:0 49:0 
1 0:0 1:0 2:0 3:0 4:0 5:0 6:0 7:0 8:0 9:0 10:0 11:0 12:0 13:0 14:0 15:0 16:0.027 17:0 18:0.0135 19:0.0135 20:0.027 21:0 22:0.3108 23:0.2568 24:0.0135 25:0.1216 26:0.0946 27:0.3784 28:0.5 29:0.4324 30:0.4595 31:0.6216 32:0.7297 33:0.6351 34:0.6081 35:0.7027 36:0.5676 37:0.4865 38:0.4189 39:0.3784 40:0.2838 41:0.2703 42:0.1351 43:0.1216 44:0.1081 45:0.1486 46:0.0811 47:0.0541 48:0.0405 49:0.0135 
1 0:0 1:0 2:0 3:0 4:0.0405 5:0.0541 6:0.027 7:0.0135 8:0.027 9:0.027 10:0.0405 11:0.0676 12:0.0676 13:0.1351 14:0.2568 15:0.3108 16:0.3649 17:0.4054 18:0.3243 19:0.3243 20:0.4459 21:0.4324 22:0.3378 23:0.527 24:0.5 25:0.4189 26:0.3649 27:0.3514 28:0.473 29:0.2973 30:0.4595 31:0.5405 32:0.5 33:0.2568 34:0.3243 35:0.1757 36:0.1486 37:0.0811 38:0 39:0 40:0 41:0 42:0 43:0 44:0 45:0 46:0 47:0 48:0 49:0 
1 0:0.0909 1:0.0606 2:0.0606 3:0.1364 4:0.2121 5:0.1667 6:0.197 7:0.2576 8:0.2424 9:0.2273 10:0.2727 11:0.3333 12:0.3788 13:0.4545 14:0.4242 15:0.4697 16:0.4697 17:0.4394 18:0.5 19:0.4242 20:0.5303 21:0.5606 22:0.5455 23:0.5758 24:0.6515 25:0.5758 26:0.5455 27:0.5 28:0.4848 29:0.5606 30:0.3788 31:0.3485 32:0.4394 33:0.5606 34:0.5909 35:0.5152 36:0.6364 37:0.6364 38:0.6667 39:0.6364 40:0.5455 41:0.5606 42:0.5455 43:0.3939 44:0.1364 45:0 46:0 47:0 48:0 49:0 
1 0:0 1:0.0533 2:0.0533 3:0.08 4:0.2 5:0.24 6:0.2667 7:0.2133 8:0.24 9:0.2267 10:0.24 11:0.1867 12:0.24 13:0.2267 14:0.32 15:0.28 16:0.3333 17:0.2267 18:0.3067 19:0.3067 20:0.3467 21:0.3467 22:0.3067 23:0.3733 24:0.3467 25:0.4 26:0.3733 27:0.32 28:0.2933 29:0.4267 30:0.32 31:0.2533 32:0.3733 33:0.4133 34:0.3733 35:0.28 36:0.28 37:0.32 38:0.2533 39:0.24 40:0.2133 41:0.1733 42:0.2133 43:0.12 44:0.08 45:0.0533 46:0.0133 47:0.0133 48:0 49:0.0667 
1 0:0 1:0 2:0 3:0 4:0 5:0 6:0 7:0 8:0 9:0 10:0.0152 11:0.0303 12:0.0606 13:0.0455 14:0.0909 15:0.0909 16:0.1515 17:0.1364 18:0.3636 19:0.2879 20:0.2576 21:0.0606 22:0.1364 23:0.2121 24:0.2121 25:0.2879 26:0.2424 27:0.2273 28:0.1364 29:0.197 30:0.2273 31:0.2576 32:0.2727 33:0.303 34:0.2576 35:0.3333 36:0.2424 37:0.3485 38:0.1212 39:0.1212 40:0.1212 41:0.0455 42:0.0606 43:0 44:0 45:0 46:0 47:0 48:0 49:0 
1 0:0 1:0 2:0 3:0 4:0 5:0 6:0.0896 7:0.1343 8:0.194 9:0.209 10:0.2388 11:0.194 12:0.2388 13:0.2836 14:0.2537 15:0.2239 16:0.3433 17:0.4627 18:0.3881 19:0.5224 20:0.6269 21:0.5821 22:0.5373 23:0.5821 24:0.2985 25:0.3134 26:0.3433 27:0.4478 28:0.5373 29:0.5224 30:0.5373 31:0.5075 32:0.7164 33:0.6866 34:0.7164 35:0.7313 36:0.7164 37:0.806 38:0.8358 39:0.806 40:0.8806 41:0.7761 42:0.8209 43:0.7463 44:0 45:0 46:0 47:0 48:0 49:0 
1 0:0 1:0 2:0 3:0.0119 4:0 5:0.0119 6:0 7:0 8:0 9:0.0119 10:0.0119 11:0.0119 12:0.0833 13:0.2857 14:0.4167 15:0.4643 16:0.5714 17:0.5238 18:0.5952 19:0.4881 20:0.4286 21:0.1905 22:0.1786 23:0 24:0.0238 25:0.119 26:0.119 27:0.0952 28:0.1071 29:0.1786 30:0.119 31:0.0476 32:0.1071 33:0.1667 34:0.2024 35:0.2024 36:0.1429 37:0.2738 38:0.2024 39:0.2024 40:0.1905 41:0.2024 42:0.1667 43:0.0952 44:0.1429 45:0.1429 46:0.1548 47:0.0952 48:0.0595 49:0.1667 
1 0:0 1:0 2:0 3:0 4:0.0135 5:0.0405 6:0.0811 7:0.1351 8:0.1216 9:0.0676 10:0.1351 11:0.2432 12:0.3378 13:0.2838 14:0.3243 15:0.3514 16:0.3378 17:0.3919 18:0.4189 19:0.4595 20:0.3919 21:0.3919 22:0.4595 23:0.6486 24:0.5676 25:0.6351 26:0.4324 27:0.4459 28:0.4324 29:0.4459 30:0.473 31:0.3784 32:0.4595 33:0.5 34:0.4324 35:0.473 36:0.2162 37:0.2162 38:0.2027 39:0.2838 40:0.2838 41:0.2973 42:0.2027 43:0.1486 44:0.0946 45:0.0135 46:0.0405 47:0.0811 48:0.0135 49:0 
1 0:0 1:0.0267 2:0.0533 3:0.0133 4:0.04 5:0.0267 6:0.0267 7:0.0533 8:0.0267 9:0.1067 10:0.1733 11:0.1467 12:0.1467 13:0.16 14:0.2533 15:0.2667 16:0.1467 17:0.2667 18:0.32 19:0.3333 20:0.2933 21:0.3467 22:0.4267 23:0.4133 24:0.48 25:0.32 26:0.4267 27:0.52 28:0.4267 29:0.4533 30:0.52 31:0.4667 32:0.4133 33:0.48 34:0.4133 35:0.36 36:0.3733 37:0.4 38:0.3067 39:0.36 40:0.2667 41:0.2 42:0.1333 43:0.08 44:0.0933 45:0.0667 46:0.0667 47:0.0667 48:0.04 49:0.04 
1 0:0.3649 1:0.4054 2:0.4324 3:0.2838 4:0.4324 5:0.3919 6:0.3919 7:0.5135 8:0.3108 9:0.4189 10:0.4459 11:0.3784 12:0.4324 13:0.4595 14:0.5 15:0.6622 16:0.7162 17:0.6351 18:0.6892 19:0.6081 20:0.7297 21:0.6622 22:0.5811 23:0.7162 24:0.5135 25:0.5 26:0.473 27:0.527 28:0.3919 29:0.3243 30:0.4054 31:0.3649 32:0.4595 33:0.1892 34:0.3378 35:0.2162 36:0.3243 37:0.2432 38:0.0676 39:0.1081 40:0.1486 41:0.0811 42:0.0135 43:0.0135 44:0.1486 45:0.0946 46:0.0405 47:0.0811 48:0 49:0.0405 
1 0:0.2 1:0.16 2:0.24 3:0.2 4:0.22 5:0.14 6:0.2 7:0.18 8:0.2 9:0.2 10:0.24 11:0.3 12:0.22 13:0.16 14:0.22 15:0.26 16:0.28 17:0.44 18:0.34 19:0.32 20:0.5 21:0.44 22:0.48 23:0.44 24:0.38 25:0.46 26:0.36 27:0.44 28:0.28 29:0.34 30:0.44 31:0.3 32:0.32 33:0.4 34:0.36 35:0.46 36:0.54 37:0.3 38:0.3 39:0.3 40:0.18 41:0.2 42:0.14 43:0.12 44:0.12 45:0.16 46:0.08 47:0.02 48:0.06 49:0.04 
1 0:0 1:0 2:0 3:0 4:0 5:0.0135 6:0.027 7:0.0405 8:0.1351 9:0.1486 10:0.1351 11:0.2027 12:0.2027 13:0.2703 14:0.3243 15:0.3514 16:0.3243 17:0.3378 18:0.3919 19:0.4324 20:0.4865 21:0.5135 22:0.5135 23:0.6351 24:0.5 25:0.3649 26:0.4054 27:0.4054 28:0.3378 29:0.3514 30:0.3243 31:0.2703 32:0.2838 33:0.2162 34:0.2297 35:0.2432 36:0.1757 37:0.1486 38:0.0676 39:0.0811 40:0.0811 41:0.0135 42:0.0135 43:0.0405 44:0 45:0.027 46:0.0135 47:0 48:0 49:0.0135 
1 0:0.0972 1:0.0833 2:0.1389 3:0.1944 4:0.1528 5:0.1111 6:0.1944 7:0.1389 8:0.2222 9:0.2083 10:0.1806 11:0.2361 12:0.2222 13:0.25 14:0.2222 15:0.1806 16:0.1389 17:0.1806 18:0.1389 19:0.2083 20:0.1944 21:0.1806 22:0.1528 23:0.1944 24:0.1528 25:0.1667 26:0.25 27:0.2222 28:0.3194 29:0.3333 30:0.4167 31:0.5278 32:0.4583 33:0.6389 34:0.7222 35:0.6944 36:0.6944 37:0.5278 38:0.1111 39:0.2639 40:0.1667 41:0.1389 42:0.0417 43:0 44:0 45:0.0139 46:0 47:0 48:0 49:0 
1 0:0 1:0 2:0 3:0 4:0 5:0.0133 6:0 7:0 8:0.04 9:0.0133 10:0.04 11:0.1067 12:0.0933 13:0.1867 14:0.2533 15:0.2533 16:0.44 17:0.3333 18:0.32 19:0.32 20:0.24 21:0.4133 22:0.2667 23:0.28 24:0.3333 25:0.4267 26:0.48 27:0.4533 28:0.32 29:0.3467 30:0.3067 31:0.4 32:0.2933 33:0.36 34:0.2667 35:0.2267 36:0.1467 37:0.08 38:0.1467 39:0.1067 40:0.08 41:0.08 42:0.0667 43:0.04 44:0.0667 45:0 46:0.04 47:0 48:0.1867 49:0 
1 0:0 1:0.0135 2:0.0541 3:0.0135 4:0.0811 5:0.1757 6:0.2162 7:0.2703 8:0.2568 9:0.2838 10:0.2703 11:0.2297 12:0.1757 13:0.2027 14:0.1892 15:0.2297 16:0.2297 17:0.3243 18:0.2568 19:0.2973 20:0.3108 21:0.2568 22:0.2838 23:0.2703 24:0.3378 25:0.4054 26:0.4189 27:0.2973 28:0.4054 29:0.3378 30:0.2703 31:0.3919 32:0.4054 33:0.2027 34:0.6486 35:0.6892 36:0.7162 37:0.7027 38:0.7297 39:0.6486 40:0.2973 41:0.3919 42:0.1892 43:0.1486 44:0.2027 45:0.1757 46:0.0676 47:0.1081 48:0.2432 49:0.0811 
1 0:0 1:0 2:0 3:0 4:0 5:0 6:0 7:0.0133 8:0.0533 9:0.08 10:0.16 11:0.2267 12:0.2533 13:0.2667 14:0.4933 15:0.5333 16:0.6267 17:0.56 18:0.6133 19:0.6933 20:0.6667 21:0.6533 22:0.5333 23:0.44 24:0.4533 25:0.5333 26:0.5333 27:0.5067 28:0.5333 29:0.4533 30:0.52 31:0.4933 32:0.52 33:0.4133 34:0.4267 35:0.4267 36:0.44 37:0.36 38:0.2 39:0.0933 40:0.1067 41:0.0267 42:0 43:0 44:0 45:0.04 46:0 47:0 48:0.04 49:0 
1 0:0 1:0 2:0 3:0 4:0 5:0 6:0.08 7:0.1 8:0.18 9:0.28 10:0.32 11:0.54 12:0.72 13:0.78 14:0.78 15:0.84 16:0.84 17:0.74 18:0.8 19:0.88 20:0.9 21:0.68 22:0.84 23:0.72 24:0.66 25:0.82 26:0.8 27:0.8 28:0.76 29:0.72 30:0.7 31:0.58 32:0.68 33:0.7 34:0.66 35:0.6 36:0.52 37:0.52 38:0.6 39:0.52 40:0.58 41:0.5 42:0.4 43:0.44 44:0.46 45:0.4 46:0.3 47:0.12 48:0.02 49:0 
0.7616739554626791 0:0 1:0 2:0.0152 3:0 4:0 5:0.0303 6:0.0909 7:0.1212 8:0.1515 9:0.1364 10:0.1667 11:0.2121 12:0.2424 13:0.2424 14:0.197 15:0.2879 16:0.2576 17:0.3182 18:0.3485 19:0.3939 20:0.5152 21:0.3485 22:0.4545 23:0.3939 24:0.3636 25:0.4848 26:0.4545 27:0.4545 28:0.4848 29:0.3939 30:0.3636 31:0.4394 32:0.4697 33:0.4394 34:0.3636 35:0.5909 36:0.5152 37:0.5303 38:0.4091 39:0.3182 40:0.3485 41:0.303 42:0.3636 43:0.303 44:0.2727 45:0.3182 46:0.3182 47:0.197 48:0.2121 49:0.0909 
1 0:0.0135 1:0.0135 2:0.0541 3:0.1892 4:0.2973 5:0.2703 6:0.2568 7:0.2973 8:0.4459 9:0.5135 10:0.4595 11:0.2027 12:0.4459 13:0.3919 14:0.3514 15:0.3378 16:0.2973 17:0.4054 18:0.5 19:0.5 20:0.4459 21:0.4595 22:0.3649 23:0.6757 24:0.5 25:0.5541 26:0.6081 27:0.4595 28:0.3919 29:0.5135 30:0.3514 31:0.4324 32:0.5676 33:0.2568 34:0.4865 35:0.4459 36:0.473 37:0.3514 38:0.2703 39:0.2703 40:0.1757 41:0.0946 42:0.1892 43:0.1216 44:0.0811 45:0.0946 46:0.0541 47:0.1081 48:0.0405 49:0.0135 
1 0:0 1:0 2:0 3:0 4:0 5:0 6:0 7:0 8:0 9:0 10:0.0143 11:0.0286 12:0 13:0 14:0 15:0.1429 16:0.4143 17:0.3 18:0.3714 19:0.3714 20:0.3 21:0.3 22:0.2714 23:0.3143 24:0.3286 25:0.3286 26:0.2143 27:0.2143 28:0.1286 29:0.2714 30:0.3571 31:0.2143 32:0.2 33:0.1571 34:0.2 35:0.1143 36:0.3 37:0.1857 38:0.1571 39:0.1714 40:0.1714 41:0.0714 42:0.0857 43:0.0429 44:0.0286 45:0 46:0 47:0 48:0 49:0 
1 0:0.02 1:0 2:0.02 3:0.14 4:0.16 5:0.2 6:0.26 7:0.28 8:0.4 9:0.46 10:0.54 11:0.54 12:0.6 13:0.5 14:0.66 15:0.66 16:0.58 17:0.5 18:0.6 19:0.4 20:0.48 21:0.42 22:0.46 23:0.42 24:0.5 25:0.4 26:0.46 27:0.44 28:0.52 29:0.42 30:0.3 31:0.42 32:0.32 33:0.32 34:0.42 35:0.22 36:0.32 37:0.26 38:0.2 39:0.24 40:0.16 41:0.22 42:0.14 43:0.12 44:0.16 45:0.12 46:0.08 47:0.08 48:0.06 49:0.04 
1 0:0 1:0 2:0 3:0 4:0.0133 5:0.04 6:0.0267 7:0.0267 8:0 9:0.0533 10:0.2267 11:0.1867 12:0.24 13:0.2533 14:0.3067 15:0.48 16:0.4267 17:0.56 18:0.5333 19:0.56 20:0.6 21:0.56 22:0.56 23:0.6667 24:0.2133 25:0.3733 26:0.24 27:0.32 28:0.0667 29:0.04 30:0.0133 31:0.04 32:0.04 33:0.04 34:0.04 35:0.0267 36:0 37:0 38:0 39:0 40:0 41:0 42:0 43:0 44:0 45:0 46:0 47:0 48:0 49:0 
1 0:0 1:0 2:0 3:0 4:0 5:0 6:0 7:0 8:0 9:0 10:0 11:0 12:0 13:0 14:0 15:0 16:0 17:0 18:0 19:0.4414 20:0.5586 21:0.4775 22:0.4595 23:0.4414 24:0.4505 25:0.5405 26:0.4685 27:0.5225 28:0.4865 29:0.4865 30:0.4955 31:0.4865 32:0.4685 33:0.5856 34:0.4595 35:0.4505 36:0.4775 37:0.4775 38:0.4595 39:0.4054 40:0.4505 41:0 42:0 43:0 44:0 45:0 46:0 47:0 48:0 49:0 
1 0:0 1:0 2:0 3:0 4:0 5:0.0513 6:0.1282 7:0.1923 8:0.0897 9:0.1282 10:0.2308 11:0.2564 12:0.2949 13:0.3333 14:0.3462 15:0.359 16:0.3333 17:0.359 18:0.3846 19:0.3333 20:0.3462 21:0.3718 22:0.3718 23:0.2564 24:0.3205 25:0.2692 26:0.2821 27:0.2949 28:0.2436 29:0.2308 30:0.2692 31:0.2564 32:0.2821 33:0.2821 34:0.2949 35:0.2692 36:0.2308 37:0.4103 38:0.3846 39:0.3718 40:0.3333 41:0.2179 42:0.0385 43:0.0769 44:0.0769 45:0.0128 46:0 47:0 48:0 49:0 
1 0:0 1:0 2:0 3:0 4:0 5:0 6:0 7:0 8:0.0111 9:0.0111 10:0.0222 11:0.0222 12:0.0222 13:0.0444 14:0.0556 15:0.1667 16:0.5444 17:0.7444 18:0.7444 19:0.6889 20:0.6667 21:0.6889 22:0.6111 23:0.4778 24:0.4222 25:0.3 26:0.2778 27:0.3 28:0.1889 29:0.2111 30:0.1222 31:0.1667 32:0.2 33:0.2 34:0.2 35:0.1889 36:0.1111 37:0.0889 38:0 39:0 40:0 41:0 42:0 43:0 44:0 45:0 46:0 47:0.0111 48:0 49:0 
1 0:0 1:0 2:0 3:0 4:0.0313 5:0.2083 6:0.3125 7:0.6146 8:0.4896 9:0.6875 10:0.4896 11:0.6458 12:0.5521 13:0.7292 14:0.6667 15:0.7083 16:0.6979 17:0.7708 18:0.8125 19:0.7917 20:0.75 21:0.7708 22:0.7708 23:0.6875 24:0.7396 25:0.6146 26:0.6667 27:0.5938 28:0.7083 29:0.6979 30:0.6146 31:0.6146 32:0.5833 33:0.5417 34:0.5417 35:0.6354 36:0.7188 37:0.75 38:0.75 39:0.7708 40:0.7083 41:0.7083 42:0.625 43:0.4167 44:0.125 45:0.0208 46:0 47:0.0104 48:0 49:0 
1 0:0.16 1:0.1867 2:0.2667 3:0.2267 4:0.1867 5:0.2667 6:0.32 7:0.2667 8:0.24 9:0.24 10:0.3067 11:0.3067 12:0.2533 13:0.28 14:0.3867 15:0.36 16:0.4 17:0.5067 18:0.5067 19:0.4267 20:0.4933 21:0.4933 22:0.4933 23:0.52 24:0.4267 25:0.3867 26:0.3467 27:0.3067 28:0.44 29:0.44 30:0.5067 31:0.3733 32:0.32 33:0.2533 34:0.3067 35:0.2533 36:0.3333 37:0.24 38:0.28 39:0.24 40:0.2267 41:0.1733 42:0.0933 43:0.0667 44:0.0533 45:0.0667 46:0.0267 47:0.0667 48:0.0933 49:0.1067 
1 0:0 1:0 2:0 3:0 4:0 5:0 6:0 7:0 8:0 9:0 10:0.0088 11:0.0088 12:0.0175 13:0.0175 14:0.0526 15:0.2193 16:0.4211 17:0.7544 18:0.7632 19:0.6491 20:0.6228 21:0.6316 22:0.693 23:0.5877 24:0.5877 25:0.5175 26:0.5789 27:0.5526 28:0.5526 29:0.5439 30:0.4825 31:0.5351 32:0.5088 33:0.3333 34:0.4123 35:0.3509 36:0.3684 37:0.4737 38:0.3421 39:0.4211 40:0.3509 41:0.3772 42:0.2807 43:0.3509 44:0.2982 45:0.3684 46:0.2982 47:0.3509 48:0.307 49:0.2895 
1 0:0 1:0.0222 2:0.0222 3:0.0222 4:0.0667 5:0.1333 6:0.4 7:0.4889 8:0.4889 9:0.5556 10:0.5556 11:0.6889 12:0.7778 13:0.7778 14:0.6667 15:0.6 16:0.6 17:0.7556 18:0.8 19:0.8444 20:0.8444 21:0.7778 22:0.7333 23:0.7778 24:0.5556 25:0.5333 26:0.4 27:0.3111 28:0.4222 29:0.2444 30:0.2 31:0.3556 32:0.4 33:0.2889 34:0.4444 35:0.4667 36:0.5111 37:0.4 38:0.3556 39:0.3778 40:0.5333 41:0.3556 42:0.2 43:0.2444 44:0.2889 45:0.2444 46:0.2444 47:0.2667 48:0.2444 49:0.1556 
1 0:0.0135 1:0.027 2:0.0405 3:0.0541 4:0.0946 5:0.0946 6:0.1486 7:0.2027 8:0.1622 9:0.1486 10:0.1351 11:0.2162 12:0.2297 13:0.4189 14:0.7162 15:0.5135 16:0.5541 17:0.527 18:0.5 19:0.5541 20:0.5541 21:0.3784 22:0.473 23:0.3649 24:0.4324 25:0.3514 26:0.4324 27:0.4865 28:0.6486 29:0.473 30:0.527 31:0.4324 32:0.3378 33:0.3784 34:0.3514 35:0.3919 36:0.5405 37:0.4189 38:0.4324 39:0.3378 40:0.3378 41:0.4189 42:0.3919 43:0.3378 44:0.3243 45:0.1757 46:0.1486 47:0.1486 48:0.1892 49:0.027 
1 0:0.0133 1:0.0267 2:0 3:0.0133 4:0 5:0 6:0 7:0.0133 8:0.0267 9:0 10:0.0267 11:0.12 12:0.1867 13:0.32 14:0.56 15:0.76 16:0.7467 17:0.56 18:0.6 19:0.56 20:0.56 21:0.52 22:0.5333 23:0.52 24:0.6533 25:0.72 26:0.5867 27:0.48 28:0.4533 29:0.5067 30:0.5867 31:0.6133 32:0.52 33:0.6133 34:0.64 35:0.6667 36:0.5467 37:0.5067 38:0.6 39:0.5867 40:0.6267 41:0.52 42:0.5733 43:0.44 44:0.36 45:0.24 46:0.3333 47:0.1333 48:0.2133 49:0.1067 
1 0:0.04 1:0.08 2:0.08 3:0.06 4:0.02 5:0.04 6:0.02 7:0.02 8:0.04 9:0.06 10:0.02 11:0.1 12:0 13:0.08 14:0.08 15:0.12 16:0.26 17:0.34 18:0.38 19:0.28 20:0.4 21:0.38 22:0.48 23:0.42 24:0.48 25:0.62 26:0.56 27:0.5 28:0.42 29:0.68 30:0.64 31:0.48 32:0.54 33:0.6 34:0.54 35:0.54 36:0.62 37:0.6 38:0.48 39:0.48 40:0.3 41:0.38 42:0.26 43:0.22 44:0.36 45:0.3 46:0.24 47:0.12 48:0.12 49:0.08 
1 0:0.1622 1:0.2297 2:0.2973 3:0.3514 4:0.4595 5:0.473 6:0.4595 7:0.4595 8:0.5405 9:0.5541 10:0.527 11:0.5811 12:0.5946 13:0.527 14:0.5676 15:0.6351 16:0.6757 17:0.6081 18:0.6486 19:0.5541 20:0.5946 21:0.6216 22:0.7027 23:0.6486 24:0.5405 25:0.3243 26:0.3919 27:0.4865 28:0.4189 29:0.473 30:0.473 31:0.3108 32:0.3919 33:0.3514 34:0.2568 35:0.2162 36:0.2838 37:0.2432 38:0.1622 39:0.1351 40:0.1486 41:0.0541 42:0.1081 43:0.0811 44:0.0676 45:0.0541 46:0.0135 47:0.0135 48:0.0135 49:0.0135 
1 0:0 1:0.0267 2:0.1067 3:0.0533 4:0.0933 5:0.1733 6:0.1733 7:0.2933 8:0.1333 9:0.2533 10:0.2267 11:0.2533 12:0.2267 13:0.4 14:0.2933 15:0.3867 16:0.5067 17:0.4133 18:0.3733 19:0.4267 20:0.3867 21:0.5067 22:0.36 23:0.5067 24:0.6 25:0.5467 26:0.44 27:0.4 28:0.4 29:0.3733 30:0.36 31:0.3067 32:0.3733 33:0.3067 34:0.32 35:0.28 36:0.3467 37:0.3733 38:0.4267 39:0.4133 40:0.28 41:0.2133 42:0.2533 43:0.2 44:0.2267 45:0.1733 46:0.1467 47:0.08 48:0 49:0 
1 0:0.0541 1:0.1351 2:0.2162 3:0.2838 4:0.4324 5:0.3784 6:0.3784 7:0.3919 8:0.5541 9:0.5135 10:0.6622 11:0.7162 12:0.6351 13:0.7838 14:0.8378 15:0.7703 16:0.7162 17:0.8378 18:0.7703 19:0.8378 20:0.7703 21:0.7838 22:0.7568 23:0.7297 24:0.7027 25:0.8378 26:0.7027 27:0.7027 28:0.6351 29:0.3919 30:0.5946 31:0.5946 32:0.6216 33:0.6486 34:0.527 35:0.5 36:0.5811 37:0.5946 38:0.4189 39:0.3243 40:0.3378 41:0.2432 42:0.1486 43:0.0946 44:0.0541 45:0.0946 46:0.1216 47:0.1081 48:0.0135 49:0.027 
1 0:0 1:0 2:0 3:0 4:0 5:0 6:0 7:0 8:0 9:0 10:0 11:0 12:0 13:0.027 14:0.0405 15:0.0946 16:0.1351 17:0.1486 18:0.1892 19:0.1892 20:0.1486 21:0.2162 22:0.2027 23:0.1486 24:0.1892 25:0.0946 26:0.0676 27:0.0676 28:0.0676 29:0.1351 30:0.2838 31:0.2432 32:0.3108 33:0.3649 34:0.4054 35:0.2838 36:0.2162 37:0.1892 38:0.1351 39:0.1892 40:0.0541 41:0.0405 42:0.027 43:0.0135 44:0 45:0.027 46:0.0405 47:0 48:0 49:0 
1 0:0 1:0 2:0.0135 3:0.0135 4:0.0135 5:0.0135 6:0.0135 7:0 8:0.027 9:0.0405 10:0.0405 11:0.027 12:0.0405 13:0.0946 14:0.1081 15:0.1486 16:0.1351 17:0.1351 18:0.0676 19:0.0811 20:0.2432 21:0.2162 22:0.3514 23:0.5135 24:0.4865 25:0.5 26:0.6216 27:0.473 28:0.5541 29:0.3919 30:0.5 31:0.5135 32:0.5135 33:0.4189 34:0.4189 35:0.5405 36:0.6892 37:0.7027 38:0.6486 39:0.6216 40:0.5135 41:0 42:0 43:0.0135 44:0.3649 45:0.2162 46:0.0135 47:0.0946 48:0.2568 49:0 
1 0:0.025 1:0 2:0.075 3:0.0375 4:0.025 5:0.05 6:0.05 7:0.0125 8:0.025 9:0.025 10:0.0375 11:0.0125 12:0.05 13:0.1625 14:0.2375 15:0.275 16:0.3 17:0.3875 18:0.3375 19:0.3125 20:0.4 21:0.3 22:0.275 23:0.2625 24:0.1625 25:0.275 26:0.275 27:0.25 28:0.3125 29:0.3125 30:0.225 31:0.2375 32:0.2 33:0.15 34:0.1875 35:0.2 36:0.15 37:0.0875 38:0.05 39:0.0625 40:0.025 41:0.0125 42:0.0125 43:0 44:0.0125 45:0.0125 46:0 47:0 48:0 49:0.0625 
1 0:0 1:0 2:0 3:0 4:0 5:0 6:0 7:0 8:0 9:0 10:0 11:0 12:0.0137 13:0 14:0.0137 15:0 16:0.0137 17:0.0137 18:0.1096 19:0.0959 20:0.0822 21:0.0959 22:0.137 23:0.1781 24:0.2055 25:0.2603 26:0.411 27:0.5479 28:0.6164 29:0.6849 30:0.6712 31:0.6438 32:0.6986 33:0.6712 34:0.6712 35:0.6027 36:0.589 37:0.5342 38:0.4521 39:0.3699 40:0.2329 41:0.1781 42:0.2055 43:0.0822 44:0.0548 45:0.0548 46:0.0274 47:0.0137 48:0 49:0.0137 
1 0:0 1:0 2:0 3:0 4:0 5:0 6:0 7:0 8:0 9:0.0135 10:0.0676 11:0.0676 12:0.0946 13:0.1351 14:0.1351 15:0.1351 16:0.2297 17:0.3378 18:0.4459 19:0.6081 20:0.5541 21:0.4324 22:0.5405 23:0.5541 24:0.5 25:0.5676 26:0.4324 27:0.4324 28:0.4865 29:0.3919 30:0.3243 31:0.2568 32:0.2027 33:0.2838 34:0.3514 35:0.3649 36:0.2973 37:0.2703 38:0.3514 39:0.2838 40:0.1622 41:0.1351 42:0.1486 43:0.0676 44:0.0405 45:0 46:0.027 47:0 48:0 49:0 
1 0:0 1:0 2:0 3:0 4:0 5:0 6:0 7:0 8:0 9:0 10:0 11:0 12:0.1757 13:0.6081 14:0.0946 15:0.2027 16:0.3108 17:0.1216 18:0.3243 19:0.1892 20:0.0946 21:0.2162 22:0.0811 23:0.1081 24:0.0946 25:0.1757 26:0.0676 27:0.1892 28:0.3784 29:0.473 30:0.2973 31:0.2838 32:0.3514 33:0.3649 34:0.3378 35:0.2297 36:0.3108 37:0.2568 38:0.1081 39:0.0811 40:0.0946 41:0.0405 42:0.0135 43:0.0405 44:0.0405 45:0.0405 46:0.027 47:0.0135 48:0 49:0 
1 0:0 1:0.0303 2:0.0152 3:0.0303 4:0.1515 5:0.1818 6:0.2121 7:0.2273 8:0.2424 9:0.1212 10:0.1667 11:0.2727 12:0.3485 13:0.303 14:0.3788 15:0.3485 16:0.3636 17:0.3636 18:0.4091 19:0.3636 20:0.3333 21:0.4091 22:0.5152 23:0.5758 24:0.6061 25:0.5606 26:0.3788 27:0.3485 28:0.4091 29:0.4242 30:0.5152 31:0.5152 32:0.4091 33:0.3636 34:0.3939 35:0.303 36:0.5606 37:0.4394 38:0.3333 39:0.303 40:0.1818 41:0.1818 42:0.1515 43:0.0909 44:0.1061 45:0.1667 46:0.0455 47:0.1061 48:0.1061 49:0.0606 
1 0:0.0303 1:0.0909 2:0.0303 3:0.0758 4:0.0455 5:0.0455 6:0.0152 7:0.0606 8:0.1061 9:0.4091 10:0.5 11:0.5606 12:0.5606 13:0.7121 14:0.7121 15:0.7879 16:0.8182 17:0.9091 18:0.9242 19:0.8485 20:0.8636 21:0.8939 22:0.8333 23:0.8636 24:0.9091 25:0.9242 26:0.8939 27:0.8182 28:0.8182 29:0.8636 30:0.9394 31:0.8788 32:0.803 33:0.8333 34:0.8333 35:0.8333 36:0.7273 37:0.7424 38:0.5909 39:0.5 40:0.5606 41:0.6212 42:0.3182 43:0.2879 44:0.2576 45:0.197 46:0.1667 47:0.1818 48:0.303 49:0.2727 
1 0:0.209 1:0.1642 2:0.2537 3:0.2388 4:0.2537 5:0.1791 6:0.2687 7:0.2836 8:0.3582 9:0.3134 10:0.2537 11:0.3433 12:0.3731 13:0.4478 14:0.4478 15:0.597 16:0.5821 17:0.5821 18:0.5373 19:0.3433 20:0.5224 21:0.5224 22:0.6119 23:0.3582 24:0.4478 25:0.3731 26:0.4627 27:0.4478 28:0.4328 29:0.3881 30:0.6418 31:0.4627 32:0.403 33:0.3582 34:0.3881 35:0.403 36:0.3731 37:0.3284 38:0.2836 39:0.3134 40:0.2836 41:0.1642 42:0.1343 43:0.1045 44:0.194 45:0.1791 46:0.2239 47:0.1493 48:0.1194 49:0.1194 
1 0:0.2113 1:0.1972 2:0.2394 3:0.3239 4:0.169 5:0.169 6:0.1549 7:0.2254 8:0.2394 9:0.2113 10:0.1831 11:0.1831 12:0.2676 13:0.1127 14:0.1549 15:0.0986 16:0.1408 17:0.1549 18:0.1972 19:0.2676 20:0.1831 21:0.1549 22:0.2676 23:0.1408 24:0.3099 25:0.1408 26:0.2394 27:0.2394 28:0.2676 29:0.3944 30:0.3803 31:0.4366 32:0.6338 33:0.5775 34:0.662 35:0.6197 36:0.5915 37:0.3803 38:0.2254 39:0.2535 40:0.1127 41:0.0423 42:0.0845 43:0.0986 44:0.0563 45:0.0423 46:0 47:0.0282 48:0.1268 49:0.0141 
1 0:0 1:0 2:0 3:0 4:0 5:0 6:0 7:0.0135 8:0.027 9:0.0811 10:0.1351 11:0.0811 12:0.1622 13:0.1892 14:0.3108 15:0.1757 16:0.2027 17:0.3243 18:0.2838 19:0.4324 20:0.6351 21:0.7027 22:0.7027 23:0.3514 24:0.1486 25:0.1216 26:0 27:0.0135 28:0.0541 29:0.0676 30:0.1081 31:0.1757 32:0.1757 33:0.1486 34:0.1622 35:0.0811 36:0.027 37:0.0135 38:0.0135 39:0.027 40:0.0135 41:0 42:0 43:0 44:0 45:0 46:0 47:0 48:0 49:0 
1 0:0 1:0 2:0.027 3:0.0135 4:0.0405 5:0.0811 6:0.0541 7:0.0541 8:0.0405 9:0.0541 10:0.0405 11:0.0676 12:0.1081 13:0.0946 14:0.0541 15:0.2432 16:0.3514 17:0.5811 18:0.5811 19:0.5135 20:0.6081 21:0.3378 22:0.5 23:0.2432 24:0.3243 25:0.0946 26:0.027 27:0.0135 28:0.0135 29:0 30:0.0135 31:0 32:0 33:0 34:0.027 35:0.0135 36:0.0135 37:0 38:0.0135 39:0 40:0 41:0 42:0 43:0 44:0.0135 45:0 46:0.0135 47:0 48:0.027 49:0.027 
1 0:0 1:0.1216 2:0.0811 3:0.1351 4:0.2973 5:0.5 6:0.4459 7:0.4865 8:0.5541 9:0.4865 10:0.4459 11:0.3649 12:0.3378 13:0.3243 14:0.4324 15:0.6081 16:0.6486 17:0.6081 18:0.5676 19:0.6216 20:0.5135 21:0.3919 22:0.4324 23:0.4189 24:0.3108 25:0.2703 26:0.3243 27:0.3108 28:0.3108 29:0.3514 30:0.3378 31:0.2162 32:0.2703 33:0.2027 34:0.2027 35:0.1892 36:0.1351 37:0.1622 38:0.1892 39:0.1892 40:0.1216 41:0.0811 42:0.1351 43:0.0811 44:0.0676 45:0.0541 46:0.0135 47:0.027 48:0.027 49:0 
1 0:0 1:0.0225 2:0.0225 3:0.0674 4:0.1573 5:0.0899 6:0.1348 7:0.236 8:0.2247 9:0.2697 10:0.2921 11:0.4607 12:0.4045 13:0.3483 14:0.2697 15:0.4494 16:0.4045 17:0.5843 18:0.427 19:0.382 20:0.618 21:0.5169 22:0.573 23:0.5056 24:0.5843 25:0.573 26:0.5281 27:0.4831 28:0.5843 29:0.5169 30:0.4045 31:0.3933 32:0.4045 33:0.2809 34:0.3258 35:0.2247 36:0.2472 37:0.2247 38:0.1348 39:0.1348 40:0.1685 41:0.0899 42:0.0899 43:0.0337 44:0.0112 45:0.0225 46:0.0112 47:0.0225 48:0 49:0 
1 0:0.3571 1:0.2976 2:0.2976 3:0.381 4:0.5 5:0.6071 6:0.4405 7:0.5238 8:0.5 9:0.5476 10:0.5833 11:0.5476 12:0.5595 13:0.7143 14:0.631 15:0.5833 16:0.5595 17:0.631 18:0.5952 19:0.5238 20:0.6071 21:0.5119 22:0.5595 23:0.6905 24:0.6786 25:0.6905 26:0.6905 27:0.6905 28:0.7738 29:0.8333 30:0.8333 31:0.7738 32:0.8214 33:0.8095 34:0.881 35:0.9048 36:0.8929 37:0.881 38:0.8333 39:0.869 40:0.7738 41:0.5476 42:0.369 43:0.0833 44:0.0119 45:0.0238 46:0.0238 47:0.0238 48:0.0952 49:0.0476 
1 0:0.0135 1:0 2:0 3:0 4:0 5:0 6:0 7:0.0135 8:0 9:0 10:0 11:0.0811 12:0.0135 13:0.0135 14:0.0135 15:0.527 16:0.6757 17:0.7432 18:0.8514 19:0.7432 20:0.6892 21:0.6216 22:0.7162 23:0.6622 24:0.5811 25:0.5541 26:0.5811 27:0.6216 28:0.6892 29:0.7432 30:0.5541 31:0.5811 32:0.7027 33:0.6216 34:0.5405 35:0.5541 36:0.4865 37:0.473 38:0.4595 39:0.5 40:0.4324 41:0.527 42:0.4595 43:0.3919 44:0.4189 45:0.4459 46:0.4054 47:0.3108 48:0.4054 49:0.2973 
1 0:0 1:0 2:0.04 3:0.12 4:0.14 5:0.26 6:0.18 7:0.16 8:0.14 9:0.1 10:0.34 11:0.54 12:0.54 13:0.84 14:0.64 15:0.56 16:0.56 17:0.66 18:0.64 19:0.5 20:0.66 21:0.46 22:0.56 23:0.46 24:0.34 25:0.18 26:0.18 27:0.12 28:0.2 29:0.3 30:0.36 31:0.2 32:0.18 33:0.18 34:0.22 35:0.24 36:0.22 37:0.2 38:0.14 39:0.16 40:0.04 41:0.14 42:0.06 43:0.06 44:0.08 45:0.14 46:0.16 47:0.16 48:0.12 49:0.12 
1 0:0.169 1:0.1831 2:0.2113 3:0.3239 4:0.2394 5:0.2817 6:0.1972 7:0.2958 8:0.2958 9:0.338 10:0.3803 11:0.3521 12:0.3803 13:0.5211 14:0.3803 15:0.4789 16:0.4648 17:0.5352 18:0.4648 19:0.4789 20:0.5352 21:0.5915 22:0.5493 23:0.507 24:0.4507 25:0.493 26:0.4225 27:0.338 28:0.4789 29:0.4225 30:0.3662 31:0.4085 32:0.3662 33:0.4507 34:0.4225 35:0.2817 36:0.2254 37:0.1831 38:0.1127 39:0.0986 40:0.0986 41:0.0986 42:0.0704 43:0.0563 44:0.0282 45:0 46:0.0141 47:0 48:0 49:0 
1 0:0.0698 1:0.2093 2:0.1047 3:0.0698 4:0.0581 5:0.0465 6:0.0581 7:0.0814 8:0.0233 9:0.0581 10:0.1163 11:0.093 12:0.093 13:0.0814 14:0.1628 15:0.2907 16:0.4535 17:0.4535 18:0.3605 19:0.4767 20:0.4186 21:0.5 22:0.4535 23:0.3256 24:0.2326 25:0.1279 26:0.186 27:0.1279 28:0.0814 29:0.0814 30:0.186 31:0.1279 32:0.2209 33:0.2674 34:0.314 35:0.2442 36:0.314 37:0.4302 38:0.4535 39:0.3605 40:0.3256 41:0.2326 42:0.2791 43:0.2442 44:0.2674 45:0.1395 46:0.1744 47:0.093 48:0.0698 49:0.093 
1 0:0 1:0 2:0.0135 3:0.0541 4:0.0946 5:0.1757 6:0.1351 7:0.1216 8:0.2027 9:0.2297 10:0.2162 11:0.2973 12:0.3108 13:0.2703 14:0.3108 15:0.2973 16:0.3108 17:0.3378 18:0.3649 19:0.3784 20:0.3514 21:0.3784 22:0.3784 23:0.4459 24:0.4324 25:0.3649 26:0.4054 27:0.4459 28:0.2838 29:0.3243 30:0.3108 31:0.2973 32:0.2703 33:0.3378 34:0.2297 35:0.2838 36:0.2568 37:0.3649 38:0.1892 39:0.1081 40:0.1216 41:0 42:0.0135 43:0 44:0 45:0 46:0 47:0 48:0 49:0 
1 0:0 1:0 2:0 3:0.027 4:0.027 5:0.0405 6:0.0676 7:0.0811 8:0.0946 9:0.1892 10:0.2027 11:0.2838 12:0.2703 13:0.2703 14:0.2973 15:0.4459 16:0.4865 17:0.473 18:0.4595 19:0.5811 20:0.5405 21:0.5811 22:0.5811 23:0.6216 24:0.5541 25:0.5405 26:0.5541 27:0.527 28:0.6622 29:0.5946 30:0.5 31:0.527 32:0.4459 33:0.4459 34:0.4595 35:0.3649 36:0.3514 37:0.3108 38:0.2432 39:0.1622 40:0.1757 41:0.0405 42:0.0541 43:0.027 44:0.0541 45:0.027 46:0.027 47:0.0135 48:0.0405 49:0 
1 0:0 1:0 2:0 3:0 4:0 5:0 6:0.0135 7:0 8:0.0676 9:0.1216 10:0.1892 11:0.1486 12:0.0676 13:0.0405 14:0.0811 15:0.0135 16:0.0676 17:0 18:0.027 19:0.1216 20:0.2838 21:0.2703 22:0.473 23:0.6081 24:0.4865 25:0.5676 26:0.5676 27:0.6216 28:0.473 29:0.5676 30:0.6351 31:0.6351 32:0.5405 33:0.5405 34:0.527 35:0.5541 36:0.4324 37:0.473 38:0.3649 39:0.3649 40:0.1622 41:0.0946 42:0.0676 43:0.0676 44:0.0676 45:0.0811 46:0.0135 47:0.027 48:0.0541 49:0.0676 
1 0:0 1:0 2:0 3:0 4:0 5:0.0154 6:0 7:0.0154 8:0.0308 9:0.0154 10:0.0308 11:0 12:0.0462 13:0.1385 14:0.2769 15:0.3538 16:0.3385 17:0.4 18:0.4615 19:0.4923 20:0.5385 21:0.6154 22:0.5538 23:0.6769 24:0.6769 25:0.7692 26:0.7846 27:0.6615 28:0.8462 29:0.8308 30:0.9385 31:0.9077 32:0.9538 33:0.8615 34:0.9538 35:0.9538 36:0.8923 37:0.9077 38:0.8154 39:0.8923 40:0.4462 41:0.0923 42:0.0308 43:0.0154 44:0 45:0 46:0 47:0 48:0 49:0 
1 0:0 1:0 2:0 3:0 4:0 5:0 6:0 7:0.0267 8:0.1333 9:0.2533 10:0.28 11:0.4267 12:0.4533 13:0.6533 14:0.68 15:0.56 16:0.6667 17:0.8133 18:0.8533 19:0.8667 20:0.8667 21:0.9067 22:0.8933 23:0.8533 24:0.84 25:0.7733 26:0.7067 27:0.7467 28:0.72 29:0.6667 30:0.6267 31:0.56 32:0.5067 33:0.48 34:0.5333 35:0.4267 36:0.2533 37:0.2 38:0.2133 39:0.1467 40:0.1467 41:0.0533 42:0.0533 43:0.0533 44:0.0267 45:0.04 46:0.0667 47:0.0133 48:0 49:0 
1 0:0 1:0 2:0 3:0 4:0 5:0 6:0 7:0 8:0 9:0 10:0 11:0 12:0 13:0 14:0 15:0 16:0 17:0 18:0 19:0 20:0 21:0.0732 22:0.0488 23:0.1707 24:0.0854 25:0.0976 26:0.1829 27:0.2805 28:0.5366 29:0.4634 30:0.5366 31:0.561 32:0.8293 33:0.7439 34:0.7439 35:0.6707 36:0.6098 37:0.6098 38:0.561 39:0.3415 40:0.1463 41:0.1098 42:0 43:0 44:0 45:0.0732 46:0.0244 47:0.061 48:0.0488 49:0.0244 
1 0:0 1:0 2:0 3:0.0299 4:0 5:0 6:0.0149 7:0.0448 8:0.0299 9:0 10:0.0149 11:0.0448 12:0 13:0.0448 14:0.1642 15:0.0597 16:0.2985 17:0.1493 18:0.1642 19:0.194 20:0.1343 21:0.1791 22:0.3731 23:0.4925 24:0.3881 25:0.2537 26:0.3731 27:0.4179 28:0.3731 29:0.1343 30:0.2985 31:0.3731 32:0.403 33:0.3582 34:0.3433 35:0.3284 36:0.3284 37:0.3134 38:0.1791 39:0.0299 40:0.0746 41:0.0597 42:0.0597 43:0.1045 44:0.0746 45:0.0448 46:0.0448 47:0.0299 48:0.0448 49:0.0299 
1 0:0 1:0 2:0 3:0 4:0 5:0 6:0.04 7:0.0533 8:0.0267 9:0.0667 10:0.0533 11:0.04 12:0.1067 13:0.2533 14:0.5067 15:0.36 16:0.2533 17:0.32 18:0.4 19:0.3067 20:0.3733 21:0.3467 22:0.28 23:0.2133 24:0.1733 25:0.12 26:0 27:0.1067 28:0.1733 29:0.2267 30:0.1867 31:0.2667 32:0.2933 33:0.1067 34:0.0533 35:0.1733 36:0.0667 37:0.0267 38:0.0267 39:0.0133 40:0.0267 41:0 42:0.0133 43:0.04 44:0 45:0.0133 46:0 47:0 48:0 49:0 
0.9904373923306854 0:0 1:0 2:0 3:0 4:0 5:0 6:0 7:0 8:0 9:0.0667 10:0.1467 11:0.0933 12:0.0667 13:0.1067 14:0.0533 15:0.0933 16:0.1067 17:0.0533 18:0.1333 19:0.2267 20:0.2133 21:0.28 22:0.3867 23:0.3867 24:0.56 25:0.6133 26:0.52 27:0.68 28:0.7067 29:0.6667 30:0.68 31:0.56 32:0.68 33:0.7333 34:0.6133 35:0.6533 36:0.36 37:0.1333 38:0 39:0.0267 40:0.0133 41:0.0933 42:0.0267 43:0.04 44:0.1333 45:0.04 46:0.0267 47:0.0133 48:0.0133 49:0.0267 
1 0:0.0147 1:0.0147 2:0.0294 3:0.0294 4:0.0294 5:0.0441 6:0.1029 7:0.1471 8:0.1176 9:0.1765 10:0.1471 11:0.25 12:0.1618 13:0.2353 14:0.1912 15:0.1912 16:0.2206 17:0.2794 18:0.3088 19:0.3971 20:0.4412 21:0.4412 22:0.6765 23:0.5588 24:0.7059 25:0.7647 26:0.6324 27:0.5588 28:0.5441 29:0.5294 30:0.4412 31:0.3676 32:0.5294 33:0.6471 34:0.7353 35:0.7647 36:0.6029 37:0.2353 38:0.1029 39:0.1618 40:0.2353 41:0.0441 42:0.0735 43:0.1029 44:0.0441 45:0.0441 46:0.0588 47:0.1912 48:0.1324 49:0.1029 
1 0:0.0429 1:0.0286 2:0.0286 3:0.0714 4:0.0429 5:0.1286 6:0.0571 7:0.0714 8:0.0857 9:0.1714 10:0.2 11:0.1286 12:0.1286 13:0.2714 14:0.2429 15:0.2571 16:0.1857 17:0.1714 18:0.3 19:0.3714 20:0.3571 21:0.4 22:0.3143 23:0.4143 24:0.3286 25:0.3857 26:0.3714 27:0.4 28:0.3571 29:0.4714 30:0.4429 31:0.4 32:0.3857 33:0.4714 34:0.5 35:0.5571 36:0.5714 37:0.5714 38:0.5286 39:0.4286 40:0.1714 41:0.3143 42:0.2857 43:0.1714 44:0.3571 45:0.0143 46:0.1286 47:0.1143 48:0 49:0 
1 0:0 1:0 2:0 3:0 4:0 5:0.0233 6:0.0233 7:0.0465 8:0.0698 9:0.0698 10:0.0698 11:0.1395 12:0.0698 13:0.093 14:0.1395 15:0.2326 16:0.2326 17:0.2791 18:0.2093 19:0.186 20:0.186 21:0.2093 22:0.2558 23:0.1163 24:0.1628 25:0.3023 26:0.3023 27:0.2093 28:0.2326 29:0.3488 30:0.3488 31:0.2791 32:0.3488 33:0.186 34:0.1163 35:0.3256 36:0.3256 37:0.2558 38:0.1628 39:0.2558 40:0.1628 41:0.0465 42:0 43:0 44:0 45:0 46:0 47:0 48:0 49:0 
1 0:0.1486 1:0.1622 2:0.1486 3:0.1892 4:0.1892 5:0.1757 6:0.1351 7:0.2027 8:0.1892 9:0.2432 10:0.3378 11:0.3108 12:0.4189 13:0.4054 14:0.4459 15:0.4324 16:0.4595 17:0.473 18:0.5541 19:0.5135 20:0.527 21:0.6486 22:0.5676 23:0.5541 24:0.5405 25:0.6081 26:0.5541 27:0.6486 28:0.5676 29:0.5135 30:0.6622 31:0.6486 32:0.5811 33:0.6351 34:0.5811 35:0.5541 36:0.5811 37:0.3919 38:0.3784 39:0.2297 40:0.0811 41:0.0811 42:0.0676 43:0.0541 44:0.0676 45:0.0811 46:0.027 47:0.0405 48:0.0811 49:0.027 
1 0:0 1:0.0135 2:0 3:0 4:0.027 5:0.0135 6:0 7:0.0135 8:0.0135 9:0.0135 10:0.0541 11:0.0676 12:0.0676 13:0.2162 14:0.2297 15:0.4595 16:0.6216 17:0.5676 18:0.6216 19:0.527 20:0.6081 21:0.5676 22:0.6216 23:0.7568 24:0.7162 25:0.8919 26:0.7432 27:0.7568 28:0.4324 29:0.4459 30:0.473 31:0.473 32:0.4865 33:0.473 34:0.3243 35:0.5135 36:0.5946 37:0.5541 38:0.4189 39:0.3514 40:0.3243 41:0.2027 42:0.1486 43:0.0541 44:0.0811 45:0.027 46:0.0405 47:0.027 48:0.027 49:0.0135 
1 0:0 1:0.0405 2:0.0541 3:0.0676 4:0.0811 5:0.0946 6:0.0811 7:0.1486 8:0.1216 9:0.1892 10:0.2162 11:0.2027 12:0.2162 13:0.2838 14:0.2432 15:0.2297 16:0.3514 17:0.3378 18:0.2973 19:0.4189 20:0.3784 21:0.4324 22:0.5541 23:0.5541 24:0.6081 25:0.6757 26:0.6081 27:0.7162 28:0.6081 29:0.6081 30:0.6486 31:0.6081 32:0.5676 33:0.6216 34:0.6757 35:0.6622 36:0.7027 37:0.7027 38:0.7297 39:0.5405 40:0.473 41:0.3649 42:0.3108 43:0.2432 44:0.1622 45:0.1757 46:0.1757 47:0.1216 48:0.1486 49:0.0541 
1 0:0.0135 1:0.1216 2:0 3:0.0541 4:0.0676 5:0.0946 6:0.0946 7:0.0946 8:0.1351 9:0.2027 10:0.1351 11:0.1892 12:0.2162 13:0.2432 14:0.2703 15:0.3378 16:0.4189 17:0.4054 18:0.4865 19:0.4324 20:0.473 21:0.473 22:0.5946 23:0.6216 24:0.4459 25:0.5135 26:0.5135 27:0.4324 28:0.527 29:0.5811 30:0.4865 31:0.4459 32:0.4054 33:0.2297 34:0.2027 35:0.0676 36:0.0541 37:0 38:0.027 39:0.0135 40:0.027 41:0 42:0.027 43:0 44:0 45:0 46:0 47:0 48:0 49:0 
1 0:0.0135 1:0.0811 2:0.2162 3:0.0946 4:0.0946 5:0.3514 6:0.1757 7:0.2703 8:0.2432 9:0.3649 10:0.5135 11:0.5135 12:0.5946 13:0.6892 14:0.6892 15:0.8378 16:0.6622 17:0.7703 18:0.7568 19:0.7838 20:0.7297 21:0.6757 22:0.7838 23:0.3108 24:0.1486 25:0.1892 26:0.0676 27:0.0676 28:0.1892 29:0.2162 30:0.1486 31:0.0946 32:0.1216 33:0.1622 34:0.1892 35:0.1486 36:0.2432 37:0.1351 38:0.1216 39:0.0811 40:0.0541 41:0.027 42:0.1622 43:0.0405 44:0.0676 45:0.2027 46:0.0811 47:0.0541 48:0.1757 49:0.027 
1 0:0 1:0 2:0 3:0 4:0 5:0 6:0 7:0 8:0 9:0.0159 10:0.0635 11:0.1905 12:0.1905 13:0.3492 14:0.3492 15:0.381 16:0.4921 17:0.4444 18:0.4286 19:0.4444 20:0.3492 21:0.3016 22:0.3016 23:0.2381 24:0.1746 25:0.1587 26:0.0952 27:0.0794 28:0.0952 29:0.1429 30:0.1905 31:0.0794 32:0.0952 33:0.1905 34:0.1587 35:0.0952 36:0.1111 37:0.1111 38:0.0952 39:0.1429 40:0.0476 41:0.0635 42:0.0635 43:0.0794 44:0.0794 45:0.0794 46:0.0635 47:0.0317 48:0.0476 49:0.1111 
1 0:0 1:0 2:0 3:0 4:0 5:0 6:0 7:0 8:0 9:0 10:0 11:0 12:0 13:0.0471 14:0.1647 15:0.2471 16:0.4 17:0.4353 18:0.4824 19:0.5294 20:0.5176 21:0.5176 22:0.5294 23:0.5882 24:0.4353 25:0.4353 26:0.2235 27:0.2118 28:0.2118 29:0.2588 30:0.2118 31:0.1529 32:0.1765 33:0.0941 34:0.0353 35:0.0824 36:0.3294 37:0.3176 38:0.3412 39:0.2 40:0.2235 41:0.1412 42:0.0941 43:0.0353 44:0.0118 45:0.0235 46:0.0118 47:0 48:0 49:0 
1 0:0 1:0 2:0 3:0 4:0 5:0 6:0 7:0.0108 8:0.0108 9:0 10:0 11:0 12:0 13:0 14:0 15:0 16:0 17:0.0538 18:0.0753 19:0.129 20:0.2151 21:0.2688 22:0.3226 23:0.3978 24:0.4731 25:0.5591 26:0.5699 27:0.6022 28:0.6882 29:0.6882 30:0.7312 31:0.7097 32:0.6559 33:0.6237 34:0.5806 35:0.4731 36:0.4516 37:0.2043 38:0.0108 39:0 40:0 41:0 42:0 43:0 44:0.0108 45:0 46:0 47:0 48:0 49:0 
0.6464669433632948 0:0.2632 1:0.2105 2:0.2632 3:0.1974 4:0.2105 5:0.25 6:0.5395 7:0.3684 8:0.4474 9:0.3816 10:0.6053 11:0.6711 12:0.6447 13:0.6842 14:0.2895 15:0.4079 16:0.6053 17:0.6579 18:0.6184 19:0.6447 20:0.7632 21:0.6974 22:0.7895 23:0.8553 24:0.7105 25:0.8158 26:0.6316 27:0.6579 28:0.6316 29:0.6447 30:0.5263 31:0.6316 32:0.5395 33:0.7632 34:0.5658 35:0.6184 36:0.7763 37:0.4474 38:0.2895 39:0.2237 40:0.3421 41:0.2763 42:0.2105 43:0.25 44:0.25 45:0.1447 46:0.2632 47:0.3026 48:0.1842 49:0.1711 
